svm_type nu_svc
kernel_type rbf
gamma 0.000283688
nr_class 3
total_sv 712
rho 4.83911 7.68215 8.05077
label 0 1 2
probA -2.76567 -4.72158 -3.58335
probB 0.157887 1.73377 0.420654
nr_sv 406 165 141
SV
61.10263995987944 0 1118:1 
182.6439582663865 0 127:1 292:1 578:1 661:1 1326:1 2089:1 2274:1 2551:1 3327:1 
213.1495428733054 63.7701445474779 21:1 347:1 1134:1 1263:1 1457:1 1615:1 1750:1 1952:1 2135:1 2461:1 2996:1 3050:1 3101:1 
60.95217681216732 2.662452114853178 834:1 1423:1 1690:1 3140:1 
353.4877689509592 17.0390023984097 1162:1 1202:1 2115:1 2265:1 2329:1 
98.3799681369852 0 196:1 
0 3.730203432312608 158:1 257:1 2461:1 3265:1 
353.4877689509592 60.15333084014064 807:1 1097:1 1760:1 2758:1 3265:1 
48.11367843976587 11.1895020726597 433:1 1354:1 1540:1 2304:1 3184:1 
353.4877689509592 37.44666626635428 578:1 1162:1 1737:1 2646:1 3159:1 3184:1 3521:1 
312.7274538936714 83.04142265630492 860:1 2586:1 2923:1 2934:1 2953:1 2979:1 3364:1 3398:1 
138.2702961570063 60.9374466120947 13:1 462:1 774:1 1051:1 1197:1 1304:1 1356:1 1630:1 1904:1 2273:1 2281:1 2493:1 2863:1 2922:1 3046:1 3221:1 3257:1 
6.100528033488109 0 25:1 119:1 2578:1 3252:1 
85.47146660013152 83.04142265630492 187:1 591:1 834:1 1122:1 1722:1 2014:1 3423:1 
25.24134822438759 0 165:1 225:1 346:1 375:1 720:1 831:1 835:1 1245:1 1654:1 2538:1 2663:1 2833:1 2923:1 3047:1 3285:1 3372:1 3489:1 
113.980938731057 0 708:1 1888:1 2845:1 
75.25176401473962 47.3837411084238 93:1 620:1 1346:1 1510:1 2014:1 2862:1 3265:1 3489:1 
143.0268621767421 43.73966455987934 860:1 1134:1 1719:1 1722:1 1973:1 2172:1 2525:1 2579:1 2615:1 2633:1 2737:1 2923:1 3056:1 3396:1 
175.0083081034497 0 249:1 292:1 973:1 2923:1 3056:1 
0 83.04142265630492 147:1 375:1 703:1 1122:1 1263:1 1328:1 1500:1 1614:1 2245:1 2737:1 2979:1 3265:1 3518:1 
353.4877689509592 0 640:1 1233:1 2485:1 
219.1484117357607 0 147:1 1263:1 1338:1 2551:1 2668:1 2797:1 2862:1 
48.95888164802669 0 320:1 851:1 1685:1 1720:1 1910:1 2385:1 2523:1 
5.344708723681277 0 251:1 1112:1 2221:1 2555:1 
155.8256031574855 0 1274:1 
0 83.04142265630492 61:1 79:1 171:1 331:1 337:1 484:1 1194:1 1641:1 2366:1 2577:1 2734:1 3127:1 3310:1 
0 11.3249736714161 147:1 292:1 862:1 981:1 1099:1 1158:1 1263:1 1283:1 1534:1 1565:1 1885:1 2172:1 2336:1 2735:1 2737:1 2996:1 
0 83.04142265630492 158:1 202:1 2021:1 2234:1 2874:1 2923:1 
10.24207804367043 0 147:1 1063:1 1158:1 1263:1 1268:1 1446:1 1674:1 2089:1 2141:1 2326:1 2885:1 3372:1 
353.4877689509592 0 578:1 860:1 1263:1 2472:1 2781:1 
193.6350980206091 0 370:1 451:1 803:1 817:1 1208:1 1495:1 2023:1 2089:1 2378:1 2798:1 3005:1 3006:1 3075:1 3175:1 3265:1 3372:1 3398:1 
0 1.888452816944646 522:1 760:1 900:1 930:1 1395:1 1495:1 2023:1 2135:1 2646:1 2663:1 2781:1 3192:1 3215:1 3519:1 
70.79552949837368 4.271816624079437 547:1 930:1 
10.50626033581432 0 93:1 260:1 401:1 522:1 722:1 815:1 835:1 860:1 1202:1 1208:1 1296:1 1441:1 1506:1 1722:1 2371:1 2416:1 2989:1 3255:1 
353.4877689509592 54.4527810618637 242:1 506:1 842:1 860:1 964:1 1207:1 1208:1 1296:1 2391:1 2667:1 2843:1 2880:1 2923:1 3097:1 3265:1 3445:1 
0 83.04142265630492 708:1 1263:1 1283:1 1535:1 2071:1 2692:1 2923:1 3057:1 3345:1 
107.9442805351007 12.20923598227429 451:1 620:1 807:1 831:1 842:1 1070:1 1263:1 1523:1 1553:1 1619:1 1654:1 2089:1 2141:1 2221:1 2245:1 2326:1 2547:1 2909:1 3056:1 3075:1 3265:1 3304:1 3345:1 3396:1 3445:1 
147.1527288083199 0 445:1 600:1 1642:1 1978:1 2289:1 2370:1 
353.4877689509592 0 1281:1 1477:1 2068:1 2143:1 2792:1 2890:1 2953:1 3497:1 
353.4877689509592 47.03493643864832 180:1 267:1 304:1 676:1 807:1 1333:1 2326:1 2577:1 2628:1 3117:1 3127:1 3255:1 3396:1 
0 67.87457770695087 1317:1 2573:1 3184:1 3187:1 
0 18.56506796772835 267:1 1047:1 1594:1 2073:1 2236:1 2371:1 2628:1 2719:1 2923:1 3187:1 3309:1 3454:1 
353.4877689509592 0 1442:1 1837:1 2663:1 
0 41.44081896644656 860:1 904:1 1252:1 1427:1 1523:1 1857:1 2923:1 
27.89337136335914 57.03417057981812 363:1 1055:1 1122:1 1202:1 1404:1 1807:1 1851:1 1866:1 1903:1 1949:1 2910:1 2911:1 3460:1 
353.4877689509592 0 626:1 690:1 842:1 2663:1 2766:1 
30.30164785293346 0 83:1 242:1 339:1 851:1 877:1 1214:1 1333:1 1380:1 1500:1 1949:1 2135:1 2794:1 2889:1 3396:1 3504:1 
99.20711814891857 0 920:1 1002:1 1093:1 2441:1 2663:1 2766:1 
353.4877689509592 0 1713:1 1714:1 1725:1 1857:1 2128:1 2663:1 2737:1 2782:1 3023:1 3363:1 
177.6781996599168 0 210:1 596:1 1202:1 1960:1 2666:1 2885:1 
27.63816279441519 15.7417603717599 160:1 183:1 263:1 441:1 494:1 538:1 559:1 565:1 690:1 1386:1 1787:1 1848:1 1981:1 2276:1 2541:1 2583:1 3015:1 3259:1 3403:1 
18.1937820481149 0.8894301879091632 123:1 183:1 392:1 601:1 830:1 1742:1 1990:1 2008:1 2266:1 2441:1 3231:1 
231.3326772834011 24.94968341760524 690:1 2018:1 2364:1 2795:1 
176.2980970062199 2.404665123879153 126:1 250:1 724:1 765:1 1082:1 1155:1 1158:1 1829:1 1940:1 2128:1 2548:1 2953:1 2992:1 3262:1 3449:1 3483:1 3491:1 3497:1 
0 81.91358674990822 16:1 35:1 131:1 158:1 186:1 225:1 247:1 272:1 275:1 292:1 320:1 343:1 370:1 395:1 484:1 620:1 703:1 709:1 831:1 849:1 894:1 900:1 912:1 960:1 966:1 1028:1 1055:1 1097:1 1122:1 1159:1 1204:1 1491:1 1606:1 1615:1 1655:1 1666:1 1804:1 1812:1 1842:1 1853:1 1895:1 2089:1 2135:1 2190:1 2195:1 2245:1 2426:1 2456:1 2472:1 2508:1 2509:1 2519:1 2538:1 2565:1 2577:1 2628:1 2641:1 2658:1 2692:1 2706:1 2737:1 2781:1 2827:1 2866:1 2910:1 2923:1 2930:1 2953:1 2996:1 3123:1 3164:1 3173:1 3240:1 3260:1 3265:1 3349:1 3499:1 3519:1 
40.07091840067974 0 1219:1 
218.3804174012224 0 954:1 1495:1 2089:1 2172:1 2532:1 2667:1 2706:1 2923:1 2948:1 3056:1 3265:1 
73.77131339916043 18.92998382600534 35:1 242:1 451:1 749:1 1805:1 2021:1 2135:1 2271:1 2400:1 2519:1 2563:1 2577:1 3204:1 
0 51.01103739412666 68:1 732:1 807:1 860:1 1219:1 1279:1 1314:1 1805:1 2602:1 2736:1 2923:1 3489:1 
0 83.04142265630492 2141:1 2737:1 2910:1 3201:1 
3.015642018188704 83.04142265630492 860:1 1097:1 1292:1 1603:1 3502:1 
154.1135682898483 46.87066867222912 390:1 927:1 1868:1 2450:1 2953:1 3380:1 
40.55934848199492 0 207:1 390:1 815:1 1263:1 1378:1 1390:1 1595:1 2135:1 2416:1 2889:1 3380:1 
79.34119122006003 0 45:1 1163:1 
353.4877689509592 83.04142265630492 265:1 807:1 
42.71254207341516 0 1666:1 1840:1 2698:1 2815:1 3458:1 
88.15615102655815 0 1666:1 1840:1 
273.1725400926462 0 2141:1 2304:1 2737:1 2910:1 3201:1 
0 1.321286480805859 345:1 1127:1 1441:1 1609:1 1674:1 1710:1 1725:1 2300:1 2586:1 2996:1 3239:1 
0 83.04142265630492 2141:1 2737:1 2910:1 3201:1 
353.4877689509592 0 199:1 767:1 1119:1 1773:1 2485:1 2663:1 2889:1 
353.4877689509592 51.12678646322946 445:1 772:1 1521:1 1710:1 2581:1 3216:1 
287.4867043078135 0 199:1 292:1 327:1 574:1 862:1 929:1 1291:1 1725:1 1847:1 2450:1 3064:1 3327:1 3465:1 
36.67748067033052 0 2304:1 3201:1 
353.4877689509592 31.69084125586593 1638:1 
27.90284942355967 0 1263:1 2091:1 2439:1 2803:1 
38.14716495726962 16.8773972625531 319:1 727:1 1158:1 1326:1 1537:1 1674:1 1885:1 1890:1 2473:1 2476:1 2508:1 2622:1 3066:1 3287:1 3327:1 
0 51.7569100287478 514:1 515:1 1407:1 1421:1 1441:1 2135:1 2190:1 2781:1 2953:1 2996:1 3255:1 3265:1 3286:1 
285.0684160994167 23.1516698112751 709:1 764:1 2667:1 2923:1 
310.3827617254807 0 722:1 984:1 1459:1 2245:1 2403:1 2934:1 2979:1 3398:1 3407:1 3489:1 
270.2127160761319 19.27127810882701 300:1 345:1 555:1 807:1 973:1 1202:1 1206:1 1245:1 1263:1 1308:1 1813:1 2135:1 2312:1 3026:1 
103.2466720097906 0 304:1 973:1 1315:1 2923:1 2941:1 3193:1 
20.45145102645205 9.541910534583758 71:1 287:1 374:1 470:1 554:1 622:1 627:1 781:1 785:1 786:1 835:1 1283:1 1295:1 1407:1 1587:1 1610:1 1667:1 1756:1 1861:1 1871:1 1904:1 1931:1 2172:1 2196:1 2235:1 2344:1 2453:1 2593:1 2601:1 2955:1 2956:1 3037:1 3145:1 3196:1 
40.51851646892008 0 304:1 514:1 787:1 1081:1 1421:1 1722:1 2245:1 2762:1 2996:1 3056:1 3489:1 
26.64023455988933 0 2:1 302:1 650:1 1162:1 1245:1 1263:1 1291:1 1629:1 1764:1 1940:1 1949:1 2172:1 2315:1 2326:1 2663:1 2934:1 3040:1 3159:1 3184:1 3421:1 
71.47677951504973 0 584:1 708:1 2715:1 2934:1 
21.59172324019518 56.51641946916076 272:1 346:1 420:1 484:1 515:1 553:1 645:1 684:1 703:1 890:1 929:1 1119:1 1122:1 1134:1 1233:1 1404:1 1432:1 1600:1 1655:1 1750:1 2060:1 2118:1 2221:1 2509:1 2538:1 2540:1 2597:1 2628:1 2663:1 2719:1 2953:1 3112:1 3119:1 3123:1 3184:1 3192:1 3271:1 3327:1 3461:1 3504:1 
101.2974001906889 20.83431045604636 162:1 203:1 329:1 684:1 812:1 1126:1 1402:1 1726:1 3453:1 3514:1 
71.69913992015242 0 300:1 304:1 1041:1 1205:1 1833:1 2304:1 2315:1 2782:1 2910:1 2919:1 3040:1 3215:1 3262:1 3265:1 3293:1 
0 1.233027192986205 24:1 140:1 165:1 502:1 645:1 835:1 849:1 860:1 879:1 1176:1 1202:1 1233:1 1245:1 1263:1 1291:1 1378:1 1499:1 1676:1 1725:1 1867:1 1961:1 2124:1 2141:1 2254:1 2586:1 2594:1 2633:1 2737:1 2923:1 2979:1 3026:1 3056:1 3117:1 3123:1 3148:1 3192:1 3287:1 3460:1 
46.2600278465852 9.224283035576388 2:1 158:1 212:1 292:1 345:1 460:1 489:1 515:1 620:1 650:1 655:1 929:1 1027:1 1205:1 1214:1 1264:1 1291:1 1407:1 1456:1 1495:1 1544:1 1654:1 1827:1 1949:1 2014:1 2190:1 2212:1 2245:1 2316:1 2809:1 2853:1 2919:1 2923:1 2953:1 2996:1 3021:1 3026:1 3143:1 3265:1 3332:1 3398:1 3518:1 
353.4877689509592 0 68:1 1291:1 1836:1 2885:1 3398:1 
353.4877689509592 0 1594:1 3351:1 3398:1 3521:1 
217.534602303123 0 582:1 887:1 1263:1 2463:1 
265.8298141520094 0 1492:1 1615:1 1868:1 
353.4877689509592 0 615:1 1338:1 2885:1 
16.76091433402076 18.96350963610288 93:1 118:1 545:1 620:1 670:1 708:1 832:1 853:1 1208:1 1389:1 1513:1 1951:1 2071:1 2135:1 2141:1 2202:1 2220:1 2327:1 2367:1 2577:1 2857:1 2923:1 3251:1 3265:1 3345:1 3396:1 3411:1 
229.8694406860816 0 304:1 805:1 1119:1 1805:1 1946:1 2011:1 2340:1 3173:1 
118.9427836494627 58.63940464135629 677:1 1119:1 1249:1 1615:1 1946:1 3250:1 
0 49.65751605311032 2:1 187:1 292:1 304:1 337:1 490:1 521:1 605:1 864:1 1005:1 1096:1 1119:1 1133:1 1577:1 1713:1 1725:1 1946:1 2089:1 2267:1 2366:1 2734:1 2857:1 2864:1 3061:1 3089:1 3188:1 3250:1 3318:1 3432:1 
130.8846400974556 42.25900960545393 2:1 187:1 292:1 304:1 337:1 490:1 521:1 605:1 864:1 1005:1 1096:1 1119:1 1133:1 1577:1 1713:1 1725:1 1946:1 2089:1 2267:1 2366:1 2734:1 2857:1 2864:1 3061:1 3089:1 3188:1 3250:1 3318:1 3432:1 
314.2445920667026 83.04142265630492 212:1 292:1 1143:1 1378:1 1545:1 1971:1 2737:1 2923:1 3056:1 3262:1 3465:1 
59.55723751473599 0 260:1 1268:1 2885:1 
0 43.80768306393134 564:1 708:1 966:1 973:1 1046:1 1263:1 1283:1 1292:1 1372:1 1863:1 2014:1 2172:1 2326:1 2558:1 2646:1 3075:1 3143:1 3269:1 3338:1 
25.70848212202421 0 2:1 228:1 390:1 708:1 870:1 1283:1 1682:1 1836:1 1867:1 1888:1 2135:1 2796:1 2979:1 3008:1 3215:1 3338:1 3398:1 
43.76818213697307 48.87197533327383 228:1 620:1 1395:1 1656:1 1888:1 1940:1 1961:1 2572:1 2815:1 2885:1 2944:1 2947:1 3184:1 3269:1 3518:1 
53.59070757968662 83.04142265630492 136:1 844:1 1674:1 2298:1 2607:1 2667:1 2923:1 
353.4877689509592 83.04142265630492 438:1 495:1 708:1 1202:1 1495:1 1730:1 1863:1 2135:1 3338:1 
178.0654954048573 83.04142265630492 434:1 708:1 807:1 1150:1 1572:1 2326:1 2378:1 2563:1 2646:1 2667:1 2712:1 2772:1 2923:1 3056:1 3265:1 3445:1 
353.4877689509592 0 1836:1 3398:1 
171.3105463493362 10.74432938338913 68:1 151:1 237:1 286:1 703:1 708:1 807:1 827:1 860:1 1136:1 1581:1 1674:1 1836:1 2089:1 2172:1 2245:1 2485:1 2617:1 2803:1 2889:1 2923:1 3398:1 3497:1 3504:1 3518:1 
128.6507344032663 0 337:1 406:1 443:1 606:1 2370:1 
106.9070558176088 0 21:1 158:1 346:1 620:1 860:1 966:1 1495:1 2141:1 2245:1 2304:1 2737:1 3265:1 3398:1 
293.2093372658848 0 35:1 40:1 1835:1 1867:1 2213:1 2926:1 
353.4877689509592 32.82682174431867 177:1 228:1 1348:1 1495:1 1547:1 2023:1 2979:1 3398:1 
103.2507646639612 33.93249690965775 61:1 95:1 136:1 356:1 954:1 1133:1 1563:1 1687:1 1713:1 2071:1 2581:1 2857:1 2886:1 
100.0717411582266 0 21:1 355:1 390:1 632:1 723:1 1202:1 2135:1 2737:1 
53.22997326737947 71.70824351229513 225:1 942:1 1833:1 1898:1 2737:1 3338:1 
132.7259436214118 44.34502380604285 68:1 161:1 964:1 1007:1 1268:1 1371:1 2135:1 2190:1 2233:1 2593:1 2953:1 2964:1 3197:1 3392:1 
63.99313892888819 0 929:1 2172:1 2878:1 3143:1 
0 51.35058140043898 3268:1 
0 26.93337611716581 2:1 425:1 499:1 684:1 1060:1 1263:1 1482:1 1795:1 2598:1 3510:1 
0 73.98397228425027 361:1 1134:1 1603:1 2040:1 2169:1 2194:1 2284:1 2437:1 2996:1 3215:1 3237:1 3265:1 
141.1216070274484 0 242:1 1713:1 2172:1 2513:1 2667:1 3265:1 3284:1 
244.240822076174 41.94956942978904 381:1 1324:1 1629:1 1651:1 2449:1 2737:1 
127.6063159322654 0 684:1 1005:1 1263:1 2014:1 2862:1 2923:1 3191:1 3196:1 3265:1 3482:1 
35.58873937625889 24.83017064254954 33:1 62:1 93:1 131:1 158:1 260:1 282:1 292:1 304:1 378:1 421:1 430:1 460:1 552:1 575:1 578:1 593:1 598:1 620:1 649:1 650:1 708:1 721:1 759:1 787:1 795:1 803:1 815:1 831:1 835:1 839:1 853:1 911:1 929:1 932:1 973:1 1007:1 1052:1 1096:1 1102:1 1134:1 1139:1 1171:1 1176:1 1199:1 1263:1 1300:1 1328:1 1332:1 1337:1 1362:1 1381:1 1391:1 1403:1 1441:1 1450:1 1454:1 1458:1 1495:1 1500:1 1629:1 1647:1 1666:1 1704:1 1713:1 1722:1 1733:1 1761:1 1790:1 1791:1 1796:1 1805:1 1812:1 1940:1 1966:1 1981:1 2007:1 2021:1 2059:1 2089:1 2100:1 2175:1 2195:1 2210:1 2213:1 2245:1 2325:1 2326:1 2371:1 2413:1 2508:1 2509:1 2538:1 2572:1 2638:1 2642:1 2679:1 2692:1 2694:1 2737:1 2787:1 2889:1 2923:1 2926:1 2974:1 2996:1 3019:1 3020:1 3046:1 3048:1 3071:1 3116:1 3123:1 3184:1 3192:1 3197:1 3224:1 3240:1 3265:1 3287:1 3326:1 3372:1 3374:1 3392:1 3518:1 3519:1 3521:1 
46.25176622881556 0 342:1 1320:1 1868:1 2171:1 2885:1 2887:1 2958:1 
94.8391777685445 0 255:1 1134:1 1560:1 1725:1 2093:1 2885:1 2977:1 
64.73662102473931 16.45063681248049 13:1 252:1 287:1 1073:1 2030:1 2275:1 2701:1 3167:1 3419:1 
353.4877689509592 0 2667:1 2979:1 3398:1 
260.667033859698 79.27842925511787 35:1 255:1 260:1 752:1 1176:1 1395:1 1671:1 2889:1 
0 22.29011093167843 199:1 217:1 304:1 512:1 870:1 1120:1 1302:1 1340:1 1347:1 1538:1 1812:1 2169:1 2556:1 2646:1 2670:1 2671:1 2906:1 2923:1 3173:1 3237:1 3478:1 
0 55.91443922495028 342:1 628:1 681:1 831:1 1592:1 1691:1 2824:1 2923:1 3076:1 
353.4877689509592 0 1099:1 2245:1 2310:1 2633:1 3398:1 
353.4877689509592 68.6819375518569 35:1 878:1 1695:1 1821:1 1940:1 2141:1 2792:1 
172.4128577586141 83.04142265630492 328:1 686:1 1121:1 1254:1 2305:1 2576:1 2737:1 2774:1 2791:1 2792:1 2879:1 3084:1 3455:1 
0 22.22240690842894 73:1 521:1 686:1 816:1 833:1 1806:1 2172:1 2857:1 3207:1 
252.1264044032361 0 243:1 708:1 819:1 1122:1 1722:1 1836:1 1960:1 2014:1 2586:1 3339:1 3398:1 
0 17.76345935459584 1291:1 1666:1 1795:1 2251:1 2725:1 3093:1 3184:1 3268:1 
50.36395833738228 0 210:1 1826:1 2114:1 2525:1 2771:1 
353.4877689509592 0 578:1 676:1 1047:1 1060:1 1600:1 
47.07786759159654 0 36:1 275:1 620:1 684:1 887:1 973:1 1219:1 1725:1 1820:1 2416:1 2953:1 
35.92027442154703 83.04142265630492 2:1 126:1 997:1 1134:1 1177:1 1612:1 2304:1 2450:1 2923:1 3257:1 
353.4877689509592 41.80132255181822 33:1 199:1 676:1 838:1 1263:1 1361:1 1457:1 1805:1 1886:1 2213:1 2326:1 2577:1 2923:1 3075:1 3398:1 
146.6253402642524 0 17:1 684:1 708:1 1046:1 1204:1 2450:1 2488:1 2783:1 2817:1 3201:1 3338:1 3398:1 3448:1 3518:1 
93.49874663976458 0 287:1 292:1 300:1 304:1 366:1 380:1 549:1 684:1 785:1 836:1 1046:1 1049:1 1053:1 1385:1 1441:1 1608:1 1756:1 1877:1 2065:1 2172:1 2239:1 2252:1 2503:1 3338:1 
151.7953785806431 32.6872401468531 292:1 304:1 483:1 522:1 557:1 708:1 911:1 1202:1 1263:1 1438:1 1544:1 1594:1 2141:1 2737:1 3026:1 3056:1 3116:1 3321:1 3327:1 3482:1 3521:1 
37.77361461746683 66.11174685576226 430:1 1960:1 2190:1 2403:1 2622:1 
47.52932873580503 0 158:1 1134:1 2093:1 2172:1 2439:1 
292.3851289910798 0 2129:1 
140.8099634742992 0 1612:1 1723:1 2292:1 
0 83.04142265630492 136:1 354:1 1578:1 
80.31522885831305 6.972199166502472 1268:1 1671:1 2737:1 3327:1 
0 54.10603372179988 1097:1 1291:1 1292:1 1606:1 3502:1 
0 42.36516657678975 158:1 1619:1 1641:1 1654:1 1826:1 2286:1 2886:1 3327:1 
24.95774851208165 12.69834763142827 2:1 35:1 78:1 90:1 158:1 162:1 187:1 198:1 210:1 237:1 275:1 292:1 304:1 319:1 327:1 345:1 395:1 430:1 460:1 564:1 578:1 620:1 703:1 726:1 752:1 803:1 815:1 831:1 849:1 877:1 889:1 927:1 1049:1 1104:1 1122:1 1134:1 1164:1 1263:1 1281:1 1283:1 1296:1 1336:1 1419:1 1462:1 1557:1 1600:1 1607:1 1629:1 1684:1 1713:1 1725:1 1795:1 1851:1 2014:1 2031:1 2089:1 2141:1 2174:1 2193:1 2245:1 2254:1 2416:1 2450:1 2538:1 2581:1 2594:1 2663:1 2675:1 2713:1 2781:1 2787:1 2837:1 2845:1 2889:1 2923:1 2993:1 2996:1 3005:1 3050:1 3056:1 3080:1 3123:1 3173:1 3192:1 3198:1 3234:1 3265:1 3282:1 3308:1 3382:1 3396:1 3398:1 3407:1 3423:1 3497:1 3519:1 
0 63.84963109220839 15:1 574:1 676:1 860:1 1147:1 1482:1 1619:1 1725:1 2089:1 2632:1 
80.17337431276218 23.97364304040816 834:1 1139:1 1281:1 1330:1 1631:1 2450:1 2850:1 2852:1 3077:1 3465:1 
91.7245317908224 0 2:1 3:1 74:1 93:1 158:1 292:1 304:1 319:1 322:1 327:1 461:1 504:1 541:1 553:1 620:1 643:1 665:1 676:1 752:1 767:1 815:1 877:1 954:1 973:1 1047:1 1104:1 1119:1 1202:1 1214:1 1233:1 1263:1 1281:1 1337:1 1343:1 1409:1 1488:1 1602:1 1605:1 1737:1 1805:1 2124:1 2245:1 2304:1 2326:1 2371:1 2406:1 2450:1 2508:1 2557:1 2581:1 2586:1 2594:1 2667:1 2706:1 2786:1 2837:1 2845:1 2996:1 3075:1 3121:1 3242:1 3301:1 3326:1 3489:1 3497:1 
353.4877689509592 0 1654:1 2934:1 
66.00106464314575 0 703:1 939:1 1123:1 1192:1 2152:1 2663:1 3292:1 3327:1 
206.1950733640309 0 319:1 327:1 395:1 430:1 460:1 703:1 1047:1 1372:1 2304:1 2450:1 3265:1 3407:1 3497:1 
57.11925192777291 0 2045:1 2272:1 
245.737740669872 83.04142265630492 242:1 620:1 652:1 1049:1 1122:1 1830:1 2304:1 2667:1 3005:1 3327:1 
0 21.94883466351247 63:1 345:1 1047:1 1122:1 1291:1 1296:1 1527:1 1733:1 2141:1 2245:1 2538:1 2584:1 2706:1 2737:1 2993:1 3005:1 3265:1 3489:1 
0 9.114246562696525 129:1 260:1 1089:1 1486:1 1548:1 
261.0495787178766 35.71831057495627 176:1 608:1 620:1 690:1 708:1 1358:1 2172:1 2576:1 2681:1 3244:1 3354:1 
82.31447475544692 0 6:1 308:1 578:1 598:1 1134:1 1205:1 1320:1 1363:1 1438:1 1450:1 1698:1 1803:1 2091:1 2426:1 2519:1 2723:1 2809:1 2925:1 3049:1 3518:1 3521:1 
308.3971823248871 83.04142265630492 578:1 798:1 1134:1 2371:1 2809:1 2925:1 3066:1 
0 29.17783179941038 21:1 55:1 90:1 198:1 237:1 304:1 345:1 375:1 430:1 515:1 560:1 605:1 640:1 652:1 703:1 721:1 748:1 761:1 803:1 807:1 835:1 859:1 863:1 1047:1 1106:1 1116:1 1134:1 1155:1 1202:1 1208:1 1256:1 1372:1 1407:1 1441:1 1443:1 1516:1 1532:1 1613:1 1654:1 1666:1 1725:1 1749:1 1805:1 1819:1 1853:1 1939:1 1940:1 1961:1 2019:1 2061:1 2066:1 2070:1 2093:1 2128:1 2174:1 2371:1 2388:1 2437:1 2446:1 2447:1 2460:1 2481:1 2594:1 2614:1 2720:1 2723:1 2802:1 2809:1 2821:1 2829:1 2845:1 2862:1 2923:1 2961:1 2979:1 2996:1 3041:1 3136:1 3197:1 3214:1 3265:1 3267:1 3274:1 3338:1 3438:1 3495:1 3499:1 
30.91366796533474 0 158:1 300:1 375:1 463:1 484:1 578:1 620:1 849:1 863:1 876:1 1104:1 1122:1 1134:1 1281:1 1291:1 1372:1 1666:1 1683:1 1733:1 2093:1 2135:1 2189:1 2538:1 2586:1 2628:1 2633:1 2771:1 2915:1 2923:1 3026:1 3262:1 3265:1 3344:1 3362:1 3396:1 3502:1 
0 83.04142265630492 2:1 1122:1 1565:1 2431:1 
61.23215643647261 43.53758142068151 61:1 136:1 176:1 237:1 248:1 437:1 484:1 493:1 578:1 601:1 1037:1 1091:1 1113:1 1141:1 1237:1 1281:1 1578:1 1641:1 1839:1 1934:1 2130:1 2172:1 2554:1 2570:1 2581:1 2681:1 2691:1 2741:1 2832:1 2855:1 2858:1 3188:1 3252:1 3318:1 3338:1 3426:1 
115.8720044283229 0 284:1 700:1 794:1 1113:1 2811:1 2820:1 3384:1 
32.95970530923147 0 308:1 460:1 675:1 703:1 708:1 863:1 1090:1 1323:1 1455:1 1981:1 2426:1 3489:1 3502:1 3521:1 
0 19.84938681362158 284:1 390:1 578:1 686:1 703:1 851:1 2122:1 2143:1 2180:1 2734:1 2790:1 2857:1 3188:1 3245:1 3338:1 
186.7757998165502 0 275:1 492:1 1658:1 
55.02830703311724 0 174:1 883:1 1196:1 1322:1 1550:1 1981:1 2238:1 2522:1 3030:1 3325:1 
353.4877689509592 0 890:1 1579:1 
0 7.981514138348228 57:1 126:1 178:1 227:1 287:1 380:1 427:1 513:1 562:1 625:1 708:1 1198:1 1203:1 1266:1 1313:1 1618:1 1631:1 1864:1 1877:1 1904:1 2014:1 2047:1 2052:1 2172:1 2268:1 2275:1 2395:1 2487:1 2624:1 2850:1 3039:1 3102:1 3128:1 3144:1 3289:1 3368:1 3479:1 3522:1 
98.60397067644192 44.45365706027297 39:1 578:1 708:1 959:1 1134:1 1180:1 1454:1 1578:1 1713:1 1949:1 1961:1 2172:1 2221:1 2371:1 2405:1 3265:1 3499:1 
185.937728136437 0 308:1 401:1 1291:1 1713:1 2130:1 2141:1 2286:1 2426:1 3313:1 
86.13567353312907 0 121:1 516:1 578:1 684:1 863:1 1080:1 1134:1 1176:1 1178:1 1432:1 1829:1 2093:1 2170:1 2509:1 2677:1 2723:1 2731:1 2923:1 
0 38.58776559603194 162:1 242:1 397:1 451:1 578:1 681:1 684:1 805:1 1080:1 1134:1 1283:1 1533:1 1544:1 1777:1 1812:1 1829:1 2009:1 2174:1 2472:1 2577:1 2585:1 2617:1 2628:1 2667:1 2677:1 2736:1 2845:1 2923:1 3203:1 
48.99324541538146 0 304:1 760:1 1545:1 1578:1 1619:1 1654:1 1737:1 1949:1 2245:1 2326:1 2507:1 2667:1 2781:1 2885:1 2960:1 3046:1 3056:1 3215:1 3396:1 
97.4397061773291 0 278:1 1713:1 1949:1 2172:1 2183:1 3265:1 3400:1 
353.4877689509592 0 147:1 1268:1 1362:1 1666:1 
0 77.44075884735389 308:1 451:1 641:1 2577:1 
121.0400044805066 0 1571:1 2501:1 2842:1 
49.55583200727376 0 998:1 1080:1 1742:1 1829:1 2264:1 2677:1 3309:1 
353.4877689509592 0 132:1 358:1 
0 54.50507603642292 708:1 807:1 1910:1 2093:1 2667:1 2677:1 2757:1 2842:1 2845:1 3265:1 3492:1 
0 5.689598375455724 90:1 283:1 304:1 426:1 430:1 522:1 576:1 630:1 716:1 760:1 778:1 795:1 835:1 846:1 892:1 935:1 967:1 1062:1 1104:1 1122:1 1126:1 1134:1 1205:1 1220:1 1244:1 1263:1 1266:1 1277:1 1378:1 1394:1 1500:1 1521:1 1545:1 1585:1 1590:1 1595:1 1629:1 1666:1 1713:1 1727:1 1795:1 1841:1 1888:1 1985:1 2011:1 2117:1 2128:1 2170:1 2184:1 2221:1 2230:1 2245:1 2326:1 2352:1 2363:1 2371:1 2446:1 2581:1 2604:1 2633:1 2671:1 2719:1 2926:1 2953:1 3000:1 3008:1 3075:1 3099:1 3161:1 3215:1 3263:1 3265:1 3332:1 3350:1 3355:1 3396:1 3489:1 
68.41935285154253 63.15244266106118 2009:1 2091:1 2523:1 2953:1 3499:1 
0 21.54451400136428 507:1 1155:1 1803:1 2132:1 2481:1 
0 25.30610026368071 358:1 998:1 1023:1 2215:1 2228:1 2814:1 3309:1 
0 4.936104892388851 184:1 620:1 863:1 929:1 938:1 1124:1 1272:1 1291:1 1805:1 2170:1 2271:1 2509:1 2845:1 3257:1 3279:1 
0 18.2593145078548 93:1 136:1 490:1 981:1 1124:1 1221:1 1911:1 2610:1 3053:1 3118:1 3181:1 
121.5351571887083 0 308:1 863:1 1126:1 1357:1 1826:1 2172:1 2426:1 2507:1 3298:1 3510:1 3523:1 
47.9385227879689 32.02464056117735 185:1 496:1 890:1 1133:1 1249:1 1565:1 1714:1 1795:1 2280:1 2307:1 2396:1 2554:1 2671:1 2886:1 
0 17.55896364955467 242:1 1283:1 1432:1 1638:1 1725:1 2953:1 3265:1 
0 63.64125658704653 1122:1 1372:1 1431:1 1785:1 2326:1 2468:1 3143:1 3184:1 
0 17.34916878964977 78:1 212:1 249:1 450:1 480:1 510:1 756:1 815:1 863:1 877:1 973:1 984:1 1158:1 1202:1 1233:1 1263:1 1291:1 1333:1 1337:1 1346:1 1482:1 1619:1 1629:1 1654:1 1734:1 1949:1 1960:1 2174:1 2326:1 2581:1 2594:1 2645:1 2667:1 2676:1 2706:1 2737:1 2864:1 2976:1 2983:1 2996:1 3023:1 3056:1 3123:1 3286:1 3322:1 3371:1 3372:1 
53.22141760956157 0 2:1 21:1 260:1 430:1 522:1 533:1 652:1 753:1 803:1 858:1 863:1 1047:1 1093:1 1134:1 1263:1 1300:1 1722:1 1733:1 2135:1 2172:1 2190:1 2509:1 2781:1 3005:1 3014:1 3069:1 3230:1 3338:1 3361:1 3391:1 
89.5517099219406 0 681:1 863:1 1079:1 1720:1 1873:1 2245:1 2615:1 2657:1 3468:1 
48.13802618679149 13.36021859710879 681:1 1134:1 1674:1 1710:1 2172:1 2507:1 3265:1 3380:1 3468:1 
98.89514106643495 0 354:1 708:1 712:1 2857:1 
144.4220046692517 0 147:1 681:1 1263:1 1268:1 1557:1 1628:1 1812:1 1960:1 2485:1 2878:1 2923:1 3060:1 3126:1 3468:1 
0 3.445260182083204 2:1 9:1 1039:1 1256:1 1571:1 1961:1 2013:1 2115:1 2128:1 2446:1 2501:1 2538:1 2756:1 3304:1 
20.04363619549423 0 90:1 184:1 296:1 620:1 835:1 1122:1 1134:1 1666:1 1713:1 1722:1 1940:1 1981:1 2023:1 2067:1 2079:1 2245:1 2385:1 2468:1 2673:1 2760:1 3005:1 3219:1 3265:1 3388:1 
16.47930908394502 0 13:1 30:1 93:1 94:1 227:1 287:1 304:1 1093:1 1125:1 1205:1 1312:1 1400:1 1472:1 1496:1 1578:1 1582:1 1713:1 1751:1 1753:1 1755:1 1877:1 1904:1 1981:1 2014:1 2178:1 2275:1 2395:1 2468:1 2581:1 2987:1 3129:1 3262:1 3332:1 3338:1 3368:1 3433:1 
39.65890761287363 0 835:1 2403:1 2923:1 3020:1 3215:1 3265:1 3338:1 3489:1 
0 10.46425555573582 13:1 24:1 42:1 48:1 50:1 54:1 63:1 89:1 90:1 93:1 110:1 150:1 186:1 187:1 287:1 299:1 300:1 304:1 314:1 345:1 355:1 422:1 430:1 447:1 453:1 462:1 464:1 466:1 469:1 481:1 564:1 576:1 578:1 585:1 597:1 620:1 674:1 680:1 685:1 696:1 703:1 750:1 760:1 771:1 772:1 785:1 797:1 829:1 834:1 836:1 914:1 935:1 954:1 964:1 977:1 990:1 1008:1 1024:1 1067:1 1104:1 1109:1 1122:1 1134:1 1152:1 1153:1 1158:1 1197:1 1203:1 1205:1 1220:1 1223:1 1245:1 1256:1 1266:1 1283:1 1291:1 1294:1 1296:1 1320:1 1330:1 1341:1 1356:1 1378:1 1432:1 1438:1 1444:1 1468:1 1507:1 1521:1 1595:1 1608:1 1629:1 1630:1 1631:1 1652:1 1654:1 1656:1 1666:1 1668:1 1712:1 1713:1 1722:1 1725:1 1744:1 1776:1 1777:1 1795:1 1796:1 1809:1 1830:1 1869:1 1871:1 1872:1 1874:1 1877:1 1880:1 1888:1 1896:1 1904:1 1921:1 1940:1 1961:1 1977:1 1995:1 2014:1 2037:1 2091:1 2128:1 2145:1 2155:1 2170:1 2198:1 2199:1 2200:1 2208:1 2243:1 2245:1 2275:1 2309:1 2318:1 2348:1 2371:1 2384:1 2393:1 2403:1 2437:1 2446:1 2487:1 2492:1 2509:1 2518:1 2548:1 2560:1 2562:1 2571:1 2581:1 2591:1 2593:1 2601:1 2617:1 2654:1 2659:1 2671:1 2720:1 2737:1 2754:1 2769:1 2781:1 2807:1 2831:1 2846:1 2850:1 2852:1 2868:1 2889:1 2892:1 2907:1 2909:1 2923:1 2956:1 2965:1 2991:1 2999:1 3007:1 3008:1 3039:1 3052:1 3067:1 3072:1 3096:1 3102:1 3105:1 3110:1 3144:1 3146:1 3184:1 3205:1 3215:1 3221:1 3227:1 3230:1 3265:1 3303:1 3346:1 3368:1 3396:1 3417:1 3423:1 3433:1 3498:1 3515:1 
20.76196230594036 0 212:1 304:1 345:1 460:1 609:1 620:1 650:1 787:1 803:1 821:1 835:1 853:1 860:1 984:1 1063:1 1122:1 1134:1 1202:1 1205:1 1296:1 1545:1 1565:1 1576:1 1725:1 1868:1 1910:1 1961:1 2014:1 2046:1 2245:1 2418:1 2845:1 2848:1 2996:1 3066:1 3123:1 3392:1 3396:1 3489:1 
0 8.871779201204927 870:1 995:1 2889:1 
0 7.388797103541068 2:1 24:1 58:1 68:1 90:1 104:1 209:1 274:1 300:1 343:1 345:1 348:1 377:1 422:1 436:1 479:1 518:1 541:1 564:1 576:1 578:1 583:1 614:1 616:1 681:1 691:1 697:1 760:1 772:1 776:1 824:1 935:1 966:1 990:1 1050:1 1082:1 1100:1 1103:1 1122:1 1158:1 1209:1 1220:1 1235:1 1245:1 1283:1 1291:1 1299:1 1321:1 1337:1 1370:1 1382:1 1426:1 1444:1 1446:1 1469:1 1521:1 1595:1 1622:1 1629:1 1640:1 1666:1 1688:1 1713:1 1725:1 1727:1 1795:1 1810:1 1834:1 1865:1 1872:1 1958:1 1995:1 2091:1 2113:1 2161:1 2186:1 2206:1 2210:1 2216:1 2243:1 2245:1 2371:1 2389:1 2397:1 2403:1 2437:1 2446:1 2476:1 2589:1 2611:1 2617:1 2639:1 2659:1 2688:1 2737:1 2755:1 2781:1 2821:1 2845:1 3138:1 3172:1 3215:1 3224:1 3286:1 3303:1 3326:1 3335:1 3396:1 3405:1 3434:1 3476:1 3508:1 
353.4877689509592 26.35131752678932 430:1 1972:1 2485:1 2680:1 3020:1 3406:1 
0 19.79377238322029 756:1 1349:1 1782:1 2079:1 2163:1 2385:1 2923:1 
353.4877689509592 0 1485:1 1674:1 2771:1 2923:1 2996:1 3064:1 3246:1 3338:1 3518:1 
217.0066405217474 0 168:1 484:1 578:1 1641:1 1919:1 2835:1 2886:1 2970:1 
33.06329477167636 15.90245404063053 146:1 158:1 206:1 304:1 343:1 831:1 1047:1 1122:1 1449:1 1571:1 1803:1 1887:1 1908:1 2135:1 2771:1 2910:1 2923:1 2952:1 2953:1 
0 15.89215590924001 39:1 95:1 167:1 308:1 329:1 490:1 681:1 929:1 964:1 1103:1 1489:1 1643:1 2255:1 2426:1 2516:1 2705:1 2833:1 2874:1 3192:1 3468:1 3523:1 
0 83.04142265630492 2:1 308:1 430:1 550:1 681:1 746:1 759:1 803:1 835:1 858:1 878:1 951:1 1733:1 2426:1 2538:1 2737:1 2885:1 3184:1 3230:1 3468:1 3523:1 
241.8876768483939 18.4522440772079 578:1 927:1 1158:1 1272:1 1725:1 2593:1 3286:1 3451:1 
0 23.20282523957353 526:1 703:1 807:1 888:1 975:1 1122:1 1283:1 1432:1 1482:1 1553:1 2093:1 2315:1 2411:1 2643:1 2698:1 2953:1 3212:1 3298:1 3338:1 3518:1 
0 32.81928457662047 165:1 237:1 430:1 959:1 1349:1 1438:1 1578:1 1722:1 1733:1 1935:1 2141:1 2245:1 2363:1 2923:1 2953:1 2979:1 3075:1 3502:1 
0 78.88934157317455 177:1 216:1 560:1 665:1 863:1 966:1 1202:1 1737:1 1805:1 2412:1 2468:1 2646:1 2724:1 2737:1 2809:1 3184:1 3200:1 
36.80474870926092 30.69380466109822 2:1 170:1 243:1 292:1 756:1 795:1 961:1 1122:1 1291:1 1509:1 1600:1 1826:1 2141:1 2245:1 2371:1 2446:1 2617:1 2671:1 2771:1 2781:1 2845:1 3042:1 3046:1 3197:1 3372:1 3396:1 
0 38.20768204428279 1256:1 1666:1 2617:1 2692:1 2885:1 2944:1 3132:1 3265:1 
39.01676538533734 83.04142265630492 458:1 929:1 1290:1 1666:1 3038:1 3184:1 3257:1 
58.63714163469198 0 1690:1 2555:1 3368:1 
104.8753095545112 0 863:1 929:1 1263:1 2412:1 
0 11.13214376646425 21:1 39:1 430:1 451:1 557:1 708:1 863:1 1571:1 1578:1 1826:1 2523:1 2539:1 2577:1 2885:1 2934:1 3003:1 3092:1 3165:1 3184:1 3262:1 3298:1 3489:1 
0 45.60244289644876 137:1 177:1 304:1 394:1 451:1 860:1 1293:1 2334:1 2476:1 2771:1 2934:1 2953:1 3121:1 3510:1 
0 47.04384910806584 150:1 599:1 793:1 969:1 1085:1 1451:1 1752:1 2577:1 2728:1 3436:1 
353.4877689509592 0 708:1 1134:1 1263:1 1725:1 2064:1 2885:1 
0 49.39513432219232 324:1 390:1 474:1 521:1 1708:1 2332:1 2395:1 
117.5230001700434 4.593648306678951 93:1 620:1 669:1 1503:1 1797:1 2258:1 3457:1 
94.43039453637194 0 21:1 966:1 973:1 1039:1 1725:1 2135:1 2885:1 2891:1 3464:1 
0 34.5995987177278 355:1 574:1 1202:1 2089:1 2525:1 2737:1 
87.41975649385245 20.63459086734673 346:1 620:1 1214:1 1854:1 2053:1 2135:1 2170:1 2356:1 2540:1 2784:1 2923:1 3086:1 3458:1 
73.62173905212215 0 308:1 390:1 1134:1 1201:1 1571:1 1938:1 2135:1 2381:1 2629:1 2923:1 
165.889901351737 0 1093:1 2022:1 
288.7500992827791 32.10842299362588 511:1 538:1 690:1 1798:1 
56.85657970063714 0 223:1 475:1 707:1 891:1 1364:1 1495:1 1695:1 2771:1 2885:1 3161:1 3338:1 
301.7514627723003 19.59671131540776 395:1 1805:1 2723:1 3497:1 
60.27843168507442 0 1805:1 2089:1 2586:1 3497:1 
353.4877689509592 0 3497:1 
353.4877689509592 0 68:1 3497:1 
44.34435795597158 0 282:1 1263:1 1766:1 2422:1 2885:1 
224.6859098537924 0 723:1 1256:1 1961:1 2172:1 2326:1 3123:1 
0 55.19955432608582 331:1 404:1 601:1 690:1 700:1 1041:1 1133:1 1158:1 1291:1 2681:1 2685:1 2886:1 3188:1 3245:1 3248:1 3328:1 3338:1 
162.3719973301485 38.58633078017241 2:1 242:1 484:1 578:1 643:1 712:1 803:1 970:1 984:1 1107:1 1233:1 1263:1 1283:1 1300:1 1514:1 2221:1 2267:1 3163:1 3452:1 
50.26387760145997 0 1912:1 2885:1 3029:1 
0 20.90603018235313 45:1 129:1 260:1 1826:1 2953:1 
353.4877689509592 0 848:1 2468:1 
68.68612727064607 83.04142265630492 1666:1 1940:1 2210:1 2221:1 2923:1 2934:1 3214:1 
130.5033758032216 0 355:1 1314:1 2021:1 2371:1 2671:1 
149.2157882148664 0 304:1 621:1 623:1 1900:1 
0 47.70995565984838 2:1 242:1 831:1 1136:1 1205:1 1565:1 3066:1 
0 9.943138374390136 961:1 1158:1 1296:1 1450:1 1940:1 2128:1 2141:1 2737:1 
294.2279956108191 0 576:1 3265:1 
0 70.66448627757703 516:1 1060:1 1106:1 1725:1 2011:1 
51.91918834472517 0 362:1 621:1 1500:1 1870:1 
0 83.04142265630492 855:1 1044:1 2148:1 
218.8501425871473 0 304:1 580:1 2639:1 2948:1 
70.13441113935953 67.45920257003239 2430:1 2446:1 2639:1 3197:1 
0 27.34318557247927 185:1 187:1 308:1 356:1 1158:1 1583:1 2307:1 2426:1 2576:1 2737:1 
191.0338110561343 0 21:1 863:1 1680:1 1935:1 2128:1 2135:1 2274:1 2414:1 2428:1 2996:1 
0 24.66357231042559 146:1 1725:1 2809:1 2996:1 
67.28636613806519 0 488:1 1701:1 1954:1 3368:1 
60.39608661799918 0 708:1 1193:1 1595:1 2141:1 2172:1 2174:1 
131.401593255913 0 93:1 1442:1 1722:1 1795:1 2676:1 
73.33734963206929 0 1450:1 2053:1 2718:1 3122:1 3327:1 
51.49101666923412 0 184:1 986:1 1113:1 1162:1 1204:1 1725:1 1996:1 2185:1 2245:1 2314:1 2518:1 2602:1 2889:1 2953:1 3056:1 3497:1 
213.0436933488116 0 1742:1 2575:1 
0 37.98060641427453 61:1 96:1 166:1 184:1 355:1 390:1 404:1 490:1 545:1 605:1 884:1 1113:1 1160:1 1967:1 2071:1 2291:1 2615:1 2793:1 2857:1 3149:1 3188:1 3258:1 3426:1 
0 53.07491328221769 96:1 355:1 465:1 521:1 683:1 703:1 710:1 1074:1 1084:1 1088:1 1374:1 1565:1 1863:1 2278:1 2291:1 2311:1 2577:1 2770:1 2823:1 2897:1 2899:1 3425:1 3488:1 
187.9698503633464 0 620:1 863:1 877:1 1204:1 1233:1 1432:1 2602:1 2923:1 3521:1 
0 22.35383834030732 1047:1 1158:1 1352:1 1578:1 1968:1 1985:1 2326:1 2507:1 2782:1 3265:1 3298:1 3523:1 
0 51.32715479057268 496:1 1080:1 1427:1 1798:1 1934:1 2283:1 2290:1 2894:1 
122.5309698043329 0 21:1 210:1 304:1 355:1 748:1 795:1 828:1 1291:1 1509:1 2141:1 2507:1 2608:1 2923:1 2929:1 2993:1 3286:1 3338:1 3497:1 
180.9398528794656 0 308:1 430:1 534:1 722:1 863:1 2426:1 2793:1 3338:1 3342:1 
0 83.04142265630492 284:1 390:1 578:1 686:1 703:1 851:1 2122:1 2143:1 2180:1 2734:1 2790:1 2857:1 3188:1 3245:1 3338:1 
83.40397697612119 0 184:1 521:1 578:1 708:1 712:1 1091:1 1273:1 1420:1 1578:1 2050:1 2143:1 2749:1 2967:1 3473:1 
0 76.53989066616798 831:1 1205:1 1219:1 1940:1 2304:1 2371:1 2446:1 3101:1 
34.43012958836217 0 136:1 337:1 393:1 507:1 601:1 708:1 712:1 1465:1 1502:1 2278:1 2299:1 2468:1 2554:1 2615:1 2847:1 3188:1 
0 13.3298548960624 1604:1 1608:1 2366:1 3086:1 3249:1 
0 47.74240480703584 44:1 45:1 186:1 198:1 230:1 237:1 346:1 355:1 389:1 460:1 491:1 503:1 643:1 831:1 964:1 1031:1 1064:1 1094:1 1172:1 1348:1 1495:1 1521:1 1531:1 1612:1 1619:1 1725:1 1736:1 1812:1 1867:1 1992:1 2067:1 2159:1 2170:1 2211:1 2519:1 2649:1 2692:1 2706:1 2733:1 2940:1 2996:1 3054:1 3075:1 3265:1 3270:1 
0 83.04142265630492 184:1 402:1 496:1 521:1 708:1 890:1 1220:1 1641:1 2816:1 3257:1 
20.46336247300228 14.64394245024077 19:1 291:1 320:1 805:1 831:1 906:1 933:1 1061:1 1208:1 1327:1 1523:1 1617:1 1888:1 1910:1 1970:1 2092:1 2334:1 2357:1 2461:1 2665:1 2908:1 2982:1 3119:1 3510:1 
0 4.915857219561201 18:1 19:1 305:1 320:1 531:1 551:1 660:1 831:1 850:1 858:1 963:1 1036:1 1060:1 1142:1 1283:1 1490:1 1786:1 1970:1 2021:1 2248:1 2334:1 2357:1 2461:1 2617:1 2665:1 2730:1 2982:1 3468:1 3510:1 
181.1029177166738 0 579:1 1247:1 1593:1 1673:1 2137:1 
0 7.709464031749641 831:1 858:1 860:1 937:1 1047:1 1208:1 1547:1 1910:1 1970:1 2115:1 2524:1 2569:1 3096:1 3243:1 3320:1 
0 17.33748001974599 849:1 860:1 1225:1 1263:1 1533:1 1826:1 2014:1 2070:1 2923:1 3008:1 3521:1 
63.36511570937497 0 93:1 308:1 901:1 966:1 1044:1 1263:1 1613:1 1713:1 2135:1 2426:1 2530:1 2771:1 3265:1 
44.7792996442652 0 1263:1 1345:1 2091:1 2122:1 
92.43819023308265 69.78473460022903 721:1 1010:1 1245:1 2023:1 2304:1 
0 9.383168736934225 2:1 399:1 640:1 835:1 900:1 1119:1 1134:1 1276:1 1787:1 2628:1 2630:1 2771:1 2845:1 2923:1 2953:1 3040:1 3262:1 3265:1 3518:1 
353.4877689509592 23.58353211480132 31:1 646:1 1005:1 1801:1 2116:1 3456:1 
0 43.59928776982504 619:1 689:1 1047:1 1812:1 1826:1 2091:1 2303:1 2375:1 2693:1 2923:1 3215:1 3481:1 
197.6621657934737 0 641:1 2927:1 
0 25.87350512927456 521:1 624:1 860:1 1208:1 1574:1 1713:1 1725:1 2038:1 2509:1 2837:1 2923:1 3184:1 
353.4877689509592 0 35:1 1117:1 1885:1 
49.39080335555128 4.16233324839254 123:1 237:1 356:1 602:1 712:1 730:1 1158:1 1641:1 1926:1 2087:1 2096:1 2228:1 2880:1 3306:1 
40.76031505728779 63.09236107869847 483:1 496:1 599:1 1072:1 1220:1 1291:1 2332:1 3245:1 3429:1 
88.62502182837063 0 620:1 624:1 901:1 1713:1 2530:1 3363:1 
0 35.31938379267591 158:1 308:1 369:1 498:1 620:1 769:1 901:1 1134:1 1523:1 1741:1 1943:1 2026:1 2170:1 2244:1 2426:1 2446:1 2519:1 2530:1 2577:1 2771:1 2910:1 2923:1 3005:1 3035:1 3184:1 3217:1 3327:1 3494:1 
115.6973705773748 0 708:1 2326:1 3518:1 
15.30035163968124 15.78300775264653 243:1 292:1 308:1 430:1 500:1 552:1 557:1 670:1 831:1 853:1 966:1 1134:1 1146:1 1838:1 1961:1 2014:1 2326:1 2426:1 2809:1 2830:1 2864:1 2878:1 2885:1 2944:1 3184:1 3396:1 3410:1 3512:1 
0 83.04142265630492 157:1 929:1 1253:1 1292:1 1603:1 1656:1 2034:1 2470:1 2600:1 2809:1 3192:1 
0 80.25370688206259 242:1 457:1 522:1 753:1 892:1 1126:1 1155:1 1533:1 1572:1 1654:1 1737:1 1857:1 1867:1 1988:1 2320:1 2671:1 2781:1 3499:1 
0 12.62022233404938 90:1 275:1 345:1 753:1 887:1 927:1 959:1 1134:1 1578:1 1725:1 2093:1 2100:1 2717:1 2889:1 3217:1 3499:1 
0 47.57925990030571 55:1 292:1 355:1 430:1 723:1 753:1 860:1 1122:1 1126:1 1263:1 1329:1 1443:1 1462:1 1830:1 1988:1 2021:1 2245:1 2326:1 2608:1 2667:1 2923:1 3064:1 3265:1 3396:1 3499:1 
140.4376888038009 9.378362979773391 304:1 359:1 901:1 1725:1 1981:1 2530:1 2737:1 2783:1 2837:1 2923:1 3201:1 
267.4895712344683 0 901:1 1725:1 2530:1 2837:1 
123.8094596425274 0 77:1 708:1 712:1 2899:1 
55.38168151146812 0 2:1 126:1 135:1 1266:1 1291:1 1733:1 1800:1 1940:1 2013:1 2330:1 2363:1 2530:1 2974:1 3217:1 
193.9787965160455 0 1612:1 1765:1 2693:1 3298:1 
63.63810328371803 0 308:1 708:1 1558:1 2426:1 3057:1 
138.3672092386033 0 28:1 184:1 390:1 521:1 578:1 601:1 686:1 1810:1 2240:1 2275:1 2395:1 2685:1 3128:1 3289:1 3338:1 3384:1 
58.16460238440476 0 21:1 484:1 641:1 858:1 878:1 1134:1 1266:1 2135:1 2221:1 2463:1 2641:1 2855:1 2889:1 2927:1 3217:1 
58.68625212417709 0 562:1 1005:1 1158:1 
129.2397895217514 0 93:1 210:1 863:1 901:1 1713:1 1725:1 1940:1 2530:1 3265:1 3327:1 
0 31.93988423448526 860:1 1544:1 1868:1 
256.4944488827566 0 2253:1 2793:1 
0 22.55673792553178 93:1 158:1 242:1 300:1 430:1 620:1 640:1 670:1 684:1 708:1 822:1 831:1 863:1 911:1 1119:1 1202:1 1208:1 1233:1 1263:1 1296:1 1432:1 1638:1 1731:1 1821:1 1917:1 1949:1 1961:1 2326:1 2371:1 2667:1 2761:1 2771:1 2923:1 3056:1 3265:1 3460:1 3517:1 
124.1701077321761 73.67721167524221 73:1 496:1 521:1 539:1 1133:1 2071:1 2610:1 3338:1 
35.66836211121839 0 57:1 287:1 380:1 562:1 708:1 1203:1 1266:1 1631:1 1904:1 2014:1 2172:1 2275:1 2487:1 3039:1 3289:1 3368:1 
170.1166060629991 54.80318392014195 346:1 831:1 1432:1 1443:1 1654:1 1940:1 2135:1 2939:1 3086:1 3186:1 
0 77.39374593265705 2:1 237:1 243:1 553:1 831:1 860:1 1027:1 1263:1 1700:1 2100:1 2128:1 2363:1 2667:1 2889:1 2996:1 3143:1 3215:1 3265:1 3396:1 3460:1 
0 37.51293414367013 708:1 849:1 1283:1 2371:1 3392:1 
0 13.82529183721751 722:1 1291:1 2079:1 2324:1 2385:1 2530:1 2924:1 
28.62413763070798 23.05293616936911 487:1 795:1 805:1 835:1 855:1 901:1 1262:1 1372:1 1519:1 1826:1 1863:1 1949:1 2245:1 2356:1 2373:1 2530:1 2659:1 3064:1 3298:1 3396:1 
0 28.10220900212587 2:1 21:1 158:1 719:1 831:1 835:1 863:1 1331:1 1450:1 1765:1 1914:1 1940:1 2115:1 2371:1 2599:1 2782:1 2833:1 2880:1 2923:1 3075:1 3338:1 3392:1 
79.15784191414765 0 93:1 292:1 1029:1 2128:1 2787:1 
72.28315021702018 0 55:1 1134:1 1153:1 1180:1 1329:1 1901:1 2017:1 2538:1 2737:1 2910:1 
0 10.25636359568075 139:1 509:1 599:1 1161:1 1918:1 
0 9.115243274692503 45:1 158:1 250:1 669:1 803:1 860:1 877:1 1214:1 1731:1 1935:1 2737:1 2864:1 3143:1 3363:1 
290.2173226738713 0 973:1 2793:1 2901:1 
239.0939911891389 0 132:1 2260:1 2741:1 2810:1 3414:1 3455:1 
0 4.713479226397375 345:1 483:1 495:1 860:1 1283:1 2172:1 3257:1 
0 50.54825193310251 495:1 684:1 836:1 1283:1 1561:1 1731:1 2395:1 2420:1 2850:1 3022:1 3113:1 3144:1 
0 25.79296598262448 345:1 451:1 564:1 620:1 708:1 901:1 1071:1 1202:1 1427:1 1432:1 1664:1 1805:1 1826:1 1875:1 1970:1 2017:1 2170:1 2530:1 2577:1 2582:1 2588:1 2993:1 3254:1 3327:1 
0 39.69440768713302 468:1 2172:1 2741:1 3188:1 
0 83.04142265630492 1122:1 1263:1 2737:1 2765:1 3265:1 3287:1 3518:1 
0 83.04142265630492 21:1 67:1 345:1 425:1 451:1 512:1 863:1 901:1 1655:1 1722:1 1863:1 2172:1 2530:1 2577:1 2737:1 2781:1 2845:1 2923:1 3022:1 3046:1 3069:1 3123:1 3133:1 3192:1 3298:1 
0 83.04142265630492 55:1 90:1 205:1 304:1 345:1 451:1 512:1 665:1 772:1 889:1 959:1 1202:1 1214:1 1372:1 1488:1 1521:1 1666:1 1863:1 1981:1 2321:1 2356:1 2527:1 2577:1 2667:1 3005:1 3056:1 3086:1 3123:1 3215:1 3265:1 3298:1 
0 83.04142265630492 495:1 1023:1 1275:1 2172:1 2880:1 3188:1 3248:1 3257:1 
71.98177159151156 73.13426348569539 23:1 204:1 292:1 308:1 345:1 629:1 848:1 902:1 927:1 964:1 1616:1 1619:1 1826:1 2091:1 2594:1 3307:1 
0 83.04142265630492 21:1 157:1 304:1 345:1 451:1 620:1 849:1 863:1 1233:1 1283:1 1291:1 1292:1 1296:1 1713:1 1722:1 2089:1 2577:1 2923:1 2996:1 
286.2679105150488 83.04142265630492 136:1 173:1 239:1 328:1 490:1 1005:1 1037:1 1074:1 1578:1 2278:1 2737:1 3248:1 
0 9.624032819434577 93:1 109:1 242:1 304:1 371:1 803:1 860:1 939:1 1288:1 1419:1 1462:1 1725:1 1829:1 1868:1 1976:1 2141:1 2538:1 2667:1 2862:1 2923:1 3265:1 3408:1 3478:1 
0 17.96192349517127 21:1 158:1 347:1 430:1 584:1 620:1 624:1 849:1 863:1 929:1 984:1 1180:1 1263:1 1283:1 1442:1 1615:1 1629:1 1940:1 1981:1 2017:1 2089:1 2100:1 2141:1 2376:1 2449:1 2692:1 2702:1 2715:1 2845:1 2923:1 2953:1 3265:1 
149.8290952477867 0 8:1 93:1 158:1 304:1 345:1 506:1 929:1 964:1 1208:1 1263:1 1394:1 1454:1 1629:1 1733:1 1981:1 2350:1 2376:1 3396:1 
0 10.17488706665889 67:1 292:1 304:1 343:1 430:1 506:1 553:1 760:1 863:1 876:1 901:1 959:1 1122:1 1208:1 1266:1 1432:1 1578:1 1624:1 1863:1 2530:1 2667:1 2737:1 2889:1 2923:1 2996:1 3056:1 3230:1 3234:1 3298:1 3327:1 3367:1 
82.12524029196121 0 158:1 177:1 345:1 803:1 901:1 927:1 1291:1 1399:1 1666:1 1735:1 2014:1 2172:1 2326:1 2530:1 2538:1 2677:1 2762:1 2893:1 3265:1 3489:1 
0 83.04142265630492 158:1 345:1 849:1 860:1 964:1 1122:1 1432:1 1868:1 2172:1 2376:1 
353.4877689509592 0 684:1 867:1 2135:1 2334:1 2485:1 
27.15153418171454 83.04142265630492 304:1 848:1 1202:1 1263:1 1281:1 1283:1 1296:1 1378:1 1418:1 1419:1 1595:1 1949:1 2027:1 2128:1 2245:1 2326:1 2371:1 2463:1 2466:1 2667:1 2793:1 2878:1 2953:1 3072:1 3173:1 3257:1 3322:1 3372:1 3518:1 
0 42.48147802246889 21:1 304:1 345:1 863:1 1176:1 1180:1 1233:1 1263:1 1432:1 1725:1 1805:1 1830:1 2376:1 2530:1 2676:1 2923:1 2953:1 3257:1 3327:1 3428:1 3523:1 
138.4791351827056 0 2:1 308:1 345:1 377:1 759:1 795:1 863:1 934:1 1296:1 1600:1 1695:1 1729:1 1823:1 2426:1 2594:1 2923:1 2953:1 3056:1 3338:1 3465:1 
0 18.28234472078376 2:1 44:1 304:1 345:1 451:1 495:1 650:1 652:1 670:1 684:1 703:1 708:1 752:1 803:1 835:1 863:1 947:1 952:1 964:1 1119:1 1134:1 1157:1 1162:1 1180:1 1233:1 1263:1 1339:1 1402:1 1654:1 1798:1 2128:1 2135:1 2172:1 2221:1 2326:1 2365:1 2371:1 2572:1 2577:1 2581:1 2628:1 2714:1 2783:1 2793:1 2800:1 2864:1 2923:1 2953:1 3020:1 3056:1 3064:1 3143:1 3265:1 3424:1 3460:1 3521:1 
81.93611371000102 0 5:1 93:1 304:1 1278:1 1283:1 1629:1 2172:1 2253:1 2329:1 2434:1 2564:1 2623:1 2793:1 3143:1 3276:1 
0 18.43959514467583 1023:1 1679:1 
114.1174838422741 0 185:1 605:1 1055:1 1074:1 2576:1 3338:1 
73.68544955164457 0 189:1 1690:1 2165:1 3309:1 
111.9321524020722 44.13610834245119 503:1 708:1 2543:1 2885:1 2923:1 
151.813750291078 83.04142265630492 387:1 674:1 708:1 1121:1 1561:1 1641:1 1803:1 2097:1 2734:1 2857:1 3338:1 
173.7857980752603 0 1433:1 1637:1 3450:1 
0 83.04142265630492 105:1 165:1 451:1 703:1 851:1 1134:1 1208:1 2044:1 2463:1 2702:1 2845:1 2923:1 3265:1 3460:1 
135.3739886207713 76.06922348980244 158:1 240:1 328:1 620:1 846:1 1851:1 2172:1 2326:1 2467:1 2508:1 3287:1 3460:1 
0 68.60614883441129 1544:1 2044:1 3265:1 3372:1 3460:1 
353.4877689509592 0 2102:1 
0 55.99100861505644 242:1 304:1 373:1 620:1 860:1 1047:1 1122:1 1283:1 1432:1 1666:1 1853:1 2221:1 2326:1 2889:1 2923:1 2934:1 2979:1 3008:1 3143:1 3246:1 
0 74.87417002604631 90:1 581:1 1679:1 2581:1 2641:1 2741:1 2985:1 3188:1 
0 83.04142265630492 219:1 1894:1 2764:1 3149:1 3455:1 
305.9584402151542 0 896:1 1628:1 2135:1 2885:1 3269:1 3334:1 
353.4877689509592 0 900:1 966:1 2135:1 2172:1 
169.0924054021073 83.04142265630492 76:1 1122:1 1134:1 1314:1 1613:1 2169:1 2783:1 3023:1 3215:1 3253:1 
66.29610363120432 45.39577099907306 492:1 529:1 709:1 803:1 1063:1 1122:1 1296:1 1432:1 1518:1 1654:1 1795:1 2003:1 2015:1 2302:1 2315:1 2331:1 2627:1 2737:1 2753:1 
0 25.243735930665 184:1 430:1 484:1 690:1 708:1 1035:1 1088:1 1158:1 1247:1 1481:1 2071:1 2764:1 2923:1 
353.4877689509592 0 708:1 2326:1 3518:1 
127.3705467899138 0 708:1 907:1 1158:1 1283:1 1842:1 2103:1 2172:1 2326:1 2508:1 2621:1 
0 3.54314429508122 1008:1 1104:1 1158:1 1259:1 1291:1 1423:1 1720:1 2141:1 2247:1 2326:1 2478:1 2737:1 3144:1 3338:1 
84.81793879403114 0 1074:1 1084:1 3269:1 3488:1 
145.0779606453845 49.79601410543765 369:1 578:1 1006:1 1665:1 2164:1 2213:1 2403:1 2665:1 2745:1 2923:1 3020:1 
229.7647782832894 54.04799022266543 440:1 690:1 815:1 1158:1 1321:1 1775:1 1981:1 2172:1 2693:1 3188:1 
325.7972466780641 27.60107863008694 1133:1 1273:1 
230.8278136228835 83.04142265630492 277:1 1122:1 3489:1 
0 66.2633205295066 860:1 876:1 927:1 1122:1 2089:1 2538:1 2748:1 2845:1 2923:1 3085:1 3114:1 3440:1 3489:1 
0 83.04142265630492 451:1 1200:1 1352:1 1379:1 1495:1 2278:1 2363:1 2577:1 2594:1 2996:1 3250:1 
134.296808858142 26.71446713786134 2:1 352:1 668:1 703:1 1291:1 1725:1 1812:1 2410:1 2996:1 3083:1 3472:1 3497:1 
85.60207728763984 0 90:1 484:1 1074:1 1745:1 2131:1 3333:1 
0 18.22463773239002 184:1 352:1 355:1 471:1 490:1 599:1 1291:1 1444:1 1583:1 1641:1 2672:1 2737:1 2791:1 3363:1 
0 40.67053813751252 2:1 650:1 3049:1 
0 17.49806810640291 190:1 209:1 319:1 1162:1 1263:1 1754:1 2586:1 2737:1 2845:1 2923:1 
106.1794805762784 0 292:1 319:1 495:1 1328:1 1666:1 2659:1 2953:1 
290.3617001587161 53.76341217289603 884:1 1221:1 1261:1 2581:1 3203:1 
62.33115840745354 37.5691804055374 988:1 1074:1 1133:1 1221:1 1427:1 1484:1 2886:1 2894:1 3155:1 3188:1 3338:1 3427:1 
0 83.04142265630492 320:1 620:1 877:1 1268:1 1678:1 1940:1 2889:1 2913:1 2953:1 3301:1 
353.4877689509592 15.16684494935404 90:1 509:1 871:1 1037:1 2401:1 2559:1 2581:1 
117.9280757999595 0 380:1 447:1 495:1 501:1 1014:1 1254:1 1296:1 1697:1 1720:1 2027:1 2091:1 2508:1 2857:1 2863:1 3010:1 3068:1 3102:1 3306:1 
0 13.40484931853003 166:1 356:1 490:1 2131:1 
353.4877689509592 83.04142265630492 166:1 356:1 490:1 2131:1 
-353.4877689509592 166.775960469206 35:1 966:1 1005:1 2172:1 2815:1 2910:1 3262:1 
-353.4877689509592 481.1079925009724 708:1 3466:1 3518:1 
-353.4877689509592 0 708:1 1457:1 1980:1 3497:1 3518:1 
-353.4877689509592 211.4746819457668 1162:1 1300:1 2265:1 2667:1 2771:1 2923:1 3056:1 
-353.4877689509592 481.1079925009724 3246:1 
-110.5842970735912 89.37345603481211 345:1 461:1 504:1 578:1 975:1 1713:1 2135:1 2508:1 2581:1 2923:1 2945:1 3266:1 
-95.55281120137789 0 1202:1 1263:1 1457:1 2128:1 2667:1 2792:1 2996:1 3398:1 3497:1 
-353.4877689509592 299.8527809599427 1063:1 1545:1 2326:1 2485:1 3265:1 
-353.4877689509592 231.451993604388 386:1 395:1 757:1 1126:1 1263:1 1733:1 1855:1 2806:1 2893:1 2923:1 3396:1 
-0 39.34416758093682 14:1 20:1 112:1 157:1 304:1 319:1 321:1 363:1 395:1 456:1 498:1 578:1 708:1 827:1 845:1 927:1 929:1 952:1 1191:1 1208:1 1263:1 1279:1 1291:1 1387:1 1412:1 1554:1 1616:1 1629:1 1654:1 1699:1 1719:1 1725:1 1826:1 1842:1 1935:1 2141:1 2172:1 2227:1 2233:1 2245:1 2445:1 2586:1 2594:1 2600:1 2667:1 2737:1 2742:1 2802:1 2845:1 2893:1 2899:1 2923:1 2946:1 2953:1 2979:1 2996:1 3017:1 3075:1 3111:1 3143:1 3192:1 3265:1 3266:1 3396:1 3398:1 3460:1 3491:1 
-296.2615159067008 183.8367829391034 49:1 136:1 172:1 331:1 794:1 848:1 1713:1 2554:1 2581:1 2737:1 
-123.5775708696133 40.07562367812321 147:1 319:1 495:1 620:1 1081:1 1202:1 1208:1 1268:1 1283:1 1889:1 1959:1 2135:1 2432:1 2622:1 2800:1 2979:1 3246:1 3276:1 
-353.4877689509592 311.3605676757325 147:1 807:1 1271:1 2172:1 2622:1 2889:1 2934:1 3342:1 
-353.4877689509592 142.0405146000244 13:1 462:1 808:1 2279:1 3169:1 3205:1 
-206.5328258519687 0 161:1 292:1 484:1 576:1 1263:1 1457:1 1629:1 2089:1 2128:1 2135:1 2172:1 2233:1 2468:1 2885:1 2926:1 2933:1 3056:1 3192:1 3197:1 3265:1 3398:1 
-353.4877689509592 157.026912867161 3:1 1980:1 
-353.4877689509592 148.9832917120266 690:1 842:1 1134:1 1291:1 2663:1 2923:1 3489:1 
-353.4877689509592 481.1079925009724 842:1 
-353.4877689509592 0 626:1 690:1 842:1 2663:1 2766:1 
-48.59390900856855 0 64:1 318:1 435:1 600:1 634:1 682:1 690:1 695:1 842:1 1211:1 1222:1 1247:1 1250:1 1566:1 1620:1 1642:1 1673:1 1681:1 1742:1 1837:1 2022:1 2238:1 2289:1 2294:1 2303:1 2441:1 2540:1 2936:1 3311:1 3319:1 3397:1 3472:1 
-353.4877689509592 0 626:1 690:1 842:1 2663:1 
-353.4877689509592 82.15607431729514 1134:1 1158:1 1202:1 1673:1 1674:1 1844:1 2068:1 2378:1 2667:1 2923:1 3482:1 
-304.2426655179072 43.81336763564597 690:1 842:1 1673:1 1711:1 2238:1 2880:1 
-77.39259849370177 50.60380986021956 262:1 304:1 339:1 620:1 626:1 860:1 1134:1 1169:1 1179:1 1208:1 1263:1 1482:1 1557:1 1619:1 1821:1 1888:1 1910:1 2025:1 2135:1 2441:1 2485:1 2766:1 2782:1 2796:1 2803:1 2953:1 3056:1 3069:1 3141:1 3197:1 3257:1 3396:1 
-353.4877689509592 308.4702310669946 690:1 1054:1 2667:1 2737:1 2747:1 2923:1 3445:1 
-146.2118229535724 19.99399303575704 269:1 690:1 1037:1 1054:1 1218:1 1837:1 2615:1 2857:1 3432:1 
-97.69388236434303 18.61863848147564 95:1 158:1 241:1 292:1 304:1 428:1 451:1 703:1 752:1 807:1 1122:1 1457:1 1673:1 1725:1 1844:1 1893:1 2068:1 2245:1 2405:1 2781:1 3046:1 3075:1 3096:1 3108:1 3265:1 3392:1 3497:1 3504:1 
-202.4867665067928 127.4486435546722 136:1 549:1 578:1 805:1 1133:1 1442:1 1542:1 1783:1 2071:1 2332:1 2566:1 2818:1 2867:1 
-353.4877689509592 60.37332056305752 90:1 805:1 890:1 1442:1 2581:1 3236:1 
-310.9276459243926 317.5011159410473 158:1 620:1 621:1 964:1 1134:1 1150:1 1181:1 1233:1 1342:1 2304:1 2326:1 2362:1 2463:1 2923:1 3092:1 3265:1 3499:1 
-0 133.3292989026519 161:1 304:1 335:1 345:1 578:1 870:1 881:1 887:1 903:1 927:1 958:1 1040:1 1263:1 1280:1 1292:1 1372:1 1805:1 2190:1 2213:1 2245:1 2371:1 2469:1 2508:1 2706:1 2720:1 2737:1 2780:1 2806:1 2953:1 2973:1 2990:1 3250:1 3282:1 3431:1 
-0 63.00390171621275 158:1 346:1 408:1 578:1 815:1 1122:1 1134:1 1172:1 1202:1 1263:1 1268:1 1729:1 1812:1 1949:1 2141:1 2245:1 2426:1 2723:1 2792:1 2806:1 2908:1 2923:1 2934:1 2986:1 3069:1 3217:1 3299:1 3303:1 
-0 42.55673603120047 35:1 44:1 275:1 292:1 304:1 306:1 364:1 420:1 556:1 932:1 1036:1 1122:1 1214:1 1233:1 1394:1 1482:1 1509:1 1619:1 1898:1 2021:1 2091:1 2094:1 2141:1 2245:1 2361:1 2923:1 2927:1 2930:1 2933:1 3056:1 3078:1 3173:1 3210:1 3265:1 3303:1 3372:1 3398:1 3421:1 3497:1 
-176.4937115993989 109.4901011174229 191:1 260:1 373:1 430:1 506:1 533:1 578:1 954:1 1361:1 1719:1 1725:1 1830:1 1836:1 1863:1 2191:1 2326:1 2577:1 2723:1 2806:1 2885:1 2889:1 2923:1 2948:1 2953:1 3056:1 3400:1 3431:1 3518:1 
-353.4877689509592 246.2588241993163 221:1 370:1 831:1 1087:1 1495:1 2128:1 2426:1 2782:1 2923:1 2986:1 3020:1 3197:1 
-353.4877689509592 138.4227916604727 346:1 1134:1 1150:1 1666:1 1829:1 1946:1 2172:1 2948:1 3217:1 3265:1 3338:1 
-91.14921914962487 40.09644121855869 16:1 21:1 35:1 237:1 242:1 292:1 304:1 345:1 351:1 394:1 620:1 798:1 802:1 803:1 807:1 812:1 855:1 1005:1 1205:1 1279:1 1432:1 1457:1 1495:1 1545:1 1557:1 1805:1 1867:1 2045:1 2089:1 2135:1 2141:1 2449:1 2514:1 2592:1 2736:1 2737:1 2792:1 2837:1 2881:1 2919:1 2923:1 3201:1 3265:1 3280:1 3369:1 3372:1 
-77.27981609215165 0 35:1 158:1 292:1 975:1 1058:1 1122:1 1263:1 1268:1 1499:1 2326:1 2782:1 2845:1 2885:1 2948:1 2953:1 2986:1 3050:1 3078:1 3237:1 3392:1 3431:1 
-353.4877689509592 28.55207234744939 356:1 794:1 866:1 871:1 1077:1 2131:1 2581:1 2857:1 3026:1 3042:1 3338:1 3418:1 3516:1 
-114.2715643186143 120.4601818677618 292:1 372:1 938:1 954:1 1013:1 1037:1 1894:1 2089:1 2172:1 2310:1 2369:1 2577:1 2716:1 2806:1 2884:1 2948:1 3220:1 3265:1 3406:1 
-160.110102415828 52.88031302279131 319:1 578:1 803:1 964:1 1097:1 1263:1 1314:1 1629:1 2172:1 2369:1 2472:1 2597:1 2737:1 2782:1 2910:1 3262:1 3265:1 3502:1 
-172.7400206983544 0 35:1 201:1 420:1 932:1 1233:1 1599:1 2304:1 3508:1 
-353.4877689509592 24.46201579215807 35:1 279:1 934:1 1122:1 1207:1 1725:1 1940:1 3327:1 
-0 64.89442370913434 396:1 578:1 1713:1 1756:1 2075:1 2270:1 2806:1 2822:1 
-353.4877689509592 78.84629466114679 130:1 292:1 380:1 521:1 703:1 835:1 1301:1 1310:1 1631:1 1690:1 2296:1 2529:1 2693:1 2956:1 
-353.4877689509592 171.9028684410927 1255:1 1839:1 2450:1 3439:1 
-124.7199278064208 0 319:1 355:1 1338:1 1713:1 1836:1 2232:1 2326:1 2329:1 2417:1 2435:1 2450:1 2472:1 2608:1 2723:1 2885:1 3398:1 3409:1 3497:1 
-0 14.37007633876975 35:1 162:1 300:1 345:1 350:1 355:1 394:1 395:1 454:1 460:1 474:1 563:1 578:1 684:1 703:1 752:1 803:1 807:1 827:1 875:1 888:1 929:1 1047:1 1098:1 1122:1 1134:1 1202:1 1208:1 1233:1 1248:1 1263:1 1283:1 1291:1 1296:1 1300:1 1337:1 1378:1 1408:1 1544:1 1545:1 1595:1 1629:1 1648:1 1666:1 1713:1 1764:1 1804:1 1833:1 1849:1 2135:1 2153:1 2233:1 2326:1 2351:1 2382:1 2446:1 2508:1 2509:1 2586:1 2667:1 2693:1 2723:1 2737:1 2796:1 2837:1 2923:1 2953:1 2968:1 2979:1 2989:1 2996:1 3017:1 3020:1 3173:1 3265:1 3326:1 3327:1 3332:1 3338:1 3460:1 
-353.4877689509592 314.8901277307583 1362:1 2135:1 2507:1 3489:1 
-353.4877689509592 0 2:1 484:1 578:1 1475:1 2174:1 2326:1 2923:1 3006:1 3396:1 3398:1 3489:1 
-335.8524461796003 70.3062267964135 2:1 292:1 368:1 747:1 1208:1 1338:1 1888:1 2860:1 2882:1 2896:1 2923:1 3215:1 
-353.4877689509592 391.2824400253461 210:1 676:1 845:1 984:1 1432:1 1826:1 
-20.9103869729312 24.605183483074 228:1 242:1 304:1 345:1 461:1 620:1 748:1 807:1 860:1 975:1 1122:1 1150:1 1158:1 1202:1 1208:1 1233:1 1263:1 1300:1 1319:1 1372:1 1432:1 1462:1 1495:1 1619:1 1725:1 1836:1 2014:1 2129:1 2141:1 2253:1 2485:1 2586:1 2594:1 2667:1 2781:1 2869:1 2923:1 2979:1 3046:1 3247:1 3327:1 3396:1 3398:1 3460:1 
-287.2878975977967 186.1853781986404 35:1 244:1 934:1 1615:1 2783:1 2806:1 3051:1 
-83.99196809456278 48.48627874198532 292:1 541:1 642:1 728:1 807:1 1059:1 1086:1 1122:1 1202:1 1245:1 1276:1 1359:1 1416:1 1595:1 1602:1 1676:1 1733:1 1764:1 1940:1 2014:1 2042:1 2304:1 2315:1 2387:1 2517:1 2549:1 2561:1 2710:1 2771:1 2793:1 2796:1 2885:1 2923:1 3026:1 3123:1 3184:1 3192:1 3201:1 3327:1 
-353.4877689509592 481.1079925009724 563:1 
-225.4097795358328 18.55368793823176 13:1 287:1 304:1 1165:1 1224:1 1291:1 1296:1 1544:1 1713:1 1756:1 1767:1 1871:1 2109:1 2270:1 2427:1 2650:1 2731:1 2769:1 2831:1 3264:1 3292:1 3338:1 
-353.4877689509592 0 1046:1 2485:1 3398:1 
-353.4877689509592 0 439:1 973:1 2485:1 3398:1 
-353.4877689509592 279.0633820595997 1202:1 1568:1 2329:1 3261:1 
-353.4877689509592 134.8016080506757 1046:1 1836:1 1981:1 2885:1 3398:1 
-353.4877689509592 0 578:1 1214:1 1291:1 2896:1 3471:1 
-353.4877689509592 226.1278719645712 199:1 1119:1 1661:1 1946:1 3250:1 
-0 97.22860733514833 35:1 260:1 345:1 613:1 807:1 956:1 1038:1 1122:1 1202:1 1233:1 1395:1 1432:1 1457:1 1692:1 1713:1 1868:1 2304:1 2423:1 2586:1 3250:1 3265:1 3327:1 3471:1 
-353.4877689509592 141.290484957007 132:1 445:1 493:1 503:1 578:1 2792:1 3248:1 3455:1 
-353.4877689509592 189.6584693545148 1065:1 1150:1 1495:1 1509:1 2141:1 2245:1 2778:1 3184:1 
-353.4877689509592 187.9275250033419 201:1 408:1 525:1 1214:1 3338:1 
-353.4877689509592 0 132:1 1074:1 1680:1 2684:1 
-353.4877689509592 96.16687538772794 337:1 1037:1 1072:1 1680:1 2901:1 
-143.4069355051562 61.26320154861302 21:1 201:1 300:1 304:1 375:1 576:1 760:1 899:1 912:1 1119:1 1134:1 1202:1 1246:1 1263:1 1268:1 1402:1 1523:1 1547:1 1635:1 1654:1 1719:1 1795:1 1805:1 1940:1 1946:1 2014:1 2089:1 2091:1 2135:1 2141:1 2207:1 2577:1 2656:1 2671:1 2893:1 2923:1 2979:1 3250:1 3265:1 3398:1 3489:1 
-312.0223328001423 135.225031927682 539:1 578:1 1344:1 1433:1 1720:1 2292:1 2752:1 2912:1 2953:1 3057:1 3314:1 
-83.92841054381421 80.94301595759963 13:1 51:1 130:1 287:1 295:1 380:1 678:1 703:1 792:1 854:1 1104:1 1122:1 1152:1 1296:1 1300:1 1610:1 1739:1 1751:1 1877:1 1904:1 1957:1 1964:1 1965:1 2129:1 2155:1 2157:1 2218:1 2455:1 2504:1 2621:1 2654:1 2740:1 2768:1 2831:1 2922:1 3010:1 3297:1 3373:1 3401:1 
-353.4877689509592 148.6027695689404 304:1 445:1 592:1 807:1 1202:1 1450:1 1594:1 1653:1 2141:1 2374:1 2586:1 2979:1 3338:1 
-353.4877689509592 238.3496265141073 620:1 1122:1 1324:1 3466:1 
-353.4877689509592 0 708:1 3363:1 3398:1 3518:1 
-353.4877689509592 0 177:1 228:1 578:1 1348:1 1495:1 2023:1 2135:1 3398:1 
-25.21301776524977 65.84414353882852 201:1 213:1 226:1 237:1 304:1 430:1 516:1 517:1 643:1 710:1 945:1 964:1 994:1 1006:1 1391:1 1417:1 1464:1 1709:1 1793:1 1835:1 1915:1 1923:1 1980:1 2134:1 2179:1 2197:1 2354:1 2461:1 2476:1 2482:1 2505:1 2533:1 2537:1 2594:1 2617:1 2620:1 2692:1 2706:1 2737:1 2806:1 
-353.4877689509592 0 430:1 1263:1 1722:1 1836:1 2172:1 2797:1 2837:1 3338:1 3380:1 3398:1 3465:1 
-353.4877689509592 197.5335128538582 708:1 1680:1 3024:1 3425:1 
-353.4877689509592 0 1338:1 2885:1 3063:1 
-353.4877689509592 137.6286571963561 166:1 606:1 1138:1 1680:1 1702:1 2096:1 2883:1 
-264.0955725122664 102.3615799322435 396:1 578:1 1132:1 1467:1 2270:1 2478:1 3052:1 
-353.4877689509592 0 201:1 708:1 2485:1 
-353.4877689509592 0 21:1 327:1 803:1 1495:1 2135:1 2325:1 3398:1 
-353.4877689509592 156.6641166650062 430:1 879:1 1600:1 1713:1 1922:1 2102:1 2121:1 2310:1 2734:1 2787:1 3064:1 3206:1 
-239.7286508421668 53.39509783254466 68:1 292:1 329:1 345:1 445:1 446:1 543:1 552:1 652:1 670:1 784:1 795:1 927:1 932:1 1233:1 1528:1 1725:1 1729:1 2091:1 2140:1 2190:1 2727:1 2889:1 2917:1 3005:1 3201:1 3412:1 
-191.6886972123705 0 260:1 878:1 1263:1 1338:1 1482:1 1829:1 1886:1 1946:1 2326:1 2877:1 2923:1 2934:1 3497:1 
-353.4877689509592 169.5781300593579 335:1 620:1 2172:1 3327:1 
-38.38257790286197 0 93:1 319:1 430:1 439:1 1441:1 1482:1 1628:1 1829:1 1946:1 2485:1 2667:1 2889:1 2979:1 3023:1 3125:1 3265:1 3398:1 
-131.1583653186868 0 44:1 461:1 620:1 767:1 1208:1 1517:1 1733:1 2014:1 2426:1 2508:1 3131:1 3398:1 
-353.4877689509592 172.6377614339777 492:1 641:1 1718:1 2349:1 2737:1 3210:1 
-353.4877689509592 0 35:1 138:1 815:1 885:1 1093:1 1654:1 1725:1 2450:1 3131:1 
-230.3900099222258 0 35:1 68:1 355:1 485:1 640:1 717:1 878:1 1158:1 1291:1 1300:1 1314:1 1695:1 1729:1 2135:1 2141:1 2182:1 2667:1 2792:1 3262:1 3465:1 3482:1 
-353.4877689509592 0 199:1 578:1 973:1 1886:1 2213:1 3471:1 
-353.4877689509592 89.82555247562618 676:1 684:1 815:1 1406:1 2135:1 2156:1 
-353.4877689509592 97.37044555224708 250:1 929:1 1457:1 1868:1 2806:1 
-353.4877689509592 481.1079925009724 708:1 3255:1 
-353.4877689509592 79.56988104944425 3255:1 
-353.4877689509592 0 1980:1 2310:1 2477:1 2485:1 
-353.4877689509592 481.1079925009724 3471:1 
-12.66865404406249 0 486:1 703:1 807:1 845:1 1282:1 1836:1 2014:1 2089:1 2497:1 2508:1 2792:1 3064:1 3287:1 3398:1 
-353.4877689509592 232.3767858527347 3:1 557:1 860:1 973:1 1134:1 1268:1 1629:1 2648:1 3147:1 
-353.4877689509592 40.08144701926129 448:1 578:1 679:1 795:1 1015:1 1562:1 2326:1 3117:1 
-353.4877689509592 62.96529534735107 3:1 1628:1 
-353.4877689509592 143.1357015103018 1628:1 1949:1 3497:1 
-12.05616368093603 0 68:1 297:1 327:1 408:1 620:1 708:1 755:1 807:1 889:1 973:1 1155:1 1202:1 1245:1 1283:1 1285:1 1291:1 1373:1 1432:1 1650:1 1666:1 1695:1 1722:1 1826:1 1888:1 1940:1 2128:1 2326:1 2445:1 2450:1 2508:1 2667:1 2723:1 2737:1 2873:1 2953:1 2979:1 3064:1 3111:1 3121:1 3398:1 3497:1 3518:1 
-204.6173057988398 41.56853383513683 93:1 292:1 684:1 709:1 860:1 927:1 961:1 1048:1 1208:1 1263:1 1338:1 1666:1 1737:1 1857:1 2014:1 2245:1 2310:1 2412:1 2450:1 2737:1 2781:1 2923:1 3023:1 3078:1 3398:1 3468:1 3497:1 
-67.64634921935401 0 35:1 147:1 161:1 199:1 652:1 956:1 1005:1 1047:1 1162:1 1230:1 1263:1 1266:1 1276:1 1333:1 1653:1 1940:1 1949:1 2135:1 2172:1 2245:1 2371:1 2508:1 2663:1 2667:1 2721:1 2779:1 2889:1 2935:1 2996:1 3005:1 3023:1 3199:1 3392:1 
-353.4877689509592 170.2393774846076 807:1 1703:1 2286:1 3497:1 
-230.9313180193859 117.2617251566661 2:1 74:1 158:1 243:1 304:1 460:1 553:1 620:1 684:1 708:1 752:1 807:1 870:1 887:1 929:1 1202:1 1208:1 1545:1 1616:1 1641:1 1654:1 1722:1 1803:1 1857:1 1935:1 2014:1 2089:1 2172:1 2221:1 2245:1 2326:1 2667:1 2923:1 2979:1 3018:1 3023:1 3075:1 3262:1 3265:1 3338:1 3506:1 3514:1 3521:1 
-79.87407012393234 186.875085263533 578:1 1055:1 1372:1 1457:1 1600:1 1674:1 2806:1 3005:1 3184:1 3265:1 
-197.8927974520533 0 35:1 68:1 93:1 210:1 445:1 594:1 722:1 1216:1 1713:1 1960:1 2135:1 2260:1 2403:1 2500:1 2545:1 2806:1 3265:1 3327:1 3372:1 
-353.4877689509592 0 199:1 2286:1 2403:1 3497:1 
-351.9935601207464 0 147:1 676:1 1245:1 1810:1 2362:1 2445:1 2485:1 3398:1 
-328.7761965471726 0 229:1 242:1 304:1 319:1 460:1 474:1 620:1 669:1 853:1 1097:1 1134:1 1263:1 1710:1 1725:1 1737:1 1940:1 2135:1 2304:1 2586:1 2660:1 2663:1 2923:1 2934:1 2953:1 3112:1 3265:1 3298:1 3407:1 
-353.4877689509592 0 1281:1 1638:1 1980:1 2188:1 2792:1 3497:1 
-353.4877689509592 0 3246:1 
-353.4877689509592 0 37:1 1022:1 2863:1 
-353.4877689509592 120.9104664678318 31:1 646:1 1005:1 1801:1 2116:1 3456:1 
-353.4877689509592 274.7056767213144 871:1 
-353.4877689509592 196.6401445182819 304:1 524:1 1333:1 1457:1 1612:1 1805:1 2456:1 2978:1 2996:1 3017:1 3056:1 
-95.97410932537578 176.124841758459 61:1 79:1 93:1 136:1 139:1 167:1 284:1 546:1 601:1 681:1 690:1 704:1 712:1 814:1 871:1 890:1 988:1 1041:1 1411:1 1439:1 1641:1 2290:1 2464:1 2581:1 2619:1 2657:1 2737:1 3188:1 3245:1 3248:1 3257:1 3313:1 3354:1 3384:1 3426:1 
-0 255.8334600885728 35:1 242:1 345:1 451:1 1122:1 1202:1 1810:1 1940:1 2418:1 2445:1 2577:1 3398:1 3431:1 3497:1 3523:1 
-0 22.9004136129587 35:1 308:1 556:1 578:1 620:1 681:1 961:1 1412:1 1754:1 1889:1 2310:1 2426:1 2617:1 2923:1 2934:1 3449:1 3468:1 
-232.7341299081635 0 578:1 921:1 1413:1 1889:1 2135:1 2149:1 2659:1 2885:1 3274:1 
-353.4877689509592 194.0487042743518 1054:1 
-353.4877689509592 0 3466:1 
-353.4877689509592 430.911210437614 486:1 
-353.4877689509592 0 842:1 1144:1 3229:1 
-353.4877689509592 0 3246:1 
-353.4877689509592 0 37:1 1022:1 2863:1 
-353.4877689509592 481.1079925009724 985:1 
-353.4877689509592 164.0470348983111 486:1 712:1 1121:1 1133:1 1743:1 2576:1 
-353.4877689509592 0 35:1 308:1 712:1 1263:1 1613:1 2135:1 2426:1 2615:1 2681:1 
-353.4877689509592 174.901902570109 534:1 1207:1 1521:1 1725:1 1736:1 2793:1 2885:1 2953:1 3332:1 3521:1 
-353.4877689509592 54.78145790036697 304:1 660:1 863:1 901:1 2530:1 3056:1 
-353.4877689509592 158.1202242438057 1074:1 1366:1 1529:1 3189:1 
-353.4877689509592 52.54350699051908 242:1 345:1 535:1 708:1 845:1 2253:1 2628:1 2667:1 2771:1 2793:1 
-353.4877689509592 254.7158752615218 356:1 438:1 2396:1 3022:1 3128:1 3432:1 
-353.4877689509592 221.0418269556123 1037:1 1074:1 1121:1 1133:1 1221:1 2737:1 3313:1 
-353.4877689509592 0 721:1 860:1 929:1 1005:1 2245:1 2326:1 2885:1 2934:1 3123:1 3398:1 
-353.4877689509592 0 308:1 708:1 842:1 863:1 1666:1 1722:1 1940:1 2172:1 2371:1 2426:1 2485:1 2953:1 3521:1 
-0 144.6254228526321 198:1 335:1 620:1 1263:1 1283:1 1457:1 1722:1 1725:1 2253:1 2771:1 2793:1 2806:1 3338:1 
-353.4877689509592 0 708:1 863:1 901:1 1195:1 1263:1 1725:1 1868:1 2172:1 2304:1 2340:1 2508:1 2530:1 2737:1 
-98.75221541546679 28.28766864794149 28:1 66:1 156:1 366:1 380:1 488:1 722:1 826:1 998:1 1174:1 1187:1 1301:1 1546:1 1871:1 1954:1 2221:1 2279:1 2468:1 2508:1 2572:1 2613:1 2663:1 2751:1 2831:1 2850:1 2918:1 3130:1 3347:1 3360:1 3399:1 3469:1 
-353.4877689509592 63.78974813346294 3246:1 
-353.4877689509592 269.6333105552056 37:1 1022:1 2863:1 
-0 93.59079230222088 161:1 201:1 242:1 260:1 304:1 516:1 620:1 723:1 892:1 964:1 1263:1 1333:1 1482:1 1718:1 1722:1 2172:1 2512:1 2667:1 2806:1 2907:1 2914:1 2953:1 2993:1 2996:1 3036:1 3257:1 3338:1 
-320.5113198744073 254.0956622553103 49:1 93:1 132:1 490:1 848:1 1121:1 1273:1 2737:1 2779:1 2888:1 
-353.4877689509592 158.7122523096089 807:1 1477:1 1725:1 2015:1 2261:1 2508:1 3497:1 3521:1 
-122.3681928659919 0 14:1 35:1 242:1 275:1 304:1 660:1 887:1 1005:1 1122:1 1233:1 1263:1 1500:1 2227:1 2667:1 2710:1 2789:1 
-304.207804110296 0 486:1 807:1 1202:1 1369:1 2245:1 2973:1 3331:1 3465:1 
-44.99746694723261 62.26682537784147 29:1 136:1 254:1 490:1 578:1 738:1 831:1 848:1 978:1 1042:1 1122:1 1167:1 1458:1 1512:1 1616:1 1634:1 1795:1 1937:1 1983:1 2370:1 2482:1 2576:1 2615:1 2693:1 2788:1 2834:1 2875:1 2932:1 3005:1 3177:1 3188:1 3203:1 3269:1 3395:1 3398:1 
-62.4311311164005 28.13144325944637 52:1 164:1 187:1 292:1 413:1 578:1 848:1 890:1 1060:1 1254:1 1463:1 1579:1 1636:1 1679:1 1680:1 1850:1 2857:1 3091:1 3188:1 3203:1 3245:1 
-89.95745865283884 0 99:1 304:1 1074:1 1077:1 1093:1 1180:1 1680:1 1713:1 2180:1 2253:1 2326:1 2371:1 2615:1 2859:1 3087:1 3188:1 
-270.1399446912977 0 578:1 635:1 848:1 890:1 1261:1 2129:1 2581:1 
-0 166.3607813456635 136:1 326:1 356:1 578:1 848:1 871:1 890:1 1133:1 1230:1 1579:1 2167:1 2466:1 2581:1 2938:1 3084:1 3170:1 3188:1 3257:1 
-258.1193860410202 0 578:1 871:1 1037:1 1981:1 2466:1 2581:1 
-105.1221259660986 99.37681963881583 184:1 187:1 442:1 578:1 1245:1 1588:1 2615:1 2737:1 3189:1 3432:1 
-353.4877689509592 59.22844355619129 194:1 731:1 1054:1 1418:1 1492:1 1571:1 1742:1 
-353.4877689509592 177.315407377395 845:1 917:1 1204:1 1997:1 2602:1 2719:1 3265:1 3327:1 
-191.3256070931169 118.5696478584972 132:1 192:1 269:1 490:1 521:1 848:1 1121:1 1506:1 2130:1 2350:1 2576:1 2709:1 2737:1 2791:1 2879:1 
-98.69007083254809 156.4021750696986 2:1 201:1 292:1 703:1 964:1 1005:1 1457:1 1589:1 1647:1 1757:1 1795:1 2440:1 2577:1 2867:1 
-0 80.7645348871185 157:1 236:1 300:1 363:1 398:1 606:1 620:1 662:1 688:1 753:1 798:1 849:1 853:1 932:1 1096:1 1233:1 1303:1 1433:1 1457:1 1713:1 1764:1 1783:1 1795:1 1898:1 2172:1 2343:1 2445:1 2454:1 2597:1 2692:1 2724:1 2792:1 2873:1 2896:1 2930:1 3262:1 
-353.4877689509592 0 1263:1 1285:1 2671:1 2996:1 3398:1 3465:1 3497:1 
-83.04142265630492 -355.8444952507101 966:1 1021:1 1256:1 1361:1 1713:1 2577:1 2923:1 3057:1 3345:1 
-83.04142265630492 -50.20453171884678 43:1 260:1 474:1 1122:1 1395:1 1445:1 1729:1 2002:1 2141:1 2371:1 2512:1 2524:1 2538:1 2806:1 2986:1 3022:1 3197:1 3381:1 
-83.04142265630492 -47.28310744923144 49:1 132:1 166:1 173:1 503:1 578:1 993:1 1005:1 1072:1 1133:1 1275:1 1583:1 2366:1 2581:1 2734:1 2737:1 2867:1 2879:1 2886:1 2894:1 3022:1 3188:1 3258:1 3323:1 3338:1 3427:1 
-83.04142265630492 -324.070879063389 387:1 674:1 708:1 1121:1 1561:1 1641:1 1803:1 2097:1 2734:1 2857:1 3338:1 
-83.04142265630492 -159.1743641174706 55:1 308:1 681:1 929:1 936:1 959:1 1052:1 1750:1 2326:1 2426:1 2490:1 3184:1 3192:1 3250:1 3468:1 3502:1 
-83.04142265630492 -0 2:1 41:1 76:1 157:1 214:1 329:1 803:1 831:1 1122:1 1281:1 1336:1 1619:1 1857:1 2304:1 2326:1 2468:1 2667:1 2692:1 2845:1 2923:1 3215:1 3388:1 3499:1 
-83.04142265630492 -0 387:1 674:1 708:1 1121:1 1561:1 1641:1 1803:1 2097:1 2734:1 2857:1 3338:1 
-83.04142265630492 -0 157:1 162:1 1150:1 2141:1 2692:1 2923:1 2960:1 2979:1 
-83.04142265630492 -0 21:1 142:1 151:1 157:1 250:1 552:1 564:1 831:1 853:1 860:1 863:1 901:1 929:1 931:1 1126:1 1146:1 1253:1 1272:1 1296:1 1544:1 1629:1 1731:1 1737:1 1981:1 1988:1 2014:1 2089:1 2376:1 2530:1 2538:1 2600:1 2845:1 2923:1 2953:1 3143:1 3257:1 3265:1 3315:1 3369:1 3460:1 3461:1 3489:1 3512:1 3521:1 
-83.04142265630492 -481.1079925009724 162:1 498:1 860:1 2771:1 3022:1 
-83.04142265630492 -0 2:1 68:1 345:1 498:1 521:1 652:1 703:1 721:1 753:1 889:1 931:1 1094:1 1134:1 1254:1 1291:1 1378:1 1578:1 1795:1 1853:1 1898:1 1903:1 1961:1 1988:1 2015:1 2326:1 2371:1 2446:1 2507:1 2681:1 2923:1 2993:1 3022:1 3192:1 3215:1 3298:1 3303:1 3380:1 3499:1 
-83.04142265630492 -165.0808256025306 507:1 521:1 1283:1 3200:1 3248:1 
-83.04142265630492 -372.2546529441948 136:1 468:1 848:1 2793:1 3200:1 
-83.04142265630492 -71.3392076918676 345:1 512:1 860:1 888:1 1122:1 1432:1 1655:1 1868:1 2089:1 3123:1 
-83.04142265630492 -0 2:1 451:1 512:1 845:1 849:1 860:1 929:1 1655:1 1868:1 2324:1 2577:1 2667:1 2924:1 
-83.04142265630492 -481.1079925009724 219:1 468:1 708:1 2737:1 2741:1 
-83.04142265630492 -262.6378905295659 93:1 451:1 512:1 849:1 1655:1 2577:1 
-83.04142265630492 -27.15904164667337 67:1 237:1 328:1 345:1 430:1 552:1 620:1 708:1 889:1 895:1 900:1 961:1 1430:1 1446:1 1666:1 1727:1 1731:1 1797:1 1803:1 1805:1 1812:1 1898:1 2099:1 2122:1 2172:1 2221:1 2324:1 2388:1 2667:1 2737:1 2797:1 2924:1 2996:1 3044:1 3072:1 3214:1 3257:1 3262:1 3375:1 3465:1 
-83.04142265630492 -151.352023043132 860:1 1134:1 1333:1 2953:1 3086:1 3116:1 3186:1 3200:1 
-83.04142265630492 -0 21:1 158:1 375:1 512:1 708:1 722:1 860:1 863:1 1233:1 2221:1 2326:1 2923:1 3200:1 3265:1 3338:1 
-83.04142265630492 -0 157:1 805:1 849:1 889:1 1043:1 1292:1 1859:1 1898:1 2304:1 2923:1 2944:1 2996:1 3184:1 3206:1 3265:1 3355:1 
-83.04142265630492 -212.8238301338026 44:1 451:1 512:1 1691:1 1898:1 1949:1 2172:1 2326:1 2577:1 2923:1 2953:1 3265:1 
-83.04142265630492 -358.0278596146985 173:1 219:1 690:1 708:1 1284:1 1981:1 2576:1 3313:1 
-83.04142265630492 -96.02484761944812 90:1 157:1 345:1 620:1 756:1 772:1 807:1 828:1 1202:1 1482:1 1521:1 1522:1 1666:1 1722:1 1725:1 2371:1 2667:1 2737:1 3022:1 3072:1 3187:1 3332:1 3449:1 3497:1 
-29.46863417761154 -0 79:1 90:1 105:1 246:1 326:1 440:1 468:1 484:1 493:1 605:1 686:1 890:1 1084:1 1351:1 1934:1 2071:1 2267:1 2332:1 2415:1 2644:1 2691:1 2774:1 2841:1 2857:1 2880:1 2894:1 3154:1 3188:1 3200:1 3257:1 3348:1 3501:1 
-83.04142265630492 -35.4077933699436 2:1 215:1 242:1 430:1 506:1 650:1 708:1 807:1 831:1 1122:1 1283:1 1949:1 2015:1 2112:1 2190:1 2326:1 2923:1 2953:1 3230:1 3265:1 
-83.04142265630492 -81.61247303907585 15:1 136:1 357:1 671:1 703:1 810:1 848:1 1254:1 1273:1 1398:1 1410:1 2392:1 2615:1 2779:1 2982:1 3032:1 3188:1 3248:1 3283:1 3314:1 
-83.04142265630492 -171.0193790036458 105:1 878:1 1216:1 1263:1 1594:1 1851:1 1857:1 2170:1 2172:1 2326:1 2467:1 2923:1 3023:1 3050:1 3257:1 3460:1 
-83.04142265630492 -139.8223679159574 345:1 385:1 791:1 851:1 860:1 1215:1 2606:1 3133:1 3184:1 3265:1 3460:1 
-83.04142265630492 -202.7332041399307 105:1 198:1 659:1 851:1 911:1 1474:1 1544:1 1805:1 2463:1 2961:1 3265:1 
-83.04142265630492 -205.9993296540525 158:1 292:1 547:1 620:1 670:1 831:1 1122:1 1202:1 1263:1 1432:1 1799:1 2014:1 2048:1 2117:1 2141:1 2616:1 2622:1 2633:1 2714:1 2979:1 2996:1 3056:1 3138:1 3197:1 3265:1 
-83.04142265630492 -205.2849972813776 219:1 1427:1 2097:1 2737:1 2880:1 3127:1 3327:1 3348:1 
-44.39903517106468 -12.19299564004415 10:1 134:1 158:1 304:1 330:1 395:1 412:1 460:1 480:1 500:1 584:1 620:1 759:1 807:1 1005:1 1047:1 1122:1 1248:1 1263:1 1346:1 1471:1 1562:1 1655:1 1733:1 1830:1 1851:1 1888:1 1999:1 2015:1 2082:1 2210:1 2326:1 2509:1 2538:1 2596:1 2667:1 2763:1 2781:1 2885:1 2889:1 2910:1 2916:1 2923:1 2996:1 3046:1 3056:1 3220:1 3261:1 3265:1 3322:1 3392:1 3442:1 3460:1 3518:1 
-83.04142265630492 -481.1079925009724 845:1 855:1 3200:1 
-83.04142265630492 -228.0283247509449 1133:1 1638:1 1641:1 2071:1 2615:1 3200:1 3338:1 
-83.04142265630492 -127.0319653148744 147:1 1096:1 1352:1 1378:1 1830:1 2646:1 2996:1 3200:1 3338:1 
-6.402047178676724 -0 165:1 292:1 345:1 386:1 411:1 451:1 512:1 631:1 803:1 841:1 878:1 897:1 943:1 1047:1 1122:1 1148:1 1208:1 1212:1 1283:1 1314:1 1376:1 1666:1 1694:1 1718:1 1719:1 1725:1 1733:1 1832:1 1922:1 1940:1 1949:1 2015:1 2072:1 2128:1 2141:1 2170:1 2174:1 2326:1 2371:1 2383:1 2700:1 2737:1 2755:1 2905:1 2923:1 2943:1 2971:1 3050:1 3058:1 3184:1 3246:1 3250:1 3257:1 3324:1 3372:1 
-83.04142265630492 -40.1993014794624 212:1 345:1 422:1 855:1 860:1 1122:1 1214:1 1628:1 1867:1 2326:1 2446:1 2538:1 2923:1 2934:1 3215:1 3257:1 3327:1 3489:1 
-8.684828010461178 -0 2:1 24:1 100:1 158:1 186:1 230:1 254:1 292:1 329:1 346:1 365:1 395:1 430:1 500:1 553:1 557:1 620:1 720:1 760:1 807:1 831:1 860:1 870:1 887:1 927:1 929:1 992:1 1122:1 1134:1 1155:1 1254:1 1263:1 1276:1 1283:1 1294:1 1296:1 1432:1 1564:1 1619:1 1713:1 1795:1 1821:1 1826:1 1940:1 1963:1 1988:1 2021:1 2024:1 2089:1 2091:1 2169:1 2245:1 2304:1 2363:1 2371:1 2426:1 2508:1 2594:1 2617:1 2643:1 2667:1 2692:1 2737:1 2781:1 2783:1 2845:1 2889:1 2923:1 2934:1 2953:1 2996:1 3023:1 3049:1 3230:1 3250:1 3296:1 3372:1 3396:1 
-83.04142265630492 -66.11216281043846 79:1 187:1 219:1 404:1 484:1 557:1 574:1 690:1 758:1 827:1 1121:1 1158:1 1284:1 1291:1 1583:1 1775:1 1783:1 2130:1 2641:1 2671:1 2814:1 3149:1 3318:1 
-83.04142265630492 -263.3525766675762 61:1 490:1 848:1 1035:1 1040:1 1121:1 1641:1 1802:1 2167:1 2307:1 2581:1 2737:1 2779:1 3188:1 3248:1 
-83.04142265630492 -0 363:1 451:1 708:1 946:1 1655:1 1863:1 2577:1 3518:1 
-83.04142265630492 -0 185:1 490:1 496:1 855:1 1041:1 1679:1 1862:1 2071:1 2131:1 2262:1 2577:1 2581:1 2609:1 2685:1 2691:1 2880:1 3127:1 3188:1 3245:1 3427:1 
-83.04142265630492 -117.243107739555 706:1 912:1 1404:1 1482:1 1655:1 2190:1 2445:1 2806:1 2923:1 2986:1 
-83.04142265630492 -97.56922902809815 2:1 35:1 158:1 198:1 381:1 708:1 840:1 860:1 900:1 927:1 952:1 1095:1 1134:1 1296:1 1619:1 2213:1 2476:1 2706:1 2953:1 2961:1 3265:1 3518:1 3523:1 
-83.04142265630492 -52.72362972428178 150:1 224:1 298:1 447:1 572:1 955:1 979:1 989:1 1051:1 1224:1 1227:1 1283:1 1795:1 1883:1 1904:1 1932:1 2037:1 2568:1 2850:1 2852:1 3052:1 3180:1 3250:1 
-83.04142265630492 -152.9498863280407 1863:1 1904:1 2055:1 2110:1 2111:1 2112:1 2590:1 2690:1 3102:1 3509:1 
-83.04142265630492 -245.7170718677023 404:1 1133:1 1275:1 1781:1 1815:1 2131:1 2332:1 3257:1 
-83.04142265630492 -202.9844570109439 116:1 451:1 1047:1 1214:1 1498:1 1555:1 2115:1 2577:1 2935:1 3020:1 
-83.04142265630492 -43.3926210835744 88:1 120:1 136:1 337:1 493:1 503:1 692:1 703:1 848:1 919:1 1023:1 1030:1 1133:1 1355:1 1396:1 1414:1 1638:1 1662:1 1707:1 1716:1 1798:1 2058:1 2123:1 2241:1 2282:1 2687:1 2857:1 2940:1 3305:1 3354:1 
-83.04142265630492 -223.0359290892142 62:1 147:1 161:1 322:1 1569:1 2249:1 2422:1 2508:1 2563:1 2676:1 3022:1 
-83.04142265630492 -0 185:1 490:1 496:1 855:1 1041:1 1679:1 1862:1 2071:1 2131:1 2262:1 2577:1 2581:1 2609:1 2685:1 2691:1 2880:1 3127:1 3188:1 3245:1 3427:1 
-83.04142265630492 -481.1079925009724 578:1 619:1 831:1 1612:1 2889:1 2923:1 2978:1 3444:1 
-83.04142265630492 -0 4:1 16:1 292:1 831:1 1134:1 1175:1 1291:1 1292:1 1361:1 1471:1 1863:1 2371:1 2564:1 2923:1 2996:1 3086:1 3184:1 3215:1 3484:1 
-55.66474541851117 -0 88:1 141:1 219:1 234:1 493:1 605:1 1032:1 1042:1 1255:1 1306:1 1863:1 1975:1 2006:1 2464:1 2737:1 2774:1 2814:1 3086:1 3245:1 3313:1 
-83.04142265630492 -390.6604945769908 155:1 681:1 887:1 1746:1 1998:1 2809:1 3175:1 
-83.04142265630492 -284.3126166035576 21:1 38:1 166:1 855:1 1383:1 1713:1 2737:1 3502:1 
-83.04142265630492 -198.7838299078218 496:1 516:1 545:1 639:1 686:1 806:1 2172:1 2180:1 2359:1 2366:1 2390:1 2464:1 2867:1 3149:1 3188:1 
-83.04142265630492 -52.5091040098574 2:1 68:1 242:1 304:1 346:1 347:1 350:1 574:1 807:1 831:1 964:1 991:1 1158:1 1202:1 1263:1 1288:1 1294:1 1522:1 1895:1 2135:1 2190:1 2245:1 2430:1 2889:1 2921:1 2953:1 2986:1 3057:1 3250:1 3257:1 3265:1 3398:1 3478:1 
-83.04142265630492 -26.8054130198099 79:1 88:1 516:1 578:1 601:1 866:1 1428:1 1579:1 1641:1 2097:1 2107:1 2577:1 2741:1 3127:1 3305:1 3318:1 3354:1 3465:1 
-83.04142265630492 -148.514691055074 228:1 260:1 367:1 860:1 1395:1 2021:1 2646:1 2799:1 2934:1 3184:1 3197:1 3499:1 
-83.04142265630492 -248.1231253271346 277:1 304:1 367:1 369:1 1122:1 1292:1 1863:1 1940:1 2135:1 2586:1 2783:1 2979:1 3489:1 3499:1 
-83.04142265630492 -98.03969750987757 21:1 485:1 540:1 803:1 1292:1 1395:1 1495:1 1863:1 1948:1 2334:1 2737:1 2806:1 2910:1 3262:1 3510:1 
-83.04142265630492 -0 941:1 1119:1 1292:1 1828:1 1863:1 1910:1 2158:1 2334:1 2506:1 3200:1 3203:1 3510:1 
-13.28123278982227 -0 304:1 346:1 492:1 522:1 573:1 703:1 721:1 807:1 835:1 860:1 861:1 912:1 944:1 1155:1 1176:1 1208:1 1294:1 1349:1 1432:1 1448:1 1482:1 1522:1 1572:1 1595:1 1655:1 1666:1 1818:1 1823:1 1895:1 2285:1 2304:1 2496:1 2532:1 2667:1 2706:1 2745:1 2781:1 2805:1 2845:1 2913:1 3200:1 3257:1 3327:1 3372:1 3523:1 
-83.04142265630492 -0 242:1 620:1 831:1 1134:1 1262:1 1283:1 1724:1 2889:1 3099:1 3182:1 3250:1 3257:1 
-83.04142265630492 -0 105:1 136:1 141:1 187:1 313:1 484:1 521:1 686:1 690:1 788:1 983:1 1213:1 1232:1 1783:1 2010:1 2737:1 3149:1 3200:1 3487:1 
-83.04142265630492 -107.5553458754214 136:1 139:1 184:1 331:1 337:1 490:1 495:1 496:1 521:1 599:1 686:1 993:1 1005:1 1037:1 1055:1 1074:1 1080:1 1133:1 1505:1 1588:1 1680:1 1787:1 1899:1 2172:1 2415:1 2734:1 2737:1 2909:1 3022:1 3084:1 3203:1 3268:1 3426:1 3455:1 3501:1 
-83.04142265630492 -120.6803449689532 61:1 105:1 128:1 605:1 1410:1 1679:1 1899:1 2332:1 2415:1 2576:1 2774:1 2871:1 3154:1 
-69.15705780919106 -71.74391006276038 187:1 193:1 324:1 490:1 522:1 539:1 551:1 557:1 578:1 783:1 871:1 1098:1 1221:1 1407:1 1578:1 1646:1 1719:1 1783:1 2097:1 2167:1 2267:1 2640:1 2671:1 2737:1 2793:1 2814:1 3022:1 3231:1 3348:1 
-72.16662226948701 -0 136:1 539:1 656:1 686:1 690:1 1098:1 1161:1 1185:1 1444:1 1578:1 1598:1 1863:1 2097:1 2143:1 2636:1 2672:1 2709:1 2814:1 2894:1 3079:1 3149:1 3188:1 3245:1 3465:1 
-83.04142265630492 -172.1084222811208 173:1 187:1 703:1 1098:1 1863:1 2466:1 2791:1 3258:1 3336:1 
-8.021774888442755 -0 158:1 278:1 345:1 346:1 500:1 638:1 874:1 887:1 1057:1 1134:1 1155:1 1200:1 1292:1 1353:1 1362:1 1432:1 1547:1 1654:1 1750:1 1761:1 1863:1 1988:1 2043:1 2070:1 2129:1 2297:1 2376:1 2509:1 2538:1 2671:1 2737:1 2748:1 2783:1 2979:1 2996:1 3048:1 3086:1 3184:1 3287:1 3523:1 
-83.04142265630492 -50.72564914768247 278:1 369:1 706:1 835:1 1521:1 1547:1 1812:1 1947:1 2245:1 2249:1 2923:1 2979:1 3317:1 
-28.94763737926127 -0 53:1 69:1 86:1 105:1 310:1 403:1 455:1 561:1 578:1 591:1 610:1 633:1 785:1 789:1 834:1 847:1 901:1 908:1 974:1 1027:1 1039:1 1109:1 1125:1 1165:1 1217:1 1239:1 1301:1 1372:1 1559:1 1582:1 1630:1 1882:1 1921:1 1924:1 1927:1 1956:1 2052:1 2092:1 2098:1 2169:1 2223:1 2319:1 2402:1 2407:1 2440:1 2531:1 2580:1 2587:1 2601:1 2840:1 2861:1 2995:1 3045:1 3174:1 3250:1 3275:1 3290:1 3360:1 3405:1 3468:1 3496:1 3522:1 
-83.04142265630492 -147.8999261965654 53:1 245:1 432:1 1039:1 1877:1 1882:1 1932:1 2098:1 2169:1 2208:1 2628:1 2682:1 3250:1 3317:1 3522:1 
-35.87794134464279 -0 39:1 300:1 304:1 367:1 370:1 390:1 400:1 452:1 460:1 490:1 720:1 721:1 802:1 803:1 837:1 900:1 964:1 1047:1 1208:1 1260:1 1306:1 1547:1 1660:1 1798:1 1804:1 1952:1 2001:1 2128:1 2129:1 2324:1 2334:1 2436:1 2516:1 2519:1 2523:1 2748:1 2750:1 2859:1 2923:1 2958:1 2979:1 2997:1 3124:1 3173:1 3233:1 3250:1 3257:1 3294:1 3324:1 3360:1 3421:1 3474:1 3499:1 
-83.04142265630492 -58.4214790466461 242:1 292:1 417:1 498:1 838:1 1122:1 1292:1 1378:1 1457:1 1600:1 1863:1 1913:1 2011:1 2015:1 2132:1 2190:1 2953:1 3192:1 3277:1 3340:1 3405:1 
-12.66429133399712 -0 35:1 407:1 578:1 675:1 703:1 803:1 966:1 1021:1 1134:1 1263:1 1292:1 1402:1 1595:1 1693:1 1863:1 2112:1 2120:1 2151:1 2209:1 2256:1 2335:1 2472:1 2519:1 2581:1 2737:1 2745:1 2782:1 3250:1 3257:1 3265:1 3360:1 3441:1 3521:1 
-3.721265042684382 -75.0054596383517 35:1 168:1 260:1 311:1 578:1 807:1 1292:1 1395:1 1457:1 1572:1 1600:1 1863:1 1894:1 1919:1 1980:1 2217:1 2242:1 2304:1 2472:1 2745:1 2806:1 2845:1 2923:1 3074:1 3197:1 3257:1 3372:1 3463:1 3497:1 
-31.38219111008871 -0 105:1 258:1 484:1 613:1 693:1 803:1 837:1 874:1 880:1 964:1 1027:1 1047:1 1122:1 1150:1 1208:1 1263:1 1361:1 1407:1 1444:1 1600:1 1737:1 1952:1 2043:1 2071:1 2129:1 2169:1 2369:1 2479:1 2519:1 2617:1 2851:1 2909:1 2933:1 2934:1 3012:1 3056:1 3103:1 3184:1 3250:1 3265:1 3287:1 3324:1 3402:1 3499:1 
-83.04142265630492 -256.7614466741368 278:1 1126:1 1292:1 1863:1 1947:1 3440:1 
-0.2595975716402888 -0 35:1 79:1 136:1 168:1 337:1 383:1 390:1 404:1 440:1 490:1 493:1 496:1 505:1 507:1 521:1 536:1 539:1 599:1 601:1 605:1 681:1 690:1 708:1 713:1 721:1 805:1 807:1 833:1 835:1 857:1 878:1 890:1 929:1 988:1 1036:1 1037:1 1055:1 1074:1 1156:1 1218:1 1220:1 1229:1 1247:1 1254:1 1258:1 1263:1 1275:1 1284:1 1291:1 1318:1 1353:1 1482:1 1574:1 1578:1 1595:1 1597:1 1641:1 1719:1 1768:1 1775:1 1787:1 1808:1 1810:1 1934:1 2067:1 2071:1 2119:1 2133:1 2233:1 2366:1 2398:1 2412:1 2464:1 2466:1 2516:1 2572:1 2615:1 2691:1 2706:1 2709:1 2737:1 2764:1 2767:1 2791:1 2857:1 2859:1 2880:1 2882:1 2894:1 2923:1 2979:1 2986:1 2996:1 3091:1 3252:1 3305:1 3390:1 3432:1 3447:1 3477:1 3489:1 3502:1 
-83.04142265630492 -159.620250259773 212:1 673:1 918:1 938:1 1202:1 1454:1 1826:1 2781:1 2872:1 2972:1 3033:1 3046:1 3265:1 3460:1 
-83.04142265630492 -55.56891401987184 19:1 223:1 323:1 395:1 1122:1 1200:1 1364:1 1379:1 1677:1 1971:1 2221:1 2363:1 2572:1 2594:1 2910:1 2996:1 3070:1 3184:1 3372:1 
-83.04142265630492 -344.8372550351847 408:1 522:1 2169:1 2394:1 2781:1 3250:1 3372:1 
-83.04142265630492 -271.1447346876496 2:1 242:1 578:1 684:1 748:1 1122:1 1202:1 1233:1 1283:1 1784:1 2135:1 2190:1 2221:1 2245:1 2277:1 2667:1 2923:1 3250:1 3257:1 3396:1 
-83.04142265630492 -0 2:1 426:1 912:1 964:1 1522:1 1654:1 1655:1 1750:1 2369:1 2923:1 2996:1 3499:1 
-83.04142265630492 -266.4706221364298 278:1 690:1 1283:1 1981:1 2172:1 2363:1 2764:1 2989:1 3265:1 
-83.04142265630492 -96.74754893992657 18:1 237:1 578:1 725:1 1150:1 1233:1 1393:1 1422:1 1572:1 1695:1 2212:1 2508:1 2527:1 2637:1 2857:1 3100:1 3502:1 
-83.04142265630492 -0 237:1 912:1 927:1 1122:1 1202:1 1263:1 1544:1 1565:1 1613:1 1655:1 1725:1 1826:1 2872:1 2923:1 3066:1 3265:1 
-83.04142265630492 -0 430:1 451:1 912:1 1655:1 2371:1 2577:1 2693:1 2872:1 2912:1 3268:1 
-9.279442379831282 -0 79:1 136:1 144:1 219:1 292:1 328:1 521:1 557:1 601:1 805:1 983:1 993:1 1039:1 1071:1 1074:1 1098:1 1393:1 1427:1 1496:1 1671:1 1723:1 1888:1 2088:1 2091:1 2167:1 2415:1 2466:1 2489:1 2521:1 2527:1 2634:1 2641:1 2711:1 2737:1 2779:1 2857:1 2909:1 2998:1 3002:1 3150:1 3250:1 3258:1 3318:1 
-83.04142265630492 -166.1500482685747 13:1 133:1 237:1 287:1 834:1 940:1 996:1 1203:1 1330:1 1374:1 1753:1 2147:1 2313:1 2380:1 3104:1 
-79.25056542159722 -28.3538154256032 18:1 158:1 228:1 237:1 292:1 430:1 620:1 684:1 703:1 855:1 880:1 980:1 983:1 1150:1 1263:1 1338:1 1982:1 1993:1 2082:1 2135:1 2203:1 2320:1 2326:1 2371:1 2509:1 2633:1 2634:1 2651:1 2781:1 2837:1 2839:1 2889:1 3064:1 3184:1 3224:1 3246:1 3327:1 3372:1 3445:1 
-83.04142265630492 -228.9999183690659 108:1 288:1 467:1 711:1 739:1 834:1 1543:1 1751:1 2127:1 2429:1 2478:1 3168:1 
-83.04142265630492 -59.13761420638829 237:1 430:1 912:1 927:1 1122:1 1202:1 1263:1 1565:1 1613:1 1619:1 1655:1 1826:1 2923:1 3066:1 3265:1 
-18.04042356052685 -0 2:1 101:1 242:1 266:1 422:1 512:1 803:1 860:1 912:1 1432:1 1473:1 1655:1 2083:1 2128:1 2141:1 2400:1 2438:1 2819:1 2845:1 2923:1 2979:1 2996:1 3082:1 3137:1 3143:1 3184:1 3215:1 3523:1 
-51.17500583037548 -79.19818158632611 289:1 292:1 508:1 703:1 861:1 912:1 928:1 1000:1 1005:1 1128:1 1134:1 1214:1 1523:1 1600:1 1619:1 1655:1 1689:1 1725:1 1816:1 1916:1 2169:1 2174:1 2426:1 2444:1 2538:1 2594:1 2693:1 2699:1 3005:1 3137:1 3184:1 3341:1 
-59.4456149299634 -67.4564395212788 221:1 300:1 414:1 611:1 655:1 837:1 912:1 1027:1 1087:1 1134:1 1391:1 1510:1 1655:1 2012:1 2056:1 2154:1 2352:1 2437:1 2442:1 2510:1 2611:1 2693:1 2752:1 2923:1 3008:1 3137:1 3467:1 
-83.04142265630492 -25.81636166834677 2:1 759:1 912:1 1009:1 1367:1 1407:1 1510:1 1655:1 1666:1 1733:1 2737:1 2996:1 3021:1 3126:1 3250:1 3341:1 
-83.04142265630492 -104.5641280709611 158:1 266:1 807:1 912:1 1122:1 1243:1 1263:1 1447:1 1655:1 1907:1 2141:1 2360:1 2400:1 2910:1 3005:1 3086:1 3098:1 3413:1 
-28.94933112620323 -0 2:1 512:1 578:1 659:1 912:1 1292:1 1533:1 1655:1 1940:1 2128:1 2443:1 2631:1 3215:1 3265:1 3445:1 3478:1 3499:1 
-30.5971369047979 -0 147:1 158:1 242:1 255:1 260:1 300:1 304:1 388:1 422:1 451:1 522:1 578:1 605:1 618:1 620:1 703:1 803:1 823:1 831:1 840:1 927:1 952:1 1047:1 1055:1 1134:1 1176:1 1209:1 1263:1 1272:1 1300:1 1378:1 1501:1 1511:1 1531:1 1678:1 1722:1 1826:1 1887:1 1940:1 2011:1 2013:1 2135:1 2172:1 2174:1 2245:1 2371:1 2425:1 2577:1 2652:1 2667:1 2695:1 2723:1 2745:1 2781:1 2885:1 2923:1 2926:1 2934:1 2953:1 2996:1 3005:1 3008:1 3050:1 3086:1 3121:1 3134:1 3197:1 3265:1 3287:1 3372:1 3396:1 3470:1 
-83.04142265630492 -0 849:1 1095:1 1134:1 1966:1 2023:1 2476:1 2667:1 2781:1 2857:1 2889:1 2923:1 2996:1 3257:1 
-69.62093992434666 -0 11:1 136:1 158:1 187:1 192:1 557:1 840:1 952:1 1055:1 1095:1 1122:1 1521:1 1775:1 1940:1 2023:1 2342:1 2476:1 2639:1 2973:1 3184:1 3265:1 3287:1 
-83.04142265630492 -0 15:1 521:1 611:1 783:1 890:1 1095:1 1863:1 2726:1 2737:1 3245:1 
-83.04142265630492 -195.600505219443 88:1 496:1 521:1 890:1 1427:1 2464:1 3065:1 3245:1 3257:1 3427:1 
-22.64414926704307 -0 139:1 167:1 344:1 493:1 521:1 599:1 611:1 618:1 794:1 973:1 1035:1 1072:1 1095:1 1221:1 1645:1 1845:1 1863:1 2260:1 2527:1 2881:1 2886:1 2895:1 2898:1 3022:1 3116:1 3188:1 3245:1 3268:1 3426:1 3427:1 
-83.04142265630492 -0 84:1 105:1 320:1 451:1 654:1 849:1 1619:1 1655:1 1868:1 2577:1 2706:1 2737:1 2953:1 
-83.04142265630492 -155.7896130010639 474:1 512:1 1233:1 1263:1 1441:1 1655:1 2413:1 2737:1 3023:1 3201:1 
-26.71366338938357 -0 105:1 108:1 345:1 359:1 383:1 460:1 620:1 910:1 932:1 1122:1 1134:1 1292:1 1441:1 1737:1 1804:1 1805:1 1989:1 2011:1 2032:1 2138:1 2371:1 2418:1 2633:1 2667:1 2737:1 2748:1 2755:1 2762:1 2783:1 2827:1 2923:1 3033:1 3121:1 3123:1 3257:1 3405:1 
-83.04142265630492 -481.1079925009724 500:1 620:1 984:1 2070:1 2726:1 
-83.04142265630492 -237.3433945548221 287:1 1095:1 1904:1 2077:1 2577:1 3202:1 3436:1 
-31.06569948412857 -0 13:1 46:1 119:1 142:1 245:1 287:1 299:1 304:1 341:1 380:1 410:1 522:1 569:1 586:1 667:1 808:1 834:1 855:1 909:1 979:1 1051:1 1122:1 1168:1 1192:1 1281:1 1283:1 1298:1 1301:1 1506:1 1549:1 1631:1 1705:1 1863:1 1867:1 1871:1 1954:1 2005:1 2127:1 2172:1 2198:1 2201:1 2208:1 2402:1 2409:1 2459:1 2492:1 2601:1 2671:1 2852:1 2922:1 2956:1 2959:1 3013:1 3027:1 3028:1 3102:1 3113:1 3144:1 3171:1 3183:1 3327:1 3337:1 3356:1 3358:1 3399:1 3405:1 3422:1 
-26.12117127106921 -0 320:1 346:1 634:1 652:1 807:1 964:1 1095:1 1292:1 1314:1 1863:1 1893:1 2023:1 2476:1 2594:1 2953:1 3106:1 3317:1 3497:1 
-83.04142265630492 -153.1315612370996 430:1 807:1 964:1 1018:1 1095:1 1202:1 1372:1 1393:1 1729:1 1940:1 2023:1 2445:1 2476:1 2953:1 3257:1 3404:1 
-39.85411209603433 -0 105:1 260:1 292:1 320:1 620:1 708:1 807:1 835:1 926:1 929:1 975:1 1095:1 1654:1 1678:1 1722:1 1804:1 1940:1 1981:1 2023:1 2172:1 2476:1 2737:1 2783:1 2953:1 3047:1 3257:1 3372:1 
-83.04142265630492 -0 63:1 451:1 952:1 1292:1 1432:1 1725:1 1733:1 1863:1 1940:1 2477:1 2577:1 3020:1 3135:1 3449:1 
-83.04142265630492 -481.1079925009724 807:1 1058:1 1437:1 2726:1 3237:1 
-83.04142265630492 -481.1079925009724 136:1 503:1 671:1 2779:1 
-72.55567495459289 -92.9240908382332 158:1 247:1 329:1 480:1 652:1 803:1 1095:1 1122:1 1134:1 1300:1 1327:1 1346:1 1678:1 1940:1 2023:1 2371:1 2476:1 2508:1 2581:1 2667:1 2917:1 2923:1 2979:1 3123:1 3291:1 
-83.04142265630492 -0 157:1 831:1 984:1 1005:1 1122:1 1666:1 1689:1 1725:1 1940:1 2177:1 2371:1 2508:1 2692:1 2996:1 
-83.04142265630492 -363.8191460053141 304:1 420:1 807:1 964:1 1104:1 1134:1 1150:1 1176:1 1432:1 1521:1 1647:1 1654:1 2440:1 2581:1 3214:1 3303:1 3518:1 3521:1 
-83.04142265630492 -298.9241845977193 157:1 620:1 966:1 1285:1 
-83.04142265630492 -110.5998664128987 35:1 157:1 537:1 620:1 725:1 927:1 975:1 1202:1 1268:1 1353:1 1616:1 1725:1 1830:1 1842:1 1846:1 2034:1 2141:1 2446:1 2475:1 2603:1 2667:1 2692:1 2737:1 2902:1 3220:1 
-68.54112072276834 -0 157:1 395:1 512:1 652:1 721:1 964:1 1134:1 1940:1 2443:1 2633:1 2692:1 2923:1 3138:1 3499:1 
-62.26432182082826 -0 2:1 20:1 90:1 292:1 304:1 451:1 574:1 612:1 620:1 677:1 807:1 913:1 1096:1 1150:1 1263:1 1482:1 1500:1 1678:1 1725:1 1750:1 2000:1 2089:1 2169:1 2245:1 2249:1 2269:1 2577:1 2667:1 2670:1 2676:1 2737:1 2845:1 2885:1 3250:1 3393:1 3523:1 
-8.737847608204678 -30.39496819131497 35:1 157:1 242:1 329:1 375:1 451:1 677:1 723:1 899:1 1005:1 1150:1 1176:1 1233:1 1263:1 1281:1 1300:1 1457:1 1600:1 1725:1 1821:1 1829:1 2093:1 2135:1 2172:1 2245:1 2337:1 2667:1 2692:1 2745:1 2783:1 2806:1 2845:1 2923:1 2953:1 2988:1 2996:1 3250:1 3265:1 3300:1 3338:1 3393:1 3481:1 3497:1 
-83.04142265630492 -54.57322852429321 27:1 651:1 878:1 1292:1 1795:1 1863:1 2166:1 2737:1 2923:1 2927:1 3198:1 3380:1 3523:1 
-83.04142265630492 -481.1079925009724 1083:1 1220:1 1805:1 2089:1 2806:1 3265:1 
-83.04142265630492 -83.32905680912336 202:1 807:1 1011:1 1083:1 1606:1 2806:1 2845:1 2923:1 3499:1 
-83.04142265630492 -223.6346921473342 20:1 243:1 913:1 1134:1 1615:1 1817:1 1844:1 2091:1 2374:1 2494:1 2724:1 2806:1 2809:1 2912:1 2923:1 3056:1 3523:1 
-0 -57.2560225505717 2:1 157:1 161:1 202:1 304:1 345:1 578:1 660:1 720:1 932:1 1150:1 1263:1 1333:1 1348:1 1432:1 1457:1 1494:1 1600:1 1725:1 1853:1 2015:1 2369:1 2586:1 2667:1 2737:1 2752:1 2792:1 2806:1 2986:1 2996:1 3008:1 3022:1 3056:1 3115:1 3151:1 3184:1 3251:1 3257:1 3300:1 3449:1 3471:1 3497:1 
-22.3060759415483 -44.31869491427232 35:1 211:1 320:1 484:1 516:1 584:1 675:1 851:1 857:1 876:1 929:1 1150:1 1333:1 1412:1 1457:1 1471:1 1482:1 1500:1 1545:1 1616:1 1639:1 1654:1 1788:1 1988:1 1989:1 2000:1 2014:1 2015:1 2249:1 2324:1 2326:1 2526:1 2594:1 2676:1 2748:1 2785:1 2792:1 2806:1 2889:1 2923:1 2924:1 3100:1 3184:1 3208:1 3215:1 3329:1 
-40.2311458563351 -87.29479567614158 165:1 260:1 328:1 345:1 355:1 395:1 430:1 451:1 578:1 620:1 840:1 851:1 870:1 964:1 1208:1 1333:1 1352:1 1450:1 1457:1 1474:1 1545:1 1666:1 1722:1 1725:1 1748:1 1779:1 1810:1 1826:1 1940:1 1988:1 2011:1 2049:1 2128:1 2141:1 2172:1 2176:1 2304:1 2326:1 2369:1 2371:1 2577:1 2677:1 2792:1 2845:1 2872:1 2893:1 2923:1 3257:1 3265:1 3327:1 3352:1 3421:1 3502:1 3523:1 
-83.04142265630492 -481.1079925009724 157:1 
-83.04142265630492 -481.1079925009724 157:1 2692:1 
-83.04142265630492 -337.5776361342967 157:1 1150:1 2692:1 
-83.04142265630492 -0 77:1 157:1 165:1 703:1 964:1 2692:1 2899:1 3184:1 
-83.04142265630492 -481.1079925009724 202:1 390:1 2802:1 2806:1 
