svm_type nu_svc
kernel_type rbf
gamma 0.000800641
nr_class 2
total_sv 320
rho -2.29136
label 0 1
nr_sv 218 102
SV
164.5829695214306 413:1 
69.9522037438187 124:1 126:1 262:1 609:1 778:1 823:1 894:1 977:1 986:1 1050:1 1103:1 1158:1 1244:1 
83.35030574120378 100:1 209:1 747:1 814:1 906:1 939:1 1177:1 
99.59787740471749 499:1 701:1 910:1 986:1 1089:1 1130:1 1139:1 1201:1 
78.94648901245183 9:1 117:1 420:1 465:1 524:1 574:1 763:1 873:1 1082:1 1103:1 1197:1 
152.9564406168425 301:1 603:1 
587.6649173052841 430:1 444:1 752:1 810:1 828:1 
159.4234788611866 72:1 
78.94347123099054 405:1 1158:1 1160:1 
112.2790402777848 316:1 430:1 860:1 951:1 1085:1 1118:1 
389.3951358413196 149:1 1124:1 
148.8709452424605 291:1 510:1 
233.2684849234016 1217:1 
184.7879369885846 165:1 242:1 435:1 442:1 480:1 495:1 580:1 692:1 1017:1 1081:1 1142:1 1206:1 
234.0563654868532 1153:1 
10.91831322358791 55:1 70:1 383:1 416:1 615:1 869:1 1208:1 
111.3632417616604 440:1 588:1 646:1 
64.71877577578448 262:1 279:1 685:1 1009:1 
126.1620976551837 31:1 225:1 493:1 716:1 1016:1 1158:1 1233:1 
1.937245761794547 31:1 716:1 760:1 1016:1 
128.1933954706265 1176:1 
48.66046018250793 316:1 420:1 613:1 615:1 778:1 894:1 931:1 938:1 977:1 1039:1 1085:1 1201:1 
256.5741454942616 88:1 100:1 363:1 1039:1 1085:1 
33.75114028097141 202:1 483:1 905:1 
805.4627075642704 235:1 408:1 456:1 
16.27423968402871 105:1 465:1 492:1 906:1 995:1 1016:1 
79.38969937947259 110:1 310:1 614:1 694:1 846:1 892:1 
146.8990592079766 795:1 909:1 
154.5986254855907 903:1 
339.1960667060622 171:1 
187.6352944259636 469:1 
32.72020456790111 23:1 28:1 115:1 119:1 170:1 232:1 398:1 584:1 838:1 881:1 
115.306530088873 134:1 162:1 292:1 449:1 537:1 721:1 747:1 844:1 1068:1 1069:1 1096:1 1158:1 1193:1 1202:1 
28.48240273112681 190:1 284:1 334:1 505:1 537:1 721:1 763:1 942:1 987:1 988:1 1129:1 1138:1 1245:1 
204.1905640298317 802:1 828:1 
84.70427625453252 31:1 91:1 150:1 190:1 266:1 295:1 302:1 316:1 444:1 449:1 476:1 513:1 540:1 615:1 841:1 855:1 1065:1 1154:1 
126.2334720424933 86:1 183:1 306:1 316:1 336:1 359:1 448:1 901:1 951:1 1039:1 1086:1 1158:1 1214:1 
131.8280327347265 118:1 262:1 465:1 473:1 743:1 806:1 961:1 1039:1 1087:1 1182:1 
25.58952045615265 162:1 225:1 294:1 298:1 306:1 353:1 394:1 465:1 544:1 554:1 576:1 590:1 747:1 764:1 795:1 827:1 882:1 903:1 1033:1 1085:1 1092:1 1096:1 1158:1 1171:1 1182:1 1201:1 1214:1 
283.9210153121057 228:1 258:1 306:1 948:1 984:1 
260.706290146803 160:1 277:1 585:1 840:1 1113:1 
363.4761799280876 54:1 472:1 739:1 992:1 1027:1 1053:1 1235:1 
245.6286440994754 92:1 106:1 232:1 249:1 294:1 398:1 489:1 827:1 937:1 1109:1 1154:1 1201:1 
90.26303552105855 1124:1 1126:1 
90.49140867152084 130:1 386:1 416:1 444:1 506:1 666:1 691:1 701:1 1034:1 1220:1 
914.3222594428314 228:1 258:1 306:1 948:1 
56.31086488102031 86:1 120:1 310:1 325:1 452:1 489:1 539:1 653:1 701:1 763:1 1026:1 1201:1 1238:1 
142.6733372456582 612:1 616:1 670:1 758:1 924:1 948:1 977:1 1074:1 1090:1 1188:1 
80.73291314321456 42:1 421:1 549:1 851:1 1025:1 1136:1 
682.2025048347051 258:1 
96.44734913936611 43:1 89:1 428:1 429:1 655:1 699:1 758:1 904:1 1156:1 1209:1 1216:1 1234:1 1235:1 
285.4464720894498 298:1 965:1 1085:1 1158:1 1233:1 
34.56230518427445 10:1 86:1 232:1 648:1 715:1 719:1 763:1 813:1 891:1 911:1 1134:1 
94.35576287693073 109:1 209:1 292:1 359:1 373:1 405:1 465:1 482:1 579:1 778:1 839:1 877:1 977:1 989:1 1034:1 1156:1 1157:1 1158:1 1237:1 
256.9140259203397 608:1 675:1 681:1 977:1 
109.6579576329301 144:1 344:1 674:1 868:1 1053:1 1195:1 
138.0902775967338 18:1 
886.3128539792597 294:1 
240.4092279460436 74:1 286:1 414:1 634:1 948:1 976:1 1026:1 
114.013807368613 583:1 
22.11202096225146 13:1 104:1 117:1 123:1 126:1 146:1 147:1 163:1 166:1 177:1 209:1 210:1 211:1 253:1 261:1 280:1 292:1 294:1 324:1 330:1 346:1 381:1 416:1 420:1 444:1 449:1 456:1 465:1 473:1 474:1 476:1 477:1 485:1 500:1 529:1 550:1 551:1 561:1 563:1 579:1 593:1 611:1 630:1 647:1 657:1 763:1 827:1 866:1 886:1 887:1 921:1 951:1 962:1 970:1 977:1 994:1 1039:1 1053:1 1062:1 1065:1 1072:1 1073:1 1123:1 1158:1 1176:1 1177:1 1180:1 1220:1 
104.667415516315 109:1 272:1 429:1 596:1 682:1 740:1 886:1 936:1 939:1 1091:1 1165:1 1177:1 
163.5755698571619 106:1 252:1 258:1 306:1 307:1 316:1 385:1 429:1 447:1 449:1 456:1 465:1 474:1 511:1 537:1 585:1 589:1 685:1 704:1 899:1 1036:1 1039:1 1048:1 1051:1 1096:1 1154:1 1163:1 1201:1 1229:1 
214.3800939334335 150:1 699:1 761:1 924:1 965:1 1177:1 
107.3817707396496 117:1 185:1 186:1 507:1 509:1 513:1 763:1 786:1 988:1 1053:1 1154:1 1158:1 1164:1 
126.2689838206762 263:1 951:1 1039:1 
96.76198265015569 266:1 365:1 525:1 852:1 1046:1 1062:1 1092:1 1202:1 1205:1 1233:1 
232.9602091892094 104:1 123:1 294:1 363:1 444:1 461:1 465:1 763:1 1075:1 
25.75229742007449 1:1 78:1 87:1 106:1 170:1 175:1 209:1 214:1 224:1 225:1 238:1 249:1 261:1 302:1 335:1 372:1 420:1 449:1 455:1 473:1 494:1 499:1 501:1 524:1 563:1 582:1 593:1 614:1 616:1 621:1 649:1 685:1 689:1 716:1 778:1 781:1 843:1 891:1 921:1 928:1 932:1 948:1 958:1 977:1 1000:1 1039:1 1092:1 1096:1 1133:1 1138:1 1177:1 1187:1 1202:1 1234:1 1235:1 1237:1 
75.2503483060777 766:1 
121.362805919725 44:1 106:1 224:1 1039:1 
187.2053436876355 106:1 144:1 247:1 410:1 629:1 744:1 759:1 795:1 1190:1 1218:1 
195.9836454779532 58:1 778:1 1179:1 
150.5705737605532 213:1 262:1 967:1 1046:1 
161.4903015778061 167:1 210:1 253:1 418:1 1071:1 1241:1 
174.7470897355618 562:1 1183:1 1202:1 1246:1 
710.7274620812738 209:1 452:1 474:1 1031:1 1228:1 
65.04107973903356 31:1 225:1 246:1 262:1 299:1 311:1 449:1 743:1 763:1 764:1 794:1 918:1 1015:1 1039:1 1158:1 1182:1 1201:1 
218.5245243077316 106:1 293:1 414:1 648:1 700:1 1123:1 
277.9323997944238 414:1 462:1 574:1 700:1 1152:1 
154.4112983022071 1:1 70:1 100:1 106:1 119:1 173:1 189:1 217:1 275:1 319:1 404:1 414:1 419:1 611:1 616:1 617:1 700:1 747:1 811:1 838:1 881:1 1015:1 1018:1 1099:1 1100:1 1127:1 1152:1 1175:1 1212:1 
148.6598231761437 78:1 100:1 500:1 551:1 708:1 977:1 1039:1 1085:1 1156:1 1224:1 
228.0709718840026 659:1 701:1 747:1 1158:1 1224:1 
218.34915854493 48:1 596:1 951:1 1039:1 
357.1584112747011 175:1 262:1 444:1 537:1 619:1 671:1 763:1 1180:1 
220.083372376922 262:1 294:1 425:1 827:1 911:1 942:1 966:1 1039:1 
497.5398640409435 844:1 951:1 1039:1 1085:1 1214:1 
473.4210974918121 225:1 297:1 416:1 1225:1 
142.3774761751269 459:1 
214.237038979323 659:1 1202:1 
151.0248998352879 85:1 261:1 262:1 294:1 316:1 485:1 596:1 659:1 672:1 677:1 705:1 747:1 778:1 976:1 998:1 1026:1 1039:1 1050:1 1092:1 1202:1 1235:1 1238:1 1244:1 
55.68603523830091 262:1 1188:1 1202:1 1244:1 
77.70893004532262 49:1 
316.2654108902281 65:1 494:1 537:1 552:1 721:1 754:1 1062:1 1202:1 
26.9700750139291 157:1 177:1 465:1 615:1 659:1 778:1 995:1 1180:1 1195:1 1202:1 1224:1 
202.3684954141691 23:1 32:1 48:1 127:1 354:1 419:1 611:1 743:1 920:1 1015:1 1024:1 
61.73093562814471 9:1 126:1 144:1 233:1 270:1 444:1 763:1 977:1 
60.9453901762961 82:1 657:1 690:1 977:1 1180:1 
100.6586561624022 59:1 359:1 369:1 467:1 529:1 605:1 763:1 786:1 1050:1 1053:1 1132:1 1199:1 
551.5840103277521 492:1 1023:1 
141.8283475015778 102:1 670:1 
464.902992849687 63:1 218:1 600:1 
143.6714827081471 346:1 778:1 1021:1 1115:1 
435.7239286042813 86:1 611:1 778:1 951:1 1158:1 
108.859551878561 639:1 
107.6838267974845 44:1 96:1 311:1 483:1 565:1 1055:1 
214.1808730766575 253:1 383:1 465:1 1016:1 1039:1 1100:1 1131:1 1158:1 1231:1 
146.284060232702 29:1 288:1 994:1 
70.48328255173816 745:1 
9.557692612310433 12:1 31:1 46:1 57:1 91:1 96:1 100:1 106:1 117:1 157:1 163:1 200:1 209:1 214:1 225:1 238:1 262:1 268:1 283:1 288:1 290:1 292:1 295:1 298:1 302:1 305:1 311:1 346:1 347:1 363:1 369:1 399:1 404:1 420:1 422:1 433:1 443:1 465:1 477:1 486:1 491:1 497:1 503:1 513:1 521:1 522:1 537:1 539:1 561:1 579:1 587:1 593:1 611:1 615:1 621:1 643:1 648:1 650:1 699:1 710:1 714:1 719:1 747:1 750:1 787:1 791:1 793:1 826:1 827:1 841:1 886:1 887:1 898:1 913:1 956:1 961:1 977:1 991:1 1026:1 1039:1 1041:1 1061:1 1073:1 1081:1 1092:1 1108:1 1124:1 1129:1 1130:1 1132:1 1144:1 1147:1 1158:1 1165:1 1176:1 1193:1 1199:1 1244:1 1245:1 1246:1 
201.5976882324979 99:1 435:1 815:1 1120:1 
511.2582512747978 951:1 1062:1 1202:1 
150.1202107464031 13:1 90:1 91:1 280:1 433:1 505:1 594:1 1026:1 
54.65752944535601 890:1 1004:1 1039:1 
145.7452311725893 406:1 1092:1 1202:1 
66.45024418887618 126:1 172:1 283:1 386:1 467:1 865:1 
353.1337876727412 13:1 326:1 604:1 651:1 699:1 764:1 992:1 
83.50521950327786 108:1 113:1 243:1 255:1 415:1 916:1 977:1 992:1 1022:1 1217:1 
65.09225791979642 189:1 255:1 300:1 778:1 1015:1 
145.7036107489065 307:1 361:1 465:1 499:1 703:1 791:1 828:1 1097:1 
207.3689844394801 236:1 605:1 
199.201163524872 87:1 262:1 416:1 615:1 659:1 703:1 716:1 921:1 1181:1 1202:1 
177.4960962712834 77:1 654:1 894:1 986:1 
292.9445424485754 35:1 209:1 249:1 381:1 565:1 
104.6817846164119 14:1 93:1 225:1 329:1 363:1 454:1 616:1 770:1 855:1 1053:1 
249.1027249962726 1:1 43:1 149:1 420:1 572:1 868:1 1039:1 1155:1 
374.2125062331278 31:1 698:1 703:1 1181:1 
234.7158476604625 12:1 74:1 249:1 304:1 465:1 496:1 524:1 648:1 683:1 793:1 827:1 918:1 1039:1 1096:1 1202:1 
328.3999729631334 7:1 253:1 262:1 380:1 446:1 608:1 868:1 990:1 1180:1 1202:1 1244:1 
62.4909886480594 99:1 100:1 104:1 106:1 132:1 140:1 199:1 253:1 273:1 303:1 380:1 513:1 570:1 629:1 680:1 770:1 778:1 805:1 974:1 1180:1 
120.5671032426897 100:1 106:1 190:1 203:1 262:1 399:1 444:1 465:1 512:1 550:1 562:1 764:1 977:1 1075:1 1085:1 1108:1 1177:1 1231:1 1246:1 
272.3514192641963 57:1 
132.3886983792997 915:1 
34.77615867920807 157:1 703:1 786:1 852:1 936:1 
87.09177508520655 209:1 290:1 827:1 1109:1 
243.235669673325 57:1 420:1 641:1 778:1 863:1 
97.09495703585219 1136:1 1173:1 
385.0059835099137 874:1 
115.670140067439 112:1 153:1 225:1 262:1 294:1 331:1 363:1 444:1 461:1 473:1 474:1 511:1 593:1 604:1 615:1 654:1 685:1 699:1 758:1 827:1 865:1 868:1 886:1 951:1 970:1 977:1 1050:1 1053:1 1062:1 1089:1 1106:1 1111:1 1202:1 1235:1 1244:1 
217.8935410798188 653:1 679:1 1173:1 
56.77037825281162 100:1 241:1 263:1 316:1 344:1 357:1 449:1 465:1 593:1 623:1 670:1 824:1 977:1 988:1 1039:1 1074:1 1092:1 1097:1 1202:1 1227:1 1235:1 
98.92520421300509 57:1 345:1 576:1 584:1 590:1 654:1 818:1 958:1 1024:1 1177:1 
79.92248694956969 145:1 207:1 249:1 316:1 424:1 576:1 616:1 747:1 
86.72217230441014 264:1 1174:1 
34.95354251286437 301:1 422:1 472:1 488:1 581:1 868:1 1012:1 1013:1 1224:1 
397.8313865644939 646:1 868:1 1158:1 
302.7747734725729 590:1 1046:1 
158.6683886811696 152:1 261:1 441:1 948:1 1083:1 1166:1 1177:1 
252.1883962466119 109:1 112:1 147:1 149:1 157:1 163:1 261:1 381:1 499:1 868:1 1158:1 1205:1 1235:1 
164.5829695214197 730:1 
91.68282673451593 86:1 149:1 225:1 239:1 416:1 656:1 951:1 974:1 1068:1 1177:1 
127.8735309202082 262:1 360:1 465:1 563:1 674:1 688:1 744:1 969:1 1180:1 
43.08266373644075 98:1 953:1 1015:1 1196:1 
428.8653093543239 1073:1 
52.93881440039621 64:1 225:1 258:1 262:1 320:1 717:1 778:1 870:1 916:1 957:1 1148:1 1184:1 
192.0514352448988 56:1 715:1 
54.08251158005606 30:1 51:1 107:1 382:1 463:1 477:1 686:1 699:1 701:1 704:1 763:1 860:1 942:1 954:1 1001:1 1072:1 1092:1 1177:1 1180:1 1201:1 
19.86039640100043 23:1 48:1 64:1 85:1 170:1 174:1 209:1 377:1 401:1 412:1 472:1 584:1 661:1 697:1 761:1 778:1 851:1 908:1 912:1 920:1 957:1 979:1 1006:1 1014:1 1127:1 1128:1 1153:1 1175:1 1180:1 1210:1 
83.37245694240568 9:1 420:1 476:1 
69.09400771960151 420:1 593:1 1001:1 1107:1 1158:1 
76.30854726667657 48:1 119:1 262:1 265:1 851:1 875:1 908:1 931:1 1127:1 
83.02062492823309 256:1 285:1 542:1 688:1 784:1 924:1 932:1 1059:1 1230:1 
101.5705120810497 9:1 77:1 106:1 278:1 290:1 541:1 764:1 809:1 885:1 1039:1 1066:1 1164:1 1180:1 1235:1 
271.2004134040873 30:1 262:1 
94.43286835182721 55:1 116:1 
145.0370859210613 26:1 262:1 265:1 1032:1 
41.75852811030971 135:1 280:1 335:1 545:1 896:1 943:1 1046:1 1140:1 1148:1 1189:1 
163.3455439174474 107:1 262:1 860:1 1087:1 
240.9825887321659 710:1 799:1 
190.8021473934722 332:1 560:1 
83.26494041601754 248:1 353:1 749:1 806:1 816:1 972:1 993:1 1180:1 
116.9643849911558 806:1 983:1 
87.86965623595007 182:1 339:1 481:1 653:1 1056:1 
23.30765041812386 15:1 209:1 256:1 262:1 356:1 420:1 436:1 522:1 611:1 701:1 704:1 778:1 795:1 841:1 1128:1 1236:1 
321.6148281440533 748:1 
46.9504905538428 41:1 187:1 209:1 253:1 318:1 396:1 420:1 433:1 434:1 511:1 655:1 749:1 777:1 783:1 887:1 970:1 973:1 1039:1 
30.47381486985261 106:1 284:1 551:1 576:1 590:1 623:1 701:1 827:1 885:1 889:1 951:1 988:1 1023:1 1057:1 1081:1 1085:1 1092:1 1128:1 1138:1 
289.6029764698872 53:1 467:1 497:1 593:1 
62.92897739380579 61:1 933:1 
295.5533439300939 47:1 128:1 
63.47981764948156 748:1 892:1 1011:1 1053:1 1236:1 
125.8707254271468 620:1 653:1 1023:1 1140:1 
42.24695364008203 9:1 101:1 262:1 328:1 353:1 402:1 650:1 653:1 677:1 738:1 763:1 821:1 881:1 1001:1 1085:1 
32.74245621665182 124:1 193:1 593:1 946:1 993:1 1139:1 1233:1 
152.2323665629231 318:1 418:1 654:1 778:1 789:1 821:1 858:1 1192:1 1207:1 1247:1 
415.3774633833187 1136:1 1215:1 
54.84026947115341 22:1 223:1 352:1 356:1 769:1 821:1 1124:1 1152:1 1197:1 1237:1 1247:1 
15.95644583963653 27:1 88:1 117:1 145:1 282:1 295:1 325:1 363:1 365:1 429:1 444:1 456:1 465:1 474:1 489:1 491:1 493:1 576:1 579:1 590:1 622:1 701:1 703:1 733:1 779:1 827:1 920:1 923:1 951:1 955:1 965:1 977:1 1018:1 1074:1 1085:1 1130:1 1164:1 1193:1 
22.42605918343161 1:1 9:1 91:1 157:1 190:1 192:1 193:1 239:1 281:1 292:1 314:1 318:1 338:1 345:1 381:1 402:1 420:1 465:1 615:1 621:1 760:1 763:1 778:1 786:1 887:1 988:1 1068:1 1093:1 1180:1 1198:1 
119.2883576980671 678:1 728:1 921:1 
174.0994656079864 53:1 251:1 465:1 467:1 555:1 578:1 650:1 703:1 976:1 1021:1 1039:1 1227:1 
242.6589547336801 735:1 841:1 951:1 1085:1 
134.733777926762 723:1 
62.90256328646691 78:1 106:1 117:1 123:1 163:1 225:1 238:1 288:1 292:1 302:1 311:1 312:1 316:1 365:1 383:1 388:1 416:1 420:1 444:1 447:1 476:1 551:1 559:1 616:1 674:1 694:1 704:1 857:1 1009:1 1010:1 1091:1 1092:1 1130:1 1199:1 1201:1 1233:1 
380.9326352975054 117:1 532:1 596:1 986:1 1039:1 1089:1 1150:1 1180:1 1244:1 
87.48367880465423 170:1 209:1 340:1 584:1 1024:1 
50.6757533874975 31:1 179:1 625:1 662:1 1112:1 
26.96447674923568 598:1 636:1 764:1 923:1 978:1 1050:1 1053:1 1092:1 1112:1 1180:1 
8.564429167323055 57:1 106:1 122:1 298:1 381:1 416:1 558:1 684:1 763:1 768:1 832:1 986:1 1034:1 1039:1 1053:1 
42.35920266418052 558:1 883:1 
139.6885452407186 782:1 928:1 
25.25211968664804 145:1 261:1 294:1 330:1 364:1 473:1 511:1 554:1 599:1 641:1 825:1 963:1 1049:1 1053:1 1059:1 1168:1 1180:1 1244:1 
96.35720719348632 55:1 366:1 543:1 625:1 
180.9622029989688 36:1 227:1 363:1 767:1 929:1 
59.56377468294076 796:1 1185:1 
33.67250740196079 36:1 254:1 267:1 365:1 511:1 599:1 671:1 693:1 778:1 
14.32076936042905 9:1 13:1 31:1 316:1 318:1 381:1 456:1 465:1 696:1 698:1 763:1 764:1 834:1 920:1 965:1 1006:1 1053:1 1165:1 1230:1 
82.51617135734887 763:1 841:1 1178:1 1219:1 
27.94571101421941 176:1 180:1 261:1 318:1 358:1 384:1 535:1 576:1 591:1 686:1 695:1 900:1 982:1 1003:1 1089:1 1128:1 1137:1 1168:1 1180:1 1249:1 
144.6859442102111 360:1 363:1 616:1 686:1 763:1 959:1 1023:1 1223:1 
130.0058635060402 126:1 207:1 444:1 747:1 894:1 977:1 
133.5386999536757 124:1 225:1 276:1 452:1 732:1 763:1 777:1 899:1 1039:1 1098:1 
196.8558888179135 248:1 420:1 724:1 763:1 1039:1 1247:1 
294.7903783143158 720:1 
104.9035244662532 57:1 262:1 650:1 716:1 778:1 1039:1 
64.20795468314429 262:1 688:1 1119:1 1124:1 1168:1 
153.6703148343891 262:1 
70.28579592358268 195:1 645:1 772:1 
-914.3222594428314 262:1 1225:1 1244:1 
-133.0142956218465 262:1 524:1 709:1 1235:1 1244:1 
-627.3988919257039 430:1 477:1 810:1 951:1 986:1 1039:1 1085:1 
-914.3222594428314 1150:1 
-394.380671081147 388:1 551:1 827:1 976:1 1158:1 
-231.9223362289742 142:1 147:1 418:1 465:1 621:1 999:1 1028:1 1039:1 1201:1 
-76.87601233618753 102:1 106:1 109:1 111:1 117:1 130:1 147:1 209:1 257:1 262:1 307:1 344:1 346:1 449:1 465:1 474:1 485:1 508:1 529:1 575:1 579:1 590:1 616:1 654:1 663:1 698:1 764:1 778:1 865:1 921:1 923:1 926:1 951:1 977:1 997:1 1009:1 1028:1 1032:1 1039:1 1053:1 1062:1 1072:1 1092:1 1096:1 1106:1 1115:1 1129:1 1158:1 1201:1 1202:1 1220:1 1234:1 
-248.6663499727514 20:1 48:1 289:1 611:1 908:1 920:1 977:1 
-66.69938434016221 53:1 109:1 175:1 225:1 397:1 444:1 449:1 467:1 473:1 687:1 763:1 936:1 1062:1 1150:1 1161:1 
-333.4538206491013 53:1 294:1 353:1 653:1 778:1 806:1 816:1 936:1 1026:1 1046:1 
-478.4395011072393 165:1 435:1 817:1 
-914.3222594428314 306:1 
-185.7413686982438 231:1 252:1 258:1 277:1 306:1 585:1 595:1 625:1 713:1 720:1 899:1 1048:1 1113:1 1229:1 
-914.3222594428314 228:1 258:1 306:1 948:1 
-223.1442839804984 420:1 429:1 444:1 595:1 596:1 664:1 739:1 844:1 951:1 1039:1 1231:1 
-376.1233472122223 336:1 595:1 799:1 
-176.5947322162522 106:1 120:1 145:1 225:1 228:1 316:1 420:1 449:1 465:1 555:1 576:1 651:1 685:1 694:1 763:1 976:1 984:1 989:1 994:1 998:1 1053:1 1085:1 1093:1 1132:1 1201:1 
-748.7269400610816 258:1 385:1 951:1 977:1 1039:1 1214:1 
-135.6337347302295 258:1 377:1 385:1 713:1 931:1 1015:1 1212:1 
-150.158530636004 32:1 57:1 100:1 106:1 261:1 280:1 294:1 416:1 524:1 616:1 664:1 715:1 739:1 988:1 1092:1 1096:1 1102:1 1158:1 1199:1 1235:1 1238:1 
-215.4281064620056 48:1 199:1 209:1 419:1 743:1 829:1 929:1 1019:1 1121:1 
-229.5793537121628 30:1 332:1 920:1 929:1 1121:1 
-349.5448201950084 232:1 360:1 372:1 463:1 924:1 1039:1 1087:1 1182:1 
-242.0166555929073 57:1 149:1 225:1 359:1 407:1 420:1 425:1 438:1 456:1 740:1 827:1 835:1 874:1 1039:1 1158:1 1236:1 
-634.4822942379006 354:1 537:1 747:1 778:1 951:1 965:1 1039:1 1085:1 1158:1 
-35.60604299401718 2:1 13:1 17:1 93:1 100:1 106:1 145:1 154:1 202:1 347:1 376:1 416:1 452:1 456:1 504:1 541:1 576:1 690:1 719:1 748:1 764:1 834:1 1039:1 1043:1 1045:1 1085:1 1092:1 1097:1 1123:1 1135:1 1158:1 1170:1 1193:1 1202:1 1235:1 1240:1 
-18.43205463352999 91:1 166:1 416:1 505:1 518:1 764:1 841:1 888:1 893:1 898:1 999:1 1064:1 1132:1 
-91.38858311504217 91:1 118:1 157:1 183:1 193:1 209:1 354:1 496:1 613:1 616:1 656:1 659:1 671:1 827:1 837:1 918:1 970:1 999:1 1023:1 1026:1 1039:1 1052:1 1053:1 1085:1 1211:1 1244:1 
-299.8857280305836 134:1 298:1 537:1 758:1 860:1 1039:1 1064:1 1073:1 1090:1 1132:1 
-266.5515977995582 124:1 420:1 425:1 593:1 655:1 700:1 778:1 1052:1 1140:1 1158:1 1180:1 
-116.2462605276897 13:1 57:1 100:1 364:1 416:1 465:1 467:1 538:1 827:1 989:1 1009:1 1023:1 1052:1 1053:1 1064:1 1082:1 1097:1 1146:1 1199:1 1211:1 
-35.7542909227376 20:1 47:1 63:1 180:1 209:1 395:1 419:1 838:1 881:1 920:1 977:1 1019:1 1022:1 1024:1 1029:1 1100:1 1127:1 1180:1 
-112.4317827033418 13:1 75:1 149:1 154:1 456:1 564:1 1239:1 
-188.0465752549381 13:1 348:1 448:1 616:1 699:1 804:1 1059:1 1177:1 
-194.7051096227762 45:1 100:1 140:1 189:1 261:1 302:1 479:1 581:1 603:1 962:1 1054:1 
-815.8887856379029 661:1 868:1 
-144.8253853812066 160:1 234:1 598:1 609:1 1139:1 
-87.96484277593656 109:1 126:1 492:1 611:1 659:1 798:1 827:1 828:1 856:1 861:1 868:1 877:1 928:1 970:1 1023:1 1145:1 1202:1 1235:1 
-631.4550492278853 497:1 763:1 1192:1 1233:1 
-28.01578236077556 133:1 164:1 209:1 278:1 311:1 337:1 344:1 386:1 416:1 444:1 449:1 452:1 465:1 476:1 492:1 563:1 615:1 691:1 705:1 763:1 779:1 822:1 846:1 862:1 889:1 959:1 1062:1 1069:1 1070:1 1202:1 1224:1 
-411.0268938409617 77:1 249:1 307:1 365:1 511:1 654:1 
-196.6683680600241 100:1 149:1 196:1 294:1 416:1 444:1 461:1 470:1 563:1 566:1 597:1 608:1 621:1 630:1 699:1 716:1 825:1 910:1 986:1 993:1 994:1 1023:1 1039:1 1075:1 1124:1 1129:1 1130:1 1177:1 
-212.3805596947589 99:1 106:1 435:1 474:1 476:1 550:1 611:1 629:1 675:1 812:1 973:1 985:1 1005:1 1166:1 1180:1 
-601.1435689220908 380:1 976:1 1202:1 
-848.9450812503006 159:1 363:1 408:1 1202:1 
-914.3222594428314 444:1 828:1 
-426.9442410664889 367:1 535:1 674:1 
-756.4415274297843 74:1 414:1 700:1 1152:1 
-174.7789998809061 47:1 160:1 174:1 180:1 209:1 992:1 1151:1 1217:1 
-138.3800299084355 390:1 425:1 537:1 541:1 764:1 1092:1 1124:1 
-661.7173910375412 75:1 153:1 452:1 1180:1 
-175.2546650034147 47:1 600:1 960:1 
-138.5487250277724 119:1 377:1 395:1 600:1 
-65.35381513244371 9:1 75:1 104:1 106:1 136:1 167:1 208:1 256:1 260:1 284:1 341:1 383:1 420:1 444:1 465:1 467:1 520:1 544:1 552:1 590:1 642:1 648:1 699:1 747:1 748:1 763:1 764:1 918:1 926:1 952:1 1028:1 1039:1 1062:1 1152:1 1158:1 1202:1 
-130.3661438091918 209:1 614:1 820:1 1035:1 1053:1 1087:1 
-243.3121552196411 55:1 106:1 160:1 294:1 444:1 521:1 562:1 589:1 653:1 764:1 842:1 921:1 1062:1 1180:1 
-277.7966626583451 65:1 494:1 537:1 721:1 754:1 763:1 837:1 
-69.503112124944 13:1 209:1 416:1 444:1 492:1 618:1 659:1 827:1 1202:1 
-914.3222594428314 262:1 600:1 
-161.1532921220598 14:1 152:1 164:1 171:1 313:1 316:1 494:1 670:1 674:1 811:1 841:1 923:1 1053:1 1224:1 
-240.9610681380584 148:1 209:1 812:1 1084:1 
-215.0241719706359 157:1 327:1 565:1 611:1 824:1 881:1 924:1 991:1 1089:1 
-163.1381593626979 100:1 114:1 123:1 160:1 198:1 200:1 239:1 246:1 290:1 344:1 347:1 456:1 608:1 616:1 618:1 748:1 786:1 1026:1 1050:1 1068:1 
-582.4274138529929 225:1 725:1 778:1 1177:1 
-462.3238499794537 236:1 977:1 1135:1 
-37.17995681733935 13:1 295:1 328:1 402:1 590:1 616:1 751:1 868:1 
-193.2451897880059 13:1 126:1 235:1 326:1 474:1 477:1 482:1 604:1 653:1 744:1 763:1 764:1 951:1 992:1 1050:1 1156:1 1224:1 1231:1 
-38.65965115747637 44:1 74:1 209:1 683:1 793:1 1228:1 
-662.1423020192221 164:1 235:1 381:1 615:1 703:1 1181:1 
-418.5812381368816 249:1 253:1 295:1 763:1 
-719.2635029412622 262:1 1154:1 
-914.3222594428314 1154:1 
-914.3222594428314 1228:1 
-914.3222594428314 1228:1 
-301.2295908838931 261:1 294:1 307:1 659:1 716:1 747:1 886:1 992:1 1089:1 1165:1 1202:1 
-210.6086258468173 203:1 316:1 363:1 420:1 467:1 579:1 1042:1 
-646.1707781773184 572:1 820:1 
-914.3222594428314 1042:1 
-673.3026003762822 578:1 701:1 1235:1 
-711.5543026684336 31:1 253:1 465:1 492:1 868:1 1202:1 
-24.50263149694202 13:1 53:1 59:1 74:1 117:1 239:1 345:1 355:1 381:1 430:1 465:1 466:1 470:1 489:1 589:1 679:1 699:1 701:1 763:1 778:1 841:1 886:1 948:1 951:1 1026:1 1047:1 1068:1 1074:1 1092:1 1100:1 1199:1 
-108.4813513528062 528:1 532:1 565:1 577:1 703:1 922:1 1036:1 
-488.3123584274521 294:1 818:1 1235:1 
-144.976589148 1:1 25:1 57:1 87:1 106:1 163:1 201:1 225:1 253:1 262:1 280:1 294:1 321:1 329:1 346:1 444:1 449:1 551:1 575:1 584:1 590:1 615:1 646:1 670:1 698:1 716:1 747:1 778:1 795:1 827:1 951:1 1039:1 1062:1 1074:1 1092:1 1096:1 1156:1 1158:1 1180:1 1241:1 1246:1 
-238.838293001028 152:1 209:1 386:1 499:1 524:1 565:1 596:1 999:1 1068:1 1083:1 1124:1 1158:1 
-12.75233151795205 13:1 31:1 77:1 160:1 269:1 453:1 611:1 703:1 763:1 808:1 852:1 999:1 1050:1 1158:1 1177:1 1193:1 
-246.4136220131123 86:1 106:1 109:1 149:1 163:1 166:1 225:1 245:1 311:1 405:1 420:1 465:1 609:1 616:1 623:1 699:1 763:1 948:1 1039:1 1046:1 1053:1 1107:1 1158:1 1168:1 1205:1 
-219.9795490025525 350:1 439:1 472:1 992:1 1235:1 
-164.1094493090153 1:1 80:1 86:1 170:1 209:1 265:1 292:1 361:1 365:1 456:1 465:1 473:1 477:1 795:1 811:1 1094:1 
-64.87806672464312 132:1 140:1 172:1 266:1 366:1 432:1 479:1 675:1 795:1 817:1 875:1 886:1 913:1 948:1 1005:1 1012:1 1037:1 1112:1 
-377.4400945631045 1150:1 
-305.5398318254751 247:1 262:1 415:1 584:1 646:1 881:1 1015:1 1230:1 
-914.3222594428314 1017:1 
-717.5435625918576 1100:1 1136:1 1218:1 
-914.3222594428314 322:1 
-307.6509355221874 106:1 117:1 489:1 524:1 648:1 871:1 1072:1 1085:1 
-28.16555138724353 23:1 28:1 31:1 48:1 98:1 251:1 258:1 265:1 322:1 332:1 378:1 584:1 819:1 851:1 920:1 934:1 944:1 977:1 1127:1 1149:1 1151:1 1155:1 1174:1 1184:1 1196:1 1210:1 
-106.6777335947236 13:1 86:1 123:1 416:1 444:1 649:1 699:1 715:1 849:1 857:1 865:1 918:1 1202:1 1211:1 1248:1 
-70.45138769214415 15:1 32:1 114:1 138:1 173:1 243:1 346:1 352:1 359:1 586:1 610:1 769:1 821:1 858:1 1007:1 1129:1 1247:1 
-62.63927447386409 10:1 202:1 209:1 225:1 352:1 357:1 508:1 677:1 687:1 769:1 821:1 824:1 1039:1 1046:1 1216:1 1247:1 
-94.70080472960562 97:1 219:1 302:1 314:1 352:1 688:1 769:1 771:1 821:1 858:1 882:1 977:1 1077:1 1247:1 
-480.5027967620042 528:1 577:1 
