svm_type nu_svc
kernel_type rbf
gamma 0.000284172
nr_class 3
total_sv 709
rho 4.14085 7.64689 8.1073
label 0 1 2
probA -2.88292 -4.61171 -3.12203
probB 0.130264 1.57397 0.33307
nr_sv 406 163 140
SV
92.81871990198287 0 1118:1 
172.6589624725586 0 127:1 292:1 578:1 661:1 1326:1 2085:1 2270:1 2546:1 3321:1 
208.4705972152588 63.1136820700977 21:1 347:1 1134:1 1263:1 1457:1 1613:1 1748:1 1949:1 2131:1 2456:1 2990:1 3044:1 3095:1 
107.3682897093806 7.610087255998295 834:1 1423:1 1688:1 3134:1 
376.1547787746867 17.66337287308008 1162:1 1202:1 2111:1 2261:1 2325:1 
161.1166758525429 0 196:1 
0 9.047952141733953 158:1 257:1 2456:1 3259:1 
376.1547787746867 58.12841238015881 807:1 1097:1 1758:1 2753:1 3259:1 
45.88640694115628 14.23477917611899 433:1 1354:1 1538:1 2300:1 3178:1 
376.1547787746867 34.88109359049726 578:1 1162:1 1735:1 2641:1 3153:1 3178:1 3515:1 
310.46599647864 78.76743207712003 860:1 2581:1 2918:1 2929:1 2948:1 2974:1 3358:1 3392:1 
150.7798438555542 63.18843473191897 13:1 462:1 774:1 1051:1 1197:1 1304:1 1356:1 1628:1 1902:1 2269:1 2277:1 2488:1 2858:1 2917:1 3040:1 3215:1 3251:1 
48.16309854974076 0 25:1 119:1 2573:1 3246:1 
37.94338059737252 80.12685429886972 187:1 591:1 834:1 1122:1 1720:1 2010:1 3417:1 
49.3404279894005 0 165:1 225:1 346:1 375:1 720:1 831:1 835:1 1245:1 1652:1 2533:1 2658:1 2828:1 2918:1 3041:1 3279:1 3366:1 3483:1 
158.9789463060456 0 708:1 1886:1 2840:1 
44.80075164953061 47.61998774216999 93:1 620:1 1346:1 1510:1 2010:1 2857:1 3259:1 3483:1 
148.2669676231232 49.29757147024702 860:1 1134:1 1717:1 1720:1 1969:1 2168:1 2520:1 2574:1 2610:1 2628:1 2732:1 2918:1 3050:1 3390:1 
150.5851282978979 0 249:1 292:1 973:1 2918:1 3050:1 
0 86.11459194747721 147:1 375:1 703:1 1122:1 1263:1 1328:1 1500:1 1612:1 2241:1 2732:1 2974:1 3259:1 3512:1 
376.1547787746867 0 640:1 1233:1 2480:1 
238.5671158960382 0 147:1 1263:1 1338:1 2546:1 2663:1 2792:1 2857:1 
44.20164728385254 0 320:1 851:1 1683:1 1718:1 1908:1 2380:1 2518:1 
151.2961022198239 0 1274:1 
0 86.11459194747721 61:1 79:1 171:1 331:1 337:1 484:1 1194:1 1639:1 2362:1 2572:1 2729:1 3121:1 3304:1 
0 8.633711084693903 147:1 292:1 862:1 981:1 1099:1 1158:1 1263:1 1283:1 1532:1 1563:1 1883:1 2168:1 2332:1 2730:1 2732:1 2990:1 
0 68.56062876964286 158:1 202:1 2017:1 2230:1 2869:1 2918:1 
376.1547787746867 0 578:1 860:1 1263:1 2467:1 2776:1 
181.4702838746382 0 370:1 451:1 803:1 817:1 1208:1 1495:1 2019:1 2085:1 2373:1 2793:1 2999:1 3000:1 3069:1 3169:1 3259:1 3366:1 3392:1 
0 4.79849095613527 522:1 760:1 900:1 930:1 1395:1 1495:1 2019:1 2131:1 2641:1 2658:1 2776:1 3186:1 3209:1 3513:1 
62.48246039099156 0 547:1 930:1 
12.35824826244682 0 93:1 260:1 401:1 522:1 722:1 815:1 835:1 860:1 1202:1 1208:1 1296:1 1441:1 1506:1 1720:1 2367:1 2411:1 2983:1 3249:1 
376.1547787746867 54.46154143194205 242:1 506:1 842:1 860:1 964:1 1207:1 1208:1 1296:1 2386:1 2662:1 2838:1 2875:1 2918:1 3091:1 3259:1 3439:1 
0 86.11459194747721 708:1 1263:1 1283:1 1533:1 2067:1 2687:1 2918:1 3051:1 3339:1 
112.1500986625981 11.58434627832523 451:1 620:1 807:1 831:1 842:1 1070:1 1263:1 1522:1 1551:1 1617:1 1652:1 2085:1 2137:1 2217:1 2241:1 2322:1 2542:1 2904:1 3050:1 3069:1 3259:1 3298:1 3339:1 3390:1 3439:1 
198.3199436468666 0 445:1 600:1 1640:1 1974:1 2285:1 2366:1 
21.33849571179899 0.2798228406945335 132:1 2064:1 2139:1 2885:1 
376.1547787746867 0 1281:1 1477:1 2064:1 2139:1 2787:1 2885:1 2948:1 3491:1 
357.4913819444478 52.21465349257603 180:1 267:1 304:1 676:1 807:1 1333:1 2322:1 2572:1 2623:1 3111:1 3121:1 3249:1 3390:1 
67.66854726998545 65.17378673971707 1317:1 2568:1 3178:1 3181:1 
0 20.75041323361951 267:1 1047:1 1592:1 2069:1 2232:1 2367:1 2623:1 2714:1 2918:1 3181:1 3303:1 3448:1 
376.1547787746867 0 1442:1 1835:1 2658:1 
0 44.85284447270435 860:1 904:1 1252:1 1427:1 1522:1 1855:1 2918:1 
50.04029979804135 58.91972268648852 363:1 1055:1 1122:1 1202:1 1404:1 1805:1 1849:1 1864:1 1901:1 1946:1 2905:1 2906:1 3454:1 
376.1547787746867 0 626:1 690:1 842:1 2658:1 2761:1 
40.38910951017015 0 83:1 242:1 339:1 851:1 877:1 1214:1 1333:1 1380:1 1500:1 1946:1 2131:1 2789:1 2884:1 3390:1 3498:1 
128.9983403478311 0 920:1 1002:1 1093:1 2436:1 2658:1 2761:1 
376.1547787746867 0 1711:1 1712:1 1723:1 1855:1 2124:1 2658:1 2732:1 2777:1 3017:1 3357:1 
176.6121140136902 0 210:1 596:1 1202:1 1956:1 2661:1 2880:1 
33.46477862350504 17.8203831700389 160:1 183:1 263:1 441:1 494:1 538:1 559:1 565:1 690:1 1386:1 1785:1 1846:1 1977:1 2272:1 2536:1 2578:1 3009:1 3253:1 3397:1 
0 2.161684728845196 123:1 183:1 392:1 601:1 830:1 1740:1 1986:1 2004:1 2262:1 2436:1 3225:1 
288.54898995999 22.85042799290924 690:1 2014:1 2360:1 2790:1 
165.7321456720781 1.694447567664406 126:1 250:1 724:1 765:1 1082:1 1155:1 1158:1 1827:1 1937:1 2124:1 2543:1 2948:1 2986:1 3256:1 3443:1 3477:1 3485:1 3491:1 
0 83.18120344450072 16:1 35:1 131:1 158:1 186:1 225:1 247:1 272:1 275:1 292:1 320:1 343:1 370:1 395:1 484:1 620:1 703:1 709:1 831:1 849:1 894:1 900:1 912:1 960:1 966:1 1028:1 1055:1 1097:1 1122:1 1159:1 1204:1 1491:1 1604:1 1613:1 1653:1 1664:1 1802:1 1810:1 1840:1 1851:1 1893:1 2085:1 2131:1 2186:1 2191:1 2241:1 2421:1 2451:1 2467:1 2503:1 2504:1 2514:1 2533:1 2560:1 2572:1 2623:1 2636:1 2653:1 2687:1 2701:1 2732:1 2776:1 2822:1 2861:1 2905:1 2918:1 2925:1 2948:1 2990:1 3117:1 3158:1 3167:1 3234:1 3254:1 3259:1 3343:1 3493:1 3513:1 
23.26418657772441 0 1219:1 
36.45354781509205 0 474:1 1130:1 1263:1 1664:1 2131:1 2253:1 2270:1 2393:1 2974:1 3259:1 
189.6434567407136 0 954:1 1495:1 2085:1 2168:1 2527:1 2662:1 2701:1 2918:1 2943:1 3050:1 3259:1 
10.24218100464212 0 831:1 2701:1 2899:1 3050:1 3259:1 3483:1 
74.79414079090023 24.70084091343477 35:1 242:1 451:1 749:1 1803:1 2017:1 2131:1 2267:1 2395:1 2514:1 2558:1 2572:1 3198:1 
0 48.55572064166238 68:1 732:1 807:1 860:1 1219:1 1279:1 1314:1 1803:1 2597:1 2731:1 2918:1 3483:1 
33.98109929352215 86.11459194747721 2137:1 2732:1 2905:1 3195:1 
0 86.11459194747721 860:1 1097:1 1292:1 1601:1 3496:1 
80.34865364293059 31.71843442304316 390:1 927:1 1866:1 2445:1 2948:1 3374:1 
52.12747270979619 0 207:1 390:1 815:1 1263:1 1378:1 1390:1 1593:1 2131:1 2411:1 2884:1 3374:1 
89.3509119253805 0 45:1 1163:1 
376.1547787746867 86.11459194747721 265:1 807:1 
66.32033822558913 0 1664:1 1838:1 2693:1 2810:1 3452:1 
8.968905657972769 0 1664:1 1838:1 
297.4532954841216 0 2137:1 2300:1 2732:1 2905:1 3195:1 
19.14341546348671 0 345:1 1127:1 1441:1 1607:1 1672:1 1708:1 1723:1 2296:1 2581:1 2990:1 3233:1 
0 86.11459194747721 2137:1 2732:1 2905:1 3195:1 
376.1547787746867 0 199:1 767:1 1119:1 1771:1 2480:1 2658:1 2884:1 
376.1547787746867 48.15376217456468 445:1 772:1 1520:1 1708:1 2576:1 3210:1 
242.0090085196541 0 199:1 292:1 327:1 574:1 862:1 929:1 1291:1 1723:1 1845:1 2445:1 3058:1 3321:1 3459:1 
376.1547787746867 43.06998789352379 1636:1 
0 7.969502660727032 334:1 860:1 1296:1 1338:1 1901:1 2658:1 2832:1 2990:1 
43.74216087137566 0 1263:1 2087:1 2434:1 2798:1 
28.84783746847047 20.81807758216538 319:1 727:1 1158:1 1326:1 1535:1 1672:1 1883:1 1888:1 2468:1 2471:1 2503:1 2617:1 3060:1 3281:1 3321:1 
42.62197313472651 0 401:1 1711:1 1937:1 2126:1 2701:1 3321:1 
0 51.31198135874213 514:1 515:1 1407:1 1421:1 1441:1 2131:1 2186:1 2776:1 2948:1 2990:1 3249:1 3259:1 3280:1 
278.7166354672974 27.00746917207971 709:1 764:1 2662:1 2918:1 
329.8980916914363 0 722:1 984:1 1459:1 2241:1 2398:1 2929:1 2974:1 3392:1 3401:1 3483:1 
258.6332168528663 21.05279306904313 300:1 345:1 555:1 807:1 973:1 1202:1 1206:1 1245:1 1263:1 1308:1 1811:1 2131:1 2308:1 3020:1 
110.0868332678611 0 304:1 973:1 1315:1 2918:1 2936:1 3187:1 
13.24248338343708 9.76909456934683 71:1 287:1 374:1 470:1 554:1 622:1 627:1 781:1 785:1 786:1 835:1 1283:1 1295:1 1407:1 1585:1 1608:1 1665:1 1754:1 1859:1 1869:1 1902:1 1928:1 2168:1 2192:1 2231:1 2340:1 2448:1 2588:1 2596:1 2950:1 2951:1 3031:1 3139:1 3190:1 
68.27147456766681 0 304:1 514:1 787:1 1081:1 1421:1 1720:1 2241:1 2757:1 2990:1 3050:1 3483:1 
39.32168085826363 0 584:1 708:1 2710:1 2929:1 
19.62787567099303 58.73828352222203 272:1 346:1 420:1 484:1 515:1 553:1 645:1 684:1 703:1 890:1 929:1 1119:1 1122:1 1134:1 1233:1 1404:1 1432:1 1598:1 1653:1 1748:1 2056:1 2114:1 2217:1 2504:1 2533:1 2535:1 2592:1 2623:1 2658:1 2714:1 2948:1 3106:1 3113:1 3117:1 3178:1 3186:1 3265:1 3321:1 3455:1 3498:1 
87.991872624452 17.37319824574458 162:1 203:1 329:1 684:1 812:1 1126:1 1402:1 1724:1 3447:1 3508:1 
77.47166385094755 0 300:1 304:1 1041:1 1205:1 1831:1 2300:1 2311:1 2777:1 2905:1 2914:1 3034:1 3209:1 3256:1 3259:1 3287:1 
0 1.585832132529554 24:1 140:1 165:1 502:1 645:1 835:1 849:1 860:1 879:1 1176:1 1202:1 1233:1 1245:1 1263:1 1291:1 1378:1 1499:1 1674:1 1723:1 1865:1 1957:1 2120:1 2137:1 2250:1 2581:1 2589:1 2628:1 2732:1 2918:1 2974:1 3020:1 3050:1 3111:1 3117:1 3142:1 3186:1 3281:1 3454:1 
51.22955025307464 9.249220419304701 2:1 158:1 212:1 292:1 345:1 460:1 489:1 515:1 620:1 650:1 655:1 929:1 1027:1 1205:1 1214:1 1264:1 1291:1 1407:1 1456:1 1495:1 1542:1 1652:1 1825:1 1946:1 2010:1 2186:1 2208:1 2241:1 2312:1 2804:1 2848:1 2914:1 2918:1 2948:1 2990:1 3015:1 3020:1 3137:1 3259:1 3326:1 3392:1 3512:1 
376.1547787746867 0 68:1 1291:1 1834:1 2880:1 3392:1 
376.1547787746867 0 1592:1 3345:1 3392:1 3515:1 
265.5772066277845 0 582:1 887:1 1263:1 2458:1 
333.2044485595798 0 1492:1 1613:1 1866:1 
376.1547787746867 0 615:1 1338:1 2880:1 
18.66339683023895 15.7701377786128 93:1 118:1 545:1 620:1 670:1 708:1 832:1 853:1 1208:1 1389:1 1513:1 1948:1 2067:1 2131:1 2137:1 2198:1 2216:1 2323:1 2363:1 2572:1 2852:1 2918:1 3245:1 3259:1 3339:1 3390:1 3405:1 
273.9417770003281 0 304:1 805:1 1119:1 1803:1 1943:1 2007:1 2336:1 3167:1 
65.35146081708211 59.1071227753975 677:1 1119:1 1249:1 1613:1 1943:1 3244:1 
0 19.03677787791333 2:1 187:1 292:1 304:1 337:1 490:1 521:1 605:1 864:1 1005:1 1096:1 1119:1 1133:1 1575:1 1711:1 1723:1 1943:1 2085:1 2263:1 2362:1 2729:1 2852:1 2859:1 3055:1 3083:1 3182:1 3244:1 3312:1 3426:1 
148.146825999373 76.97938325066414 2:1 187:1 292:1 304:1 337:1 490:1 521:1 605:1 864:1 1005:1 1096:1 1119:1 1133:1 1575:1 1711:1 1723:1 1943:1 2085:1 2263:1 2362:1 2729:1 2852:1 2859:1 3055:1 3083:1 3182:1 3244:1 3312:1 3426:1 
314.9966614515522 86.11459194747721 212:1 292:1 1143:1 1378:1 1543:1 1967:1 2732:1 2918:1 3050:1 3256:1 3459:1 
0 47.44928178923064 564:1 708:1 966:1 973:1 1046:1 1263:1 1283:1 1292:1 1372:1 1861:1 2010:1 2168:1 2322:1 2553:1 2641:1 3069:1 3137:1 3263:1 3332:1 
25.00826121811383 0 2:1 228:1 390:1 708:1 870:1 1283:1 1680:1 1834:1 1865:1 1886:1 2131:1 2791:1 2974:1 3002:1 3209:1 3332:1 3392:1 
47.92658335963809 44.11585279057712 228:1 620:1 1395:1 1654:1 1886:1 1937:1 1957:1 2567:1 2810:1 2880:1 2939:1 2942:1 3178:1 3263:1 3512:1 
45.45531947580977 86.11459194747721 136:1 844:1 1672:1 2294:1 2602:1 2662:1 2918:1 
376.1547787746867 86.11459194747721 438:1 495:1 708:1 1202:1 1495:1 1728:1 1861:1 2131:1 3332:1 
186.511322033973 86.11459194747721 434:1 708:1 807:1 1150:1 1570:1 2322:1 2373:1 2558:1 2641:1 2662:1 2707:1 2767:1 2918:1 3050:1 3259:1 3439:1 
376.1547787746867 0 1834:1 3392:1 
166.4192929037843 15.79154601871445 68:1 151:1 237:1 286:1 703:1 708:1 807:1 827:1 860:1 1136:1 1579:1 1672:1 1834:1 2085:1 2168:1 2241:1 2480:1 2612:1 2798:1 2884:1 2918:1 3392:1 3491:1 3498:1 3512:1 
95.15151877385556 0 337:1 406:1 443:1 606:1 2366:1 
85.95012990901729 0 21:1 158:1 346:1 620:1 860:1 966:1 1495:1 2137:1 2241:1 2300:1 2732:1 3259:1 3392:1 
335.7656692645165 0 35:1 40:1 1833:1 1865:1 2209:1 2921:1 
376.1547787746867 29.94758535205972 177:1 228:1 1348:1 1495:1 1545:1 2019:1 2974:1 3392:1 
153.3881842037505 43.99991282795654 61:1 95:1 136:1 356:1 954:1 1133:1 1561:1 1685:1 1711:1 2067:1 2576:1 2852:1 2881:1 
79.49558735426021 0 21:1 355:1 390:1 632:1 723:1 1202:1 2131:1 2732:1 
35.37476978146275 62.84493214350404 225:1 942:1 1831:1 1896:1 2732:1 3332:1 
119.1618231629175 48.38658636708209 68:1 161:1 964:1 1007:1 1268:1 1371:1 2131:1 2186:1 2229:1 2588:1 2948:1 2959:1 3191:1 3386:1 
114.61862686551 0 929:1 2168:1 2873:1 3137:1 
0 57.34635617545186 3262:1 
0 20.23487407501166 2:1 425:1 499:1 684:1 1060:1 1263:1 1482:1 1793:1 2593:1 3504:1 
0 72.07091018124676 361:1 1134:1 1601:1 2036:1 2165:1 2190:1 2280:1 2432:1 2990:1 3209:1 3231:1 3259:1 
192.0752647387139 0 242:1 1711:1 2168:1 2508:1 2662:1 3259:1 3278:1 
251.3988693379291 52.04267295662707 381:1 1324:1 1627:1 1649:1 2444:1 2732:1 
129.0518406190751 0 684:1 1005:1 1263:1 2010:1 2857:1 2918:1 3185:1 3190:1 3259:1 3476:1 
36.11872537888135 23.9621840352724 33:1 62:1 93:1 131:1 158:1 260:1 282:1 292:1 304:1 378:1 421:1 430:1 460:1 552:1 575:1 578:1 593:1 598:1 620:1 649:1 650:1 708:1 721:1 759:1 787:1 795:1 803:1 815:1 831:1 835:1 839:1 853:1 911:1 929:1 932:1 973:1 1007:1 1052:1 1096:1 1102:1 1134:1 1139:1 1171:1 1176:1 1199:1 1263:1 1300:1 1328:1 1332:1 1337:1 1362:1 1381:1 1391:1 1403:1 1441:1 1450:1 1454:1 1458:1 1495:1 1500:1 1627:1 1645:1 1664:1 1702:1 1711:1 1720:1 1731:1 1759:1 1788:1 1789:1 1794:1 1803:1 1810:1 1937:1 1962:1 1977:1 2003:1 2017:1 2055:1 2085:1 2096:1 2171:1 2191:1 2206:1 2209:1 2241:1 2321:1 2322:1 2367:1 2408:1 2503:1 2504:1 2533:1 2567:1 2633:1 2637:1 2674:1 2687:1 2689:1 2732:1 2782:1 2884:1 2918:1 2921:1 2969:1 2990:1 3013:1 3014:1 3040:1 3042:1 3065:1 3110:1 3117:1 3178:1 3186:1 3191:1 3218:1 3234:1 3259:1 3281:1 3320:1 3366:1 3368:1 3386:1 3512:1 3513:1 3515:1 
75.72108060456166 0 342:1 1320:1 1866:1 2167:1 2880:1 2882:1 2953:1 
54.21225993884578 0 255:1 1134:1 1558:1 1723:1 2089:1 2880:1 2972:1 
75.8276710483902 13.99536446405141 13:1 252:1 287:1 1073:1 2026:1 2271:1 2696:1 3161:1 3413:1 
376.1547787746867 0 2662:1 2974:1 3392:1 
221.0585131683522 86.11459194747721 35:1 255:1 260:1 752:1 1176:1 1395:1 1669:1 2884:1 
0 23.90547856531031 199:1 217:1 304:1 512:1 870:1 1120:1 1302:1 1340:1 1347:1 1536:1 1810:1 2165:1 2551:1 2641:1 2665:1 2666:1 2901:1 2918:1 3167:1 3231:1 3472:1 
0 60.06631061196568 342:1 628:1 681:1 831:1 1590:1 1689:1 2819:1 2918:1 3070:1 
376.1547787746867 0 1099:1 2241:1 2306:1 2628:1 3392:1 
376.1547787746867 58.68982676228136 35:1 878:1 1693:1 1819:1 1937:1 2137:1 2787:1 
189.1711190487132 86.11459194747721 328:1 686:1 1121:1 1254:1 2301:1 2571:1 2732:1 2769:1 2786:1 2787:1 2874:1 3078:1 3449:1 
0 27.1918277602284 73:1 521:1 686:1 816:1 833:1 1804:1 2168:1 2852:1 3201:1 
281.2902827066383 0 243:1 708:1 819:1 1122:1 1720:1 1834:1 1956:1 2010:1 2581:1 3333:1 3392:1 
0 23.47524968368288 1291:1 1664:1 1793:1 2247:1 2720:1 3087:1 3178:1 3262:1 
74.31148428626544 0 210:1 1824:1 2110:1 2520:1 2766:1 
376.1547787746867 0 578:1 676:1 1047:1 1060:1 1598:1 
48.52505126615508 0 36:1 275:1 620:1 684:1 887:1 973:1 1219:1 1723:1 1818:1 2411:1 2948:1 
79.01275818489961 86.11459194747721 2:1 126:1 997:1 1134:1 1177:1 1610:1 2300:1 2445:1 2918:1 3251:1 
376.1547787746867 43.11685032575208 33:1 199:1 676:1 838:1 1263:1 1361:1 1457:1 1803:1 1884:1 2209:1 2322:1 2572:1 2918:1 3069:1 3392:1 
172.3117678853038 0 17:1 684:1 708:1 1046:1 1204:1 2445:1 2483:1 2778:1 2812:1 3195:1 3332:1 3392:1 3442:1 3512:1 
94.64570369023349 0 287:1 292:1 300:1 304:1 366:1 380:1 549:1 684:1 785:1 836:1 1046:1 1049:1 1053:1 1385:1 1441:1 1606:1 1754:1 1875:1 2061:1 2168:1 2235:1 2248:1 2498:1 3332:1 
144.3816947945772 28.75269492759405 292:1 304:1 483:1 522:1 557:1 708:1 911:1 1202:1 1263:1 1438:1 1542:1 1592:1 2137:1 2732:1 3020:1 3050:1 3110:1 3315:1 3321:1 3476:1 3515:1 
76.76447402057417 63.29789789744339 430:1 1956:1 2186:1 2398:1 2617:1 
90.70988191141889 0 158:1 1134:1 2089:1 2168:1 2434:1 
315.4922687691386 0 2125:1 
238.6407682995654 0 1610:1 1721:1 2288:1 
0 65.69413320623191 136:1 354:1 1576:1 
186.2254904820307 0 1268:1 1669:1 2732:1 3321:1 
0 55.05430126267957 1097:1 1291:1 1292:1 1604:1 3496:1 
23.54121365987577 45.25560777720617 158:1 1617:1 1639:1 1652:1 1824:1 2282:1 2881:1 3321:1 
33.53596185809937 12.53010498291195 2:1 35:1 78:1 90:1 158:1 162:1 187:1 198:1 210:1 237:1 275:1 292:1 304:1 319:1 327:1 345:1 395:1 430:1 460:1 564:1 578:1 620:1 703:1 726:1 752:1 803:1 815:1 831:1 849:1 877:1 889:1 927:1 1049:1 1104:1 1122:1 1134:1 1164:1 1263:1 1281:1 1283:1 1296:1 1336:1 1419:1 1462:1 1555:1 1598:1 1605:1 1627:1 1682:1 1711:1 1723:1 1793:1 1849:1 2010:1 2027:1 2085:1 2137:1 2170:1 2189:1 2241:1 2250:1 2411:1 2445:1 2533:1 2576:1 2589:1 2658:1 2670:1 2708:1 2776:1 2782:1 2832:1 2840:1 2884:1 2918:1 2987:1 2990:1 2999:1 3044:1 3050:1 3074:1 3117:1 3167:1 3186:1 3192:1 3228:1 3259:1 3276:1 3302:1 3376:1 3390:1 3392:1 3401:1 3417:1 3491:1 3513:1 
0 67.76773563477265 15:1 574:1 676:1 860:1 1147:1 1482:1 1617:1 1723:1 2085:1 2627:1 
75.03455573035482 25.92667779957186 834:1 1139:1 1281:1 1330:1 1629:1 2445:1 2845:1 2847:1 3071:1 3459:1 
92.3758608352852 0 2:1 3:1 74:1 93:1 158:1 292:1 304:1 319:1 322:1 327:1 461:1 504:1 541:1 553:1 620:1 643:1 665:1 676:1 752:1 767:1 815:1 877:1 954:1 973:1 1047:1 1104:1 1119:1 1202:1 1214:1 1233:1 1263:1 1281:1 1337:1 1343:1 1409:1 1488:1 1600:1 1603:1 1735:1 1803:1 2120:1 2241:1 2300:1 2322:1 2367:1 2401:1 2445:1 2503:1 2552:1 2576:1 2581:1 2589:1 2662:1 2701:1 2781:1 2832:1 2840:1 2990:1 3069:1 3115:1 3236:1 3295:1 3320:1 3483:1 3491:1 
349.3888850625557 0 1652:1 2929:1 
48.53606671716095 0 703:1 939:1 1123:1 1192:1 2148:1 2658:1 3286:1 3321:1 
211.5887934610993 0 319:1 327:1 395:1 430:1 460:1 703:1 1047:1 1372:1 2300:1 2445:1 3259:1 3401:1 3491:1 
62.43145470808893 0 2041:1 2268:1 
268.0906543247683 86.11459194747721 242:1 620:1 652:1 1049:1 1122:1 1828:1 2300:1 2662:1 2999:1 3321:1 
29.12665556935583 0 327:1 1176:1 1372:1 1378:1 1486:1 1645:1 1794:1 2440:1 2880:1 3332:1 3353:1 3390:1 3491:1 
0 22.17190566639389 63:1 345:1 1047:1 1122:1 1291:1 1296:1 1526:1 1731:1 2137:1 2241:1 2533:1 2579:1 2701:1 2732:1 2987:1 2999:1 3259:1 3483:1 
0 15.6796934407156 129:1 260:1 1089:1 1486:1 1546:1 
252.2657669712639 32.28080731893772 176:1 608:1 620:1 690:1 708:1 1358:1 2168:1 2571:1 2676:1 3238:1 3348:1 
86.61313592617064 0 6:1 308:1 578:1 598:1 1134:1 1205:1 1320:1 1363:1 1438:1 1450:1 1696:1 1801:1 2087:1 2421:1 2514:1 2718:1 2804:1 2920:1 3043:1 3512:1 3515:1 
301.0181533105819 86.11459194747721 578:1 798:1 1134:1 2367:1 2804:1 2920:1 3060:1 
0 28.51240671894927 21:1 55:1 90:1 198:1 237:1 304:1 345:1 375:1 430:1 515:1 560:1 605:1 640:1 652:1 703:1 721:1 748:1 761:1 803:1 807:1 835:1 859:1 863:1 1047:1 1106:1 1116:1 1134:1 1155:1 1202:1 1208:1 1256:1 1372:1 1407:1 1441:1 1443:1 1516:1 1530:1 1611:1 1652:1 1664:1 1723:1 1747:1 1803:1 1817:1 1851:1 1936:1 1937:1 1957:1 2015:1 2057:1 2062:1 2066:1 2089:1 2124:1 2170:1 2367:1 2383:1 2432:1 2441:1 2442:1 2455:1 2476:1 2589:1 2609:1 2715:1 2718:1 2797:1 2804:1 2816:1 2824:1 2840:1 2857:1 2918:1 2956:1 2974:1 2990:1 3035:1 3130:1 3191:1 3208:1 3259:1 3261:1 3268:1 3332:1 3432:1 3489:1 3493:1 
38.49704829855516 0 158:1 300:1 375:1 463:1 484:1 578:1 620:1 849:1 863:1 876:1 1104:1 1122:1 1134:1 1281:1 1291:1 1372:1 1664:1 1681:1 1731:1 2089:1 2131:1 2185:1 2533:1 2581:1 2623:1 2628:1 2766:1 2910:1 2918:1 3020:1 3256:1 3259:1 3338:1 3356:1 3390:1 3496:1 
0 86.11459194747721 2:1 1122:1 1563:1 2426:1 
53.56016050130341 42.61289719464231 61:1 136:1 176:1 237:1 248:1 437:1 484:1 493:1 578:1 601:1 1037:1 1091:1 1113:1 1141:1 1237:1 1281:1 1576:1 1639:1 1837:1 1931:1 2126:1 2168:1 2549:1 2565:1 2576:1 2676:1 2686:1 2736:1 2827:1 2850:1 2853:1 3182:1 3246:1 3312:1 3332:1 3420:1 
136.9971840150334 0 284:1 700:1 794:1 1113:1 2806:1 2815:1 3378:1 
44.79648570049504 0 308:1 460:1 675:1 703:1 708:1 863:1 1090:1 1323:1 1455:1 1977:1 2421:1 3483:1 3496:1 3515:1 
93.24936368668128 0 1134:1 1664:1 2475:1 2804:1 3106:1 3259:1 
0 13.79773315193813 284:1 390:1 578:1 686:1 703:1 851:1 2118:1 2139:1 2176:1 2729:1 2785:1 2852:1 3182:1 3239:1 3332:1 
162.7410183241738 0 275:1 492:1 1656:1 
49.74256454827616 4.672733332092012 174:1 883:1 1196:1 1322:1 1548:1 1977:1 2234:1 2517:1 3024:1 3319:1 
376.1547787746867 0 890:1 1577:1 
0 10.20603236046253 57:1 126:1 178:1 227:1 287:1 380:1 427:1 513:1 562:1 625:1 708:1 1198:1 1203:1 1266:1 1313:1 1616:1 1629:1 1862:1 1875:1 1902:1 2010:1 2043:1 2048:1 2168:1 2264:1 2271:1 2390:1 2482:1 2619:1 2845:1 3033:1 3096:1 3122:1 3138:1 3283:1 3362:1 3473:1 3516:1 
104.3321680525039 45.14288680720425 39:1 578:1 708:1 959:1 1134:1 1180:1 1454:1 1576:1 1711:1 1946:1 1957:1 2168:1 2217:1 2367:1 2400:1 3259:1 3493:1 
150.2469615861929 0 308:1 401:1 1291:1 1711:1 2126:1 2137:1 2282:1 2421:1 3307:1 
83.95382348253824 0 121:1 516:1 578:1 684:1 863:1 1080:1 1134:1 1176:1 1178:1 1432:1 1827:1 2089:1 2166:1 2504:1 2672:1 2718:1 2726:1 2918:1 
0 36.27392631574018 162:1 242:1 397:1 451:1 578:1 681:1 684:1 805:1 1080:1 1134:1 1283:1 1531:1 1542:1 1775:1 1810:1 1827:1 2005:1 2170:1 2467:1 2572:1 2580:1 2612:1 2623:1 2662:1 2672:1 2731:1 2840:1 2918:1 3197:1 
37.17086798059145 0 304:1 760:1 1543:1 1576:1 1617:1 1652:1 1735:1 1946:1 2241:1 2322:1 2502:1 2662:1 2776:1 2880:1 2955:1 3040:1 3050:1 3209:1 3390:1 
120.3603059012699 0 278:1 1711:1 1946:1 2168:1 2179:1 3259:1 3394:1 
352.4564459399293 0 147:1 1268:1 1362:1 1664:1 
0 82.09521753184038 308:1 451:1 641:1 2572:1 
159.5168242869368 0 1569:1 2496:1 2837:1 
90.53636533682779 0 998:1 1080:1 1740:1 1827:1 2260:1 2672:1 3303:1 
376.1547787746867 0 132:1 358:1 
0 57.92806758339133 708:1 807:1 1908:1 2089:1 2662:1 2672:1 2752:1 2837:1 2840:1 3259:1 3486:1 
0 6.100403256640605 90:1 283:1 304:1 426:1 430:1 522:1 576:1 630:1 716:1 760:1 778:1 795:1 835:1 846:1 892:1 935:1 967:1 1062:1 1104:1 1122:1 1126:1 1134:1 1205:1 1220:1 1244:1 1263:1 1266:1 1277:1 1378:1 1394:1 1500:1 1520:1 1543:1 1583:1 1588:1 1593:1 1627:1 1664:1 1711:1 1725:1 1793:1 1839:1 1886:1 1981:1 2007:1 2113:1 2124:1 2166:1 2180:1 2217:1 2226:1 2241:1 2322:1 2348:1 2359:1 2367:1 2441:1 2576:1 2599:1 2628:1 2666:1 2714:1 2921:1 2948:1 2994:1 3002:1 3069:1 3093:1 3155:1 3209:1 3257:1 3259:1 3326:1 3344:1 3349:1 3390:1 3483:1 
77.36130431923718 66.07232223873353 2005:1 2087:1 2518:1 2948:1 3493:1 
0 28.65781829034449 507:1 1155:1 1801:1 2128:1 2476:1 
0 27.1948692609887 358:1 998:1 1023:1 2211:1 2224:1 2809:1 3303:1 
0 3.821293744792194 184:1 620:1 863:1 929:1 938:1 1124:1 1272:1 1291:1 1803:1 2166:1 2267:1 2504:1 2840:1 3251:1 3273:1 
0 33.32145293839345 93:1 136:1 490:1 981:1 1124:1 1221:1 1909:1 2605:1 3047:1 3112:1 3175:1 
173.7208189310001 0 308:1 863:1 1126:1 1357:1 1824:1 2168:1 2421:1 2502:1 3292:1 3504:1 3517:1 
55.48174973913039 28.59714934492164 185:1 496:1 890:1 1133:1 1249:1 1563:1 1712:1 1793:1 2276:1 2303:1 2391:1 2549:1 2666:1 2881:1 
0 7.196043533180204 708:1 990:1 1617:1 2948:1 3326:1 
0 19.23250954396907 242:1 1283:1 1432:1 1636:1 1723:1 2948:1 3259:1 
0 61.45907418268199 1122:1 1372:1 1431:1 1783:1 2322:1 2463:1 3137:1 3178:1 
0 16.99658482234134 78:1 212:1 249:1 450:1 480:1 510:1 756:1 815:1 863:1 877:1 973:1 984:1 1158:1 1202:1 1233:1 1263:1 1291:1 1333:1 1337:1 1346:1 1482:1 1617:1 1627:1 1652:1 1732:1 1946:1 1956:1 2170:1 2322:1 2576:1 2589:1 2640:1 2662:1 2671:1 2701:1 2732:1 2859:1 2971:1 2977:1 2990:1 3017:1 3050:1 3117:1 3280:1 3316:1 3365:1 3366:1 
16.48446690443285 0 2:1 21:1 260:1 430:1 522:1 533:1 652:1 753:1 803:1 858:1 863:1 1047:1 1093:1 1134:1 1263:1 1300:1 1720:1 1731:1 2131:1 2168:1 2186:1 2504:1 2776:1 2999:1 3008:1 3063:1 3224:1 3332:1 3355:1 3385:1 
89.64680624564298 0 681:1 863:1 1079:1 1718:1 1871:1 2241:1 2610:1 2652:1 3462:1 
24.58158477728795 8.840423306737328 681:1 1134:1 1672:1 1708:1 2168:1 2502:1 3259:1 3374:1 3462:1 
54.47148681874394 0 21:1 522:1 760:1 803:1 863:1 1263:1 1720:1 1731:1 1783:1 2131:1 2463:1 2504:1 2776:1 3008:1 3063:1 3256:1 3385:1 
117.3386719004374 0 354:1 708:1 712:1 2852:1 
161.0760740142127 0 147:1 681:1 1263:1 1268:1 1555:1 1626:1 1810:1 1956:1 2480:1 2873:1 2918:1 3054:1 3120:1 3462:1 
0 9.008004263831655 2:1 9:1 1039:1 1256:1 1569:1 1957:1 2009:1 2111:1 2124:1 2441:1 2496:1 2533:1 2751:1 3298:1 
45.22700871280732 0 835:1 2398:1 2918:1 3014:1 3209:1 3259:1 3332:1 3483:1 
0 9.374655377660348 13:1 24:1 42:1 48:1 50:1 54:1 63:1 89:1 90:1 93:1 110:1 150:1 186:1 187:1 287:1 299:1 300:1 304:1 314:1 345:1 355:1 422:1 430:1 447:1 453:1 462:1 464:1 466:1 469:1 481:1 564:1 576:1 578:1 585:1 597:1 620:1 674:1 680:1 685:1 696:1 703:1 750:1 760:1 771:1 772:1 785:1 797:1 829:1 834:1 836:1 914:1 935:1 954:1 964:1 977:1 990:1 1008:1 1024:1 1067:1 1104:1 1109:1 1122:1 1134:1 1152:1 1153:1 1158:1 1197:1 1203:1 1205:1 1220:1 1223:1 1245:1 1256:1 1266:1 1283:1 1291:1 1294:1 1296:1 1320:1 1330:1 1341:1 1356:1 1378:1 1432:1 1438:1 1444:1 1468:1 1507:1 1520:1 1593:1 1606:1 1627:1 1628:1 1629:1 1650:1 1652:1 1654:1 1664:1 1666:1 1710:1 1711:1 1720:1 1723:1 1742:1 1774:1 1775:1 1793:1 1794:1 1807:1 1828:1 1867:1 1869:1 1870:1 1872:1 1875:1 1878:1 1886:1 1894:1 1902:1 1918:1 1937:1 1957:1 1973:1 1991:1 2010:1 2033:1 2087:1 2124:1 2141:1 2151:1 2166:1 2194:1 2195:1 2196:1 2204:1 2239:1 2241:1 2271:1 2305:1 2314:1 2344:1 2367:1 2379:1 2388:1 2398:1 2432:1 2441:1 2482:1 2487:1 2504:1 2513:1 2543:1 2555:1 2557:1 2566:1 2576:1 2586:1 2588:1 2596:1 2612:1 2649:1 2654:1 2666:1 2715:1 2732:1 2749:1 2764:1 2776:1 2802:1 2826:1 2841:1 2845:1 2847:1 2863:1 2884:1 2887:1 2902:1 2904:1 2918:1 2951:1 2960:1 2985:1 2993:1 3001:1 3002:1 3033:1 3046:1 3061:1 3066:1 3090:1 3096:1 3099:1 3104:1 3138:1 3140:1 3178:1 3199:1 3209:1 3215:1 3221:1 3224:1 3259:1 3297:1 3340:1 3362:1 3390:1 3411:1 3417:1 3427:1 3492:1 3509:1 
29.70832407902208 0 212:1 304:1 345:1 460:1 609:1 620:1 650:1 787:1 803:1 821:1 835:1 853:1 860:1 984:1 1063:1 1122:1 1134:1 1202:1 1205:1 1296:1 1543:1 1563:1 1574:1 1723:1 1866:1 1908:1 1957:1 2010:1 2042:1 2241:1 2413:1 2840:1 2843:1 2990:1 3060:1 3117:1 3386:1 3390:1 3483:1 
34.42897550798811 8.366363240420707 870:1 995:1 2884:1 
0 6.126780452370583 2:1 24:1 58:1 68:1 90:1 104:1 209:1 274:1 300:1 343:1 345:1 348:1 377:1 422:1 436:1 479:1 518:1 541:1 564:1 576:1 578:1 583:1 614:1 616:1 681:1 691:1 697:1 760:1 772:1 776:1 824:1 935:1 966:1 990:1 1050:1 1082:1 1100:1 1103:1 1122:1 1158:1 1209:1 1220:1 1235:1 1245:1 1283:1 1291:1 1299:1 1321:1 1337:1 1370:1 1382:1 1426:1 1444:1 1446:1 1469:1 1520:1 1593:1 1620:1 1627:1 1638:1 1664:1 1686:1 1711:1 1723:1 1725:1 1793:1 1808:1 1832:1 1863:1 1870:1 1954:1 1991:1 2087:1 2109:1 2157:1 2182:1 2202:1 2206:1 2212:1 2239:1 2241:1 2367:1 2384:1 2392:1 2398:1 2432:1 2441:1 2471:1 2584:1 2606:1 2612:1 2634:1 2654:1 2683:1 2732:1 2750:1 2776:1 2816:1 2840:1 3132:1 3166:1 3209:1 3218:1 3280:1 3297:1 3320:1 3329:1 3390:1 3399:1 3428:1 3470:1 3502:1 
376.1547787746867 20.28670035024327 430:1 1968:1 2480:1 2675:1 3014:1 3400:1 
0 14.68020032623749 756:1 1349:1 1780:1 2075:1 2159:1 2380:1 2918:1 
376.1547787746867 0 1485:1 1672:1 2766:1 2918:1 2990:1 3058:1 3240:1 3332:1 3512:1 
193.1931951613159 0 168:1 484:1 578:1 1639:1 1917:1 2830:1 2881:1 2965:1 
28.55187221375963 13.77299814291219 146:1 158:1 206:1 304:1 343:1 831:1 1047:1 1122:1 1449:1 1569:1 1801:1 1885:1 1906:1 2131:1 2766:1 2905:1 2918:1 2947:1 2948:1 
0 19.47651109767419 39:1 95:1 167:1 308:1 329:1 490:1 681:1 929:1 964:1 1103:1 1489:1 1641:1 2251:1 2421:1 2511:1 2700:1 2828:1 2869:1 3186:1 3462:1 3517:1 
0 86.11459194747721 2:1 308:1 430:1 550:1 681:1 746:1 759:1 803:1 835:1 858:1 878:1 951:1 1731:1 2421:1 2533:1 2732:1 2880:1 3178:1 3224:1 3462:1 3517:1 
237.082346720698 28.74062143141054 578:1 927:1 1158:1 1272:1 1723:1 2588:1 3280:1 3445:1 
29.83601723924663 25.52659635207464 526:1 703:1 807:1 888:1 975:1 1122:1 1283:1 1432:1 1482:1 1551:1 2089:1 2311:1 2406:1 2638:1 2693:1 2948:1 3206:1 3292:1 3332:1 3512:1 
0 32.59441646212522 165:1 237:1 430:1 959:1 1349:1 1438:1 1576:1 1720:1 1731:1 1932:1 2137:1 2241:1 2359:1 2918:1 2948:1 2974:1 3069:1 3496:1 
0 78.6582635421758 177:1 216:1 560:1 665:1 863:1 966:1 1202:1 1735:1 1803:1 2407:1 2463:1 2641:1 2719:1 2732:1 2804:1 3178:1 3194:1 
39.12537257721514 33.237731921018 2:1 170:1 243:1 292:1 756:1 795:1 961:1 1122:1 1291:1 1509:1 1598:1 1824:1 2137:1 2241:1 2367:1 2441:1 2612:1 2666:1 2766:1 2776:1 2840:1 3036:1 3040:1 3191:1 3366:1 3390:1 
0 30.17185072040786 1256:1 1664:1 2612:1 2687:1 2880:1 2939:1 3126:1 3259:1 
37.77943023015509 86.11459194747721 458:1 929:1 1290:1 1664:1 3032:1 3178:1 3251:1 
126.1568172993127 0 863:1 929:1 1263:1 2407:1 
0 12.7865061451276 21:1 39:1 430:1 451:1 557:1 708:1 863:1 1569:1 1576:1 1824:1 2518:1 2534:1 2572:1 2880:1 2929:1 2997:1 3086:1 3159:1 3178:1 3256:1 3292:1 3483:1 
0 50.23189364048592 137:1 177:1 304:1 394:1 451:1 860:1 1293:1 2330:1 2471:1 2766:1 2929:1 2948:1 3115:1 3504:1 
0 48.18767689461995 150:1 599:1 793:1 969:1 1085:1 1451:1 1750:1 2572:1 2723:1 3430:1 
376.1547787746867 0 708:1 1134:1 1263:1 1723:1 2060:1 2880:1 
0 41.18664736914643 324:1 390:1 474:1 521:1 1706:1 2328:1 2390:1 
143.9618932623285 7.134611196843799 93:1 620:1 669:1 1503:1 1795:1 2254:1 3451:1 
127.0244741181762 0 21:1 966:1 973:1 1039:1 1723:1 2131:1 2880:1 2886:1 3458:1 
0 33.88830792703069 355:1 574:1 1202:1 2085:1 2520:1 2732:1 
117.5215619218204 19.95487248517963 346:1 620:1 1214:1 1852:1 2049:1 2131:1 2166:1 2352:1 2535:1 2779:1 2918:1 3080:1 3452:1 
66.68142312708953 0 308:1 390:1 1134:1 1201:1 1569:1 1935:1 2131:1 2376:1 2624:1 2918:1 
224.8586765548628 0 1093:1 2018:1 
242.1703941184904 37.31782881611205 511:1 538:1 690:1 1796:1 
71.53623218440828 0 223:1 475:1 707:1 891:1 1364:1 1495:1 1693:1 2766:1 2880:1 3155:1 3332:1 
274.1390709762941 23.80389649461298 395:1 1803:1 2718:1 3491:1 
376.1547787746867 0 3491:1 
376.1547787746867 0 68:1 3491:1 
40.61281649466952 0 282:1 1263:1 1764:1 2417:1 2880:1 
234.81835997561 0 723:1 1256:1 1957:1 2168:1 2322:1 3117:1 
0 54.66717815122113 331:1 404:1 601:1 690:1 700:1 1041:1 1133:1 1158:1 1291:1 2676:1 2680:1 2881:1 3182:1 3239:1 3242:1 3322:1 3332:1 
169.7461709907916 38.92653478814815 2:1 242:1 484:1 578:1 643:1 712:1 803:1 970:1 984:1 1107:1 1233:1 1263:1 1283:1 1300:1 1514:1 2217:1 2263:1 3157:1 3446:1 
70.9561502802205 0 1910:1 2880:1 3023:1 
0 21.86242182775213 45:1 129:1 260:1 1824:1 2948:1 
376.1547787746867 9.107133707056111 848:1 2463:1 
92.21218099475765 86.11459194747721 1664:1 1937:1 2206:1 2217:1 2918:1 2929:1 3208:1 
119.5075790841329 0 355:1 1314:1 2017:1 2367:1 2666:1 
201.9265931202067 0 304:1 621:1 623:1 1898:1 
0 55.21441220490958 2:1 242:1 831:1 1136:1 1205:1 1563:1 3060:1 
238.6410040358235 0 576:1 3259:1 
0 73.13997596595721 516:1 1060:1 1106:1 1723:1 2007:1 
48.94955441056613 0 362:1 621:1 1500:1 1868:1 
0 86.11459194747721 855:1 1044:1 2144:1 
215.6497449680204 0 304:1 580:1 2634:1 2943:1 
99.00363035522373 74.44125296327172 2425:1 2441:1 2634:1 3191:1 
37.86544989897571 41.56284538569151 185:1 187:1 308:1 356:1 1158:1 1581:1 2303:1 2421:1 2571:1 2732:1 
194.4991667583478 0 21:1 863:1 1678:1 1932:1 2124:1 2131:1 2270:1 2409:1 2423:1 2990:1 
0 18.00595728773289 146:1 1723:1 2804:1 2990:1 
74.31967839733296 0 488:1 1699:1 1951:1 3362:1 
87.86951705961611 0 708:1 1193:1 1593:1 2137:1 2168:1 2170:1 
113.4719216205822 0 93:1 1442:1 1720:1 1793:1 2671:1 
87.60578881469667 0 1450:1 2049:1 2713:1 3116:1 3321:1 
0 4.647288706530651 204:1 304:1 670:1 1344:1 1980:1 2137:1 2681:1 2974:1 2990:1 
91.69239001739633 0 184:1 986:1 1113:1 1162:1 1204:1 1723:1 1992:1 2181:1 2241:1 2310:1 2513:1 2597:1 2884:1 2948:1 3050:1 3491:1 
215.0381029221438 0 1740:1 2570:1 
0 39.35839888786869 61:1 96:1 166:1 184:1 355:1 390:1 404:1 490:1 545:1 605:1 884:1 1113:1 1160:1 1963:1 2067:1 2287:1 2610:1 2788:1 2852:1 3143:1 3182:1 3252:1 3420:1 
0 51.07255064174955 96:1 355:1 465:1 521:1 683:1 703:1 710:1 1074:1 1084:1 1088:1 1374:1 1563:1 1861:1 2274:1 2287:1 2307:1 2572:1 2765:1 2818:1 2892:1 2894:1 3419:1 3482:1 
130.1405288662285 0 620:1 863:1 877:1 1204:1 1233:1 1432:1 2597:1 2918:1 3515:1 
0 26.38976026902213 1047:1 1158:1 1352:1 1576:1 1964:1 1981:1 2322:1 2502:1 2777:1 3259:1 3292:1 3517:1 
0 52.22025678953389 496:1 1080:1 1427:1 1796:1 1931:1 2279:1 2286:1 2889:1 
144.0384657934848 0 21:1 210:1 304:1 355:1 748:1 795:1 828:1 1291:1 1509:1 2137:1 2502:1 2603:1 2918:1 2924:1 2987:1 3280:1 3332:1 3491:1 
205.3765975490962 0 308:1 430:1 534:1 722:1 863:1 2421:1 2788:1 3332:1 3336:1 
0 86.11459194747721 284:1 390:1 578:1 686:1 703:1 851:1 2118:1 2139:1 2176:1 2729:1 2785:1 2852:1 3182:1 3239:1 3332:1 
74.48311754125064 0 184:1 521:1 578:1 708:1 712:1 1091:1 1273:1 1420:1 1576:1 2046:1 2139:1 2744:1 2962:1 3467:1 
0 77.22980417975401 831:1 1205:1 1219:1 1937:1 2300:1 2367:1 2441:1 3095:1 
57.67715044596343 0 136:1 337:1 393:1 507:1 601:1 708:1 712:1 1465:1 1502:1 2274:1 2295:1 2463:1 2549:1 2610:1 2842:1 3182:1 
0 16.19325447267924 1602:1 1606:1 2362:1 3080:1 3243:1 
0 48.75823898663958 44:1 45:1 186:1 198:1 230:1 237:1 346:1 355:1 389:1 460:1 491:1 503:1 643:1 831:1 964:1 1031:1 1064:1 1094:1 1172:1 1348:1 1495:1 1520:1 1529:1 1610:1 1617:1 1723:1 1734:1 1810:1 1865:1 1988:1 2063:1 2155:1 2166:1 2207:1 2514:1 2644:1 2687:1 2701:1 2728:1 2935:1 2990:1 3048:1 3069:1 3259:1 3264:1 
0 86.11459194747721 184:1 402:1 496:1 521:1 708:1 890:1 1220:1 1639:1 2811:1 3251:1 
18.04807990882293 15.99652876088118 19:1 291:1 320:1 805:1 831:1 906:1 933:1 1061:1 1208:1 1327:1 1522:1 1615:1 1886:1 1908:1 1966:1 2088:1 2330:1 2353:1 2456:1 2660:1 2903:1 2976:1 3113:1 3504:1 
0 8.442438366061166 18:1 19:1 305:1 320:1 531:1 551:1 660:1 831:1 850:1 858:1 963:1 1036:1 1060:1 1142:1 1283:1 1490:1 1784:1 1966:1 2017:1 2244:1 2330:1 2353:1 2456:1 2612:1 2660:1 2725:1 2976:1 3462:1 3504:1 
188.5073997331979 0 579:1 1247:1 1591:1 1671:1 2133:1 
0 5.767245515040045 831:1 858:1 860:1 937:1 1047:1 1208:1 1545:1 1908:1 1966:1 2111:1 2519:1 2564:1 3090:1 3237:1 3314:1 
0 23.44677276424552 849:1 860:1 1225:1 1263:1 1531:1 1824:1 2010:1 2066:1 2918:1 3002:1 3515:1 
63.37845503530811 0 93:1 308:1 901:1 966:1 1044:1 1263:1 1611:1 1711:1 2131:1 2421:1 2525:1 2766:1 3259:1 
27.69451957385037 0 853:1 892:1 901:1 1202:1 1266:1 1936:1 2525:1 2641:1 2652:1 2662:1 2840:1 3058:1 3211:1 3259:1 3332:1 
106.84400013167 67.97944317884163 721:1 1010:1 1245:1 2019:1 2300:1 
69.78769587617479 0 2:1 95:1 620:1 708:1 863:1 1010:1 1519:1 2322:1 2948:1 3224:1 
0 10.98939736548986 2:1 399:1 640:1 835:1 900:1 1119:1 1134:1 1276:1 1785:1 2623:1 2625:1 2766:1 2840:1 2918:1 2948:1 3034:1 3256:1 3259:1 3512:1 
376.1547787746867 15.63721541722685 31:1 646:1 1005:1 1799:1 2112:1 3450:1 
0 42.55779068665177 619:1 689:1 1047:1 1810:1 1824:1 2087:1 2299:1 2370:1 2688:1 2918:1 3209:1 3475:1 
277.151148419463 0 641:1 2922:1 
0 24.68916600818298 521:1 624:1 860:1 1208:1 1572:1 1711:1 1723:1 2034:1 2504:1 2832:1 2918:1 3178:1 
376.1547787746867 0 35:1 1117:1 1883:1 
71.1424421237962 8.819150197143937 123:1 237:1 356:1 602:1 712:1 730:1 1158:1 1639:1 1923:1 2083:1 2092:1 2224:1 2875:1 3300:1 
54.81535308857822 66.74596486947847 483:1 496:1 599:1 1072:1 1220:1 1291:1 2328:1 3239:1 3423:1 
77.37115682576 0 620:1 624:1 901:1 1711:1 2525:1 3357:1 
0 35.26545557577001 158:1 308:1 369:1 498:1 620:1 769:1 901:1 1134:1 1522:1 1739:1 1940:1 2022:1 2166:1 2240:1 2421:1 2441:1 2514:1 2525:1 2572:1 2766:1 2905:1 2918:1 2999:1 3029:1 3178:1 3211:1 3321:1 3488:1 
65.01125736492585 0 708:1 2322:1 3512:1 
0 16.94519271757795 243:1 292:1 308:1 430:1 500:1 552:1 557:1 670:1 831:1 853:1 966:1 1134:1 1146:1 1836:1 1957:1 2010:1 2322:1 2421:1 2804:1 2825:1 2859:1 2873:1 2880:1 2939:1 3178:1 3390:1 3404:1 3506:1 
0 86.11459194747721 157:1 929:1 1253:1 1292:1 1601:1 1654:1 2030:1 2465:1 2595:1 2804:1 3186:1 
0 80.8985007065247 242:1 457:1 522:1 753:1 892:1 1126:1 1155:1 1531:1 1570:1 1652:1 1735:1 1855:1 1865:1 1984:1 2316:1 2666:1 2776:1 3493:1 
0 17.36388706511739 90:1 275:1 345:1 753:1 887:1 927:1 959:1 1134:1 1576:1 1723:1 2089:1 2096:1 2712:1 2884:1 3211:1 3493:1 
0 48.19880829043634 55:1 292:1 355:1 430:1 723:1 753:1 860:1 1122:1 1126:1 1263:1 1329:1 1443:1 1462:1 1828:1 1984:1 2017:1 2241:1 2322:1 2603:1 2662:1 2918:1 3058:1 3259:1 3390:1 3493:1 
83.30684579967352 7.588998748024758 304:1 359:1 901:1 1723:1 1977:1 2525:1 2732:1 2778:1 2832:1 2918:1 3195:1 
376.1547787746867 0 901:1 1723:1 2525:1 2832:1 
63.55222063524769 0 77:1 708:1 712:1 2894:1 
26.56967451708509 0 372:1 752:1 901:1 1525:1 1550:1 1823:1 2031:1 2233:1 2525:1 2738:1 2929:1 3160:1 3211:1 3238:1 3359:1 3382:1 
48.41210948561099 0 2:1 126:1 135:1 1266:1 1291:1 1731:1 1798:1 1937:1 2009:1 2326:1 2359:1 2525:1 2969:1 3211:1 
97.61002379782717 0 1610:1 1763:1 2688:1 3292:1 
53.17417037883893 0 308:1 708:1 1556:1 2421:1 3051:1 
154.7495833964829 0 28:1 184:1 390:1 521:1 578:1 601:1 686:1 1808:1 2236:1 2271:1 2390:1 2680:1 3122:1 3283:1 3332:1 3378:1 
78.70148329056511 0 562:1 1005:1 1158:1 
95.77812513756832 0 93:1 210:1 863:1 901:1 1711:1 1723:1 1937:1 2525:1 3259:1 3321:1 
0 37.73985578828781 860:1 1542:1 1866:1 
305.5094246733911 0 2249:1 2788:1 
0 21.90824201091261 93:1 158:1 242:1 300:1 430:1 620:1 640:1 670:1 684:1 708:1 822:1 831:1 863:1 911:1 1119:1 1202:1 1208:1 1233:1 1263:1 1296:1 1432:1 1636:1 1729:1 1819:1 1915:1 1946:1 1957:1 2322:1 2367:1 2662:1 2756:1 2766:1 2918:1 3050:1 3259:1 3454:1 3511:1 
107.9832308549328 76.18653633563579 73:1 496:1 521:1 539:1 1133:1 2067:1 2605:1 3332:1 
42.2734433224788 0 57:1 287:1 380:1 562:1 708:1 1203:1 1266:1 1629:1 1902:1 2010:1 2168:1 2271:1 2482:1 3033:1 3283:1 3362:1 
165.5530017770265 55.9133296345157 346:1 831:1 1432:1 1443:1 1652:1 1937:1 2131:1 2934:1 3080:1 3180:1 
0 77.29544175033327 2:1 237:1 243:1 553:1 831:1 860:1 1027:1 1263:1 1698:1 2096:1 2124:1 2359:1 2662:1 2884:1 2990:1 3137:1 3209:1 3259:1 3390:1 3454:1 
0 29.53391110966838 708:1 849:1 1283:1 2367:1 3386:1 
0 11.63476819095565 722:1 1291:1 2075:1 2320:1 2380:1 2525:1 2919:1 
0 19.75380176398003 487:1 795:1 805:1 835:1 855:1 901:1 1262:1 1372:1 1519:1 1824:1 1861:1 1946:1 2241:1 2352:1 2368:1 2525:1 2654:1 3058:1 3292:1 3390:1 
0 32.05238347177876 2:1 21:1 158:1 719:1 831:1 835:1 863:1 1331:1 1450:1 1763:1 1912:1 1937:1 2111:1 2367:1 2594:1 2777:1 2828:1 2875:1 2918:1 3069:1 3332:1 3386:1 
151.1838182819004 0 93:1 292:1 1029:1 2124:1 2782:1 
46.97713314806928 0 55:1 1134:1 1153:1 1180:1 1329:1 1899:1 2013:1 2533:1 2732:1 2905:1 
0 13.30236650367878 139:1 509:1 599:1 1161:1 1916:1 
0 8.341165173186518 45:1 158:1 250:1 669:1 803:1 860:1 877:1 1214:1 1729:1 1932:1 2732:1 2859:1 3137:1 3357:1 
335.0286996212301 0 973:1 2788:1 2896:1 
248.0529683309261 0 132:1 2256:1 2736:1 2805:1 3408:1 3449:1 
0 58.58041801805425 495:1 684:1 836:1 1283:1 1559:1 1729:1 2390:1 2415:1 2845:1 3016:1 3107:1 3138:1 
0 26.9621825115563 345:1 451:1 564:1 620:1 708:1 901:1 1071:1 1202:1 1427:1 1432:1 1662:1 1803:1 1824:1 1873:1 1966:1 2013:1 2166:1 2525:1 2572:1 2577:1 2583:1 2987:1 3248:1 3321:1 
0 40.52024738535381 468:1 2168:1 2736:1 3182:1 
0 86.11459194747721 1122:1 1263:1 2732:1 2760:1 3259:1 3281:1 3512:1 
0 86.11459194747721 21:1 67:1 345:1 425:1 451:1 512:1 863:1 901:1 1653:1 1720:1 1861:1 2168:1 2525:1 2572:1 2732:1 2776:1 2840:1 2918:1 3016:1 3040:1 3063:1 3117:1 3127:1 3186:1 3292:1 
0 86.11459194747721 55:1 90:1 205:1 304:1 345:1 451:1 512:1 665:1 772:1 889:1 959:1 1202:1 1214:1 1372:1 1488:1 1520:1 1664:1 1861:1 1977:1 2317:1 2352:1 2522:1 2572:1 2662:1 2999:1 3050:1 3080:1 3117:1 3209:1 3259:1 3292:1 
0 86.11459194747721 495:1 1023:1 1275:1 2168:1 2875:1 3182:1 3242:1 3251:1 
50.3933319168856 70.30037576871101 23:1 204:1 292:1 308:1 345:1 629:1 848:1 902:1 927:1 964:1 1614:1 1617:1 1824:1 2087:1 2589:1 3301:1 
0 86.11459194747721 21:1 157:1 304:1 345:1 451:1 620:1 849:1 863:1 1233:1 1283:1 1291:1 1292:1 1296:1 1711:1 1720:1 2085:1 2572:1 2918:1 2990:1 
326.7057004763961 86.11459194747721 136:1 173:1 239:1 328:1 490:1 1005:1 1037:1 1074:1 1576:1 2274:1 2732:1 3242:1 
0 12.40510366092985 93:1 109:1 242:1 304:1 371:1 803:1 860:1 939:1 1288:1 1419:1 1462:1 1723:1 1827:1 1866:1 1972:1 2137:1 2533:1 2662:1 2857:1 2918:1 3259:1 3402:1 3472:1 
0 24.05371101847824 21:1 158:1 347:1 430:1 584:1 620:1 624:1 849:1 863:1 929:1 984:1 1180:1 1263:1 1283:1 1442:1 1613:1 1627:1 1937:1 1977:1 2013:1 2085:1 2096:1 2137:1 2371:1 2444:1 2687:1 2697:1 2710:1 2840:1 2918:1 2948:1 3259:1 
138.8099486371549 0 8:1 93:1 158:1 304:1 345:1 506:1 929:1 964:1 1208:1 1263:1 1394:1 1454:1 1627:1 1731:1 1977:1 2346:1 2371:1 3390:1 
0 9.847886159647368 67:1 292:1 304:1 343:1 430:1 506:1 553:1 760:1 863:1 876:1 901:1 959:1 1122:1 1208:1 1266:1 1432:1 1576:1 1622:1 1861:1 2525:1 2662:1 2732:1 2884:1 2918:1 2990:1 3050:1 3224:1 3228:1 3292:1 3321:1 3361:1 
67.27727329773688 0 158:1 177:1 345:1 803:1 901:1 927:1 1291:1 1399:1 1664:1 1733:1 2010:1 2168:1 2322:1 2525:1 2533:1 2672:1 2757:1 2888:1 3259:1 3483:1 
0 86.11459194747721 158:1 345:1 849:1 860:1 964:1 1122:1 1432:1 1866:1 2168:1 2371:1 
376.1547787746867 0 684:1 867:1 2131:1 2330:1 2480:1 
0 86.11459194747721 304:1 848:1 1202:1 1263:1 1281:1 1283:1 1296:1 1378:1 1418:1 1419:1 1593:1 1946:1 2023:1 2124:1 2241:1 2322:1 2367:1 2458:1 2461:1 2662:1 2788:1 2873:1 2948:1 3066:1 3167:1 3251:1 3316:1 3366:1 3512:1 
0 41.39860064005838 21:1 304:1 345:1 863:1 1176:1 1180:1 1233:1 1263:1 1432:1 1723:1 1803:1 1828:1 2371:1 2525:1 2671:1 2918:1 2948:1 3251:1 3321:1 3422:1 3517:1 
115.3848129310726 0 2:1 308:1 345:1 377:1 759:1 795:1 863:1 934:1 1296:1 1598:1 1693:1 1727:1 1821:1 2421:1 2589:1 2918:1 2948:1 3050:1 3332:1 3459:1 
0 17.25280023154692 2:1 44:1 304:1 345:1 451:1 495:1 650:1 652:1 670:1 684:1 703:1 708:1 752:1 803:1 835:1 863:1 947:1 952:1 964:1 1119:1 1134:1 1157:1 1162:1 1180:1 1233:1 1263:1 1339:1 1402:1 1652:1 1796:1 2124:1 2131:1 2168:1 2217:1 2322:1 2361:1 2367:1 2567:1 2572:1 2576:1 2623:1 2709:1 2778:1 2788:1 2795:1 2859:1 2918:1 2948:1 3014:1 3050:1 3058:1 3137:1 3259:1 3418:1 3454:1 3515:1 
20.6169286558494 0 13:1 80:1 126:1 227:1 495:1 513:1 578:1 712:1 901:1 1576:1 1751:1 1977:1 2271:1 2676:1 2875:1 3096:1 3215:1 3284:1 3362:1 3516:1 
90.91293558331007 0 5:1 93:1 304:1 1278:1 1283:1 1627:1 2168:1 2249:1 2325:1 2429:1 2559:1 2618:1 2788:1 3137:1 3270:1 
0 18.13514876863557 1023:1 1677:1 
76.31438602395635 0 185:1 605:1 1055:1 1074:1 2571:1 3332:1 
64.73617175379592 0 189:1 1688:1 2161:1 3303:1 
146.7878514462653 57.05974448393956 503:1 708:1 2538:1 2880:1 2918:1 
132.2346450533109 86.11459194747721 387:1 674:1 708:1 1121:1 1559:1 1639:1 1801:1 2093:1 2729:1 2852:1 3332:1 
120.660067627248 0 1433:1 1635:1 3444:1 
0 86.11459194747721 105:1 165:1 451:1 703:1 851:1 1134:1 1208:1 2040:1 2458:1 2697:1 2840:1 2918:1 3259:1 3454:1 
148.5674244890012 73.7888396077547 158:1 240:1 328:1 620:1 846:1 1849:1 2168:1 2322:1 2462:1 2503:1 3281:1 3454:1 
0 79.82167578593992 1542:1 2040:1 3259:1 3366:1 3454:1 
376.1547787746867 0 2098:1 
0 56.72654952206162 242:1 304:1 373:1 620:1 860:1 1047:1 1122:1 1283:1 1432:1 1664:1 1851:1 2217:1 2322:1 2884:1 2918:1 2929:1 2974:1 3002:1 3137:1 3240:1 
0 82.36359969349927 90:1 581:1 1677:1 2576:1 2636:1 2736:1 2979:1 3182:1 
0 86.11459194747721 219:1 1892:1 2759:1 3143:1 3449:1 
305.1986284944662 0 896:1 1626:1 2131:1 2880:1 3263:1 3328:1 
376.1547787746867 0 900:1 966:1 2131:1 2168:1 
185.2950820021045 86.11459194747721 76:1 1122:1 1134:1 1314:1 1611:1 2165:1 2778:1 3017:1 3209:1 3247:1 
64.38118835625448 47.62692486105993 492:1 529:1 709:1 803:1 1063:1 1122:1 1296:1 1432:1 1518:1 1652:1 1793:1 1999:1 2011:1 2298:1 2311:1 2327:1 2622:1 2732:1 2748:1 
0 25.64386437545705 184:1 430:1 484:1 690:1 708:1 1035:1 1088:1 1158:1 1247:1 1481:1 2067:1 2759:1 2918:1 
376.1547787746867 0 708:1 2322:1 3512:1 
116.2970288453875 0 708:1 907:1 1158:1 1283:1 1840:1 2099:1 2168:1 2322:1 2503:1 2616:1 
0 4.927499043219115 1008:1 1104:1 1158:1 1259:1 1291:1 1423:1 1718:1 2137:1 2243:1 2322:1 2473:1 2732:1 3138:1 3332:1 
46.11486759658018 0 1074:1 1084:1 3263:1 3482:1 
142.8122899663405 56.16700659541749 369:1 578:1 1006:1 1663:1 2160:1 2209:1 2398:1 2660:1 2740:1 2918:1 3014:1 
247.7129200409342 55.70527676468659 440:1 690:1 815:1 1158:1 1321:1 1773:1 1977:1 2168:1 2688:1 3182:1 
313.2959496171756 40.04276817991507 1133:1 1273:1 
243.2156844917587 86.11459194747721 277:1 1122:1 3483:1 
0 60.34940882279333 860:1 876:1 927:1 1122:1 2085:1 2533:1 2743:1 2840:1 2918:1 3079:1 3108:1 3434:1 3483:1 
0 86.11459194747721 451:1 1200:1 1352:1 1379:1 1495:1 2274:1 2359:1 2572:1 2589:1 2990:1 3244:1 
25.64246694017013 0 191:1 306:1 355:1 356:1 440:1 708:1 1135:1 1677:1 2092:1 2328:1 3121:1 3182:1 
149.4400734507983 22.96933891622153 2:1 352:1 668:1 703:1 1291:1 1723:1 1810:1 2405:1 2990:1 3077:1 3466:1 3491:1 
204.2477800907328 0 90:1 484:1 1074:1 1743:1 2127:1 3327:1 
0 21.21307166840312 184:1 352:1 355:1 471:1 490:1 599:1 1291:1 1444:1 1581:1 1639:1 2667:1 2732:1 2786:1 3357:1 
0 39.90761966921298 2:1 650:1 3043:1 
0 18.38722403446491 190:1 209:1 319:1 1162:1 1263:1 1752:1 2581:1 2732:1 2840:1 2918:1 
136.7872547798915 0 292:1 319:1 495:1 1328:1 1664:1 2654:1 2948:1 
281.8310777051694 54.7225182176573 884:1 1221:1 1261:1 2576:1 3197:1 
42.23146035362774 33.89993845490118 988:1 1074:1 1133:1 1221:1 1427:1 1484:1 2881:1 2889:1 3149:1 3182:1 3332:1 3421:1 
0 86.11459194747721 320:1 620:1 877:1 1268:1 1676:1 1937:1 2884:1 2908:1 2948:1 3295:1 
376.1547787746867 7.217524935323628 90:1 509:1 871:1 1037:1 2396:1 2554:1 2576:1 
98.25993096178649 0 380:1 447:1 495:1 501:1 1014:1 1254:1 1296:1 1695:1 1718:1 2023:1 2087:1 2503:1 2852:1 2858:1 3004:1 3062:1 3096:1 3300:1 
-376.1547787746867 132.749967262396 35:1 966:1 1005:1 2168:1 2810:1 2905:1 3256:1 
-376.1547787746867 359.8586396595282 708:1 3460:1 3512:1 
-376.1547787746867 0 708:1 1457:1 1976:1 3491:1 3512:1 
-376.1547787746867 211.3669472975641 1162:1 1300:1 2261:1 2662:1 2766:1 2918:1 3050:1 
-376.1547787746867 469.7926915290263 3240:1 
-97.14391000053568 78.99138342149948 345:1 461:1 504:1 578:1 975:1 1711:1 2131:1 2503:1 2576:1 2918:1 2940:1 3260:1 
-117.457673951807 0 1202:1 1263:1 1457:1 2124:1 2662:1 2787:1 2990:1 3392:1 3491:1 
-376.1547787746867 266.2996852607058 1063:1 1543:1 2322:1 2480:1 3259:1 
-376.1547787746867 232.3370688520646 386:1 395:1 757:1 1126:1 1263:1 1731:1 1853:1 2801:1 2888:1 2918:1 3390:1 
-0 29.4707629471202 14:1 20:1 112:1 157:1 304:1 319:1 321:1 363:1 395:1 456:1 498:1 578:1 708:1 827:1 845:1 927:1 929:1 952:1 1191:1 1208:1 1263:1 1279:1 1291:1 1387:1 1412:1 1552:1 1614:1 1627:1 1652:1 1697:1 1717:1 1723:1 1824:1 1840:1 1932:1 2137:1 2168:1 2223:1 2229:1 2241:1 2440:1 2581:1 2589:1 2595:1 2662:1 2732:1 2737:1 2797:1 2840:1 2888:1 2894:1 2918:1 2941:1 2948:1 2974:1 2990:1 3011:1 3069:1 3105:1 3137:1 3186:1 3259:1 3260:1 3390:1 3392:1 3454:1 3485:1 
-355.4187653256261 276.0727120024702 49:1 136:1 172:1 331:1 794:1 848:1 1711:1 2549:1 2576:1 2732:1 
-143.8740794592389 60.71202180844357 147:1 319:1 495:1 620:1 1081:1 1202:1 1208:1 1268:1 1283:1 1887:1 1955:1 2131:1 2427:1 2617:1 2795:1 2974:1 3240:1 3270:1 
-376.1547787746867 334.6482573505752 147:1 807:1 1271:1 2168:1 2617:1 2884:1 2929:1 3336:1 
-376.1547787746867 118.7274363818603 13:1 462:1 808:1 2275:1 3163:1 3199:1 
-211.6278265622811 0 161:1 292:1 484:1 576:1 1263:1 1457:1 1627:1 2085:1 2124:1 2131:1 2168:1 2229:1 2463:1 2880:1 2921:1 2928:1 3050:1 3186:1 3191:1 3259:1 3392:1 
-376.1547787746867 206.4593323886388 3:1 1976:1 
-376.1547787746867 109.1562909799275 690:1 842:1 1134:1 1291:1 2658:1 2918:1 3483:1 
-376.1547787746867 469.7926915290263 842:1 
-376.1547787746867 0 626:1 690:1 842:1 2658:1 2761:1 
-52.82435411241855 0 64:1 318:1 435:1 600:1 634:1 682:1 690:1 695:1 842:1 1211:1 1222:1 1247:1 1250:1 1564:1 1618:1 1640:1 1671:1 1679:1 1740:1 1835:1 2018:1 2234:1 2285:1 2290:1 2299:1 2436:1 2535:1 2931:1 3305:1 3313:1 3391:1 3466:1 
-376.1547787746867 0 626:1 690:1 842:1 2658:1 
-376.1547787746867 92.85165570254925 1134:1 1158:1 1202:1 1671:1 1672:1 1842:1 2064:1 2373:1 2662:1 2918:1 3476:1 
-311.1243771404853 29.85016081017733 690:1 842:1 1671:1 1709:1 2234:1 2875:1 
-83.72101798349738 71.70718871495612 262:1 304:1 339:1 620:1 626:1 860:1 1134:1 1169:1 1179:1 1208:1 1263:1 1482:1 1555:1 1617:1 1819:1 1886:1 1908:1 2021:1 2131:1 2436:1 2480:1 2761:1 2777:1 2791:1 2798:1 2948:1 3050:1 3063:1 3135:1 3191:1 3251:1 3390:1 
-376.1547787746867 316.1069107693511 690:1 1054:1 2662:1 2732:1 2742:1 2918:1 3439:1 
-129.358394790087 9.47177689034727 269:1 690:1 1037:1 1054:1 1218:1 1835:1 2610:1 2852:1 3426:1 
-116.6285887335486 29.4321890022298 95:1 158:1 241:1 292:1 304:1 428:1 451:1 703:1 752:1 807:1 1122:1 1457:1 1671:1 1723:1 1842:1 1891:1 2064:1 2241:1 2400:1 2776:1 3040:1 3069:1 3090:1 3102:1 3259:1 3386:1 3491:1 3498:1 
-211.176371167103 150.5555485637489 136:1 549:1 578:1 805:1 1133:1 1442:1 1540:1 1781:1 2067:1 2328:1 2561:1 2813:1 2862:1 
-376.1547787746867 63.72326235110944 90:1 805:1 890:1 1442:1 2576:1 3230:1 
-304.3257012339279 293.1027779911274 158:1 620:1 621:1 964:1 1134:1 1150:1 1181:1 1233:1 1342:1 2300:1 2322:1 2358:1 2458:1 2918:1 3086:1 3259:1 3493:1 
-0 110.4034080710302 161:1 304:1 335:1 345:1 578:1 870:1 881:1 887:1 903:1 927:1 958:1 1040:1 1263:1 1280:1 1292:1 1372:1 1803:1 2186:1 2209:1 2241:1 2367:1 2464:1 2503:1 2701:1 2715:1 2732:1 2775:1 2801:1 2948:1 2968:1 2984:1 3244:1 3276:1 3425:1 
-0 45.8465413437523 158:1 346:1 408:1 578:1 815:1 1122:1 1134:1 1172:1 1202:1 1263:1 1268:1 1727:1 1810:1 1946:1 2137:1 2241:1 2421:1 2718:1 2787:1 2801:1 2903:1 2918:1 2929:1 2980:1 3063:1 3211:1 3293:1 3297:1 
-0 51.46568239941194 35:1 44:1 275:1 292:1 304:1 306:1 364:1 420:1 556:1 932:1 1036:1 1122:1 1214:1 1233:1 1394:1 1482:1 1509:1 1617:1 1896:1 2017:1 2087:1 2090:1 2137:1 2241:1 2357:1 2918:1 2922:1 2925:1 2928:1 3050:1 3072:1 3167:1 3204:1 3259:1 3297:1 3366:1 3392:1 3415:1 3491:1 
-154.6033043422514 133.5260858905233 191:1 260:1 373:1 430:1 506:1 533:1 578:1 954:1 1361:1 1717:1 1723:1 1828:1 1834:1 1861:1 2187:1 2322:1 2572:1 2718:1 2801:1 2880:1 2884:1 2918:1 2943:1 2948:1 3050:1 3394:1 3425:1 3512:1 
-376.1547787746867 291.0199713795154 221:1 370:1 831:1 1087:1 1495:1 2124:1 2421:1 2777:1 2918:1 2980:1 3014:1 3191:1 
-376.1547787746867 124.3839802820631 346:1 1134:1 1150:1 1664:1 1827:1 1943:1 2168:1 2943:1 3211:1 3259:1 3332:1 
-83.01012452473601 62.30189079372081 16:1 21:1 35:1 237:1 242:1 292:1 304:1 345:1 351:1 394:1 620:1 798:1 802:1 803:1 807:1 812:1 855:1 1005:1 1205:1 1279:1 1432:1 1457:1 1495:1 1543:1 1555:1 1803:1 1865:1 2041:1 2085:1 2131:1 2137:1 2444:1 2509:1 2587:1 2731:1 2732:1 2787:1 2832:1 2876:1 2914:1 2918:1 3195:1 3259:1 3274:1 3363:1 3366:1 
-83.74910767522371 0 35:1 158:1 292:1 975:1 1058:1 1122:1 1263:1 1268:1 1499:1 2322:1 2777:1 2840:1 2880:1 2943:1 2948:1 2980:1 3044:1 3072:1 3231:1 3386:1 3425:1 
-308.2825648871046 0 356:1 794:1 866:1 871:1 1077:1 2127:1 2576:1 2852:1 3020:1 3036:1 3332:1 3412:1 3510:1 
-116.9113711511916 100.4299635030739 292:1 372:1 938:1 954:1 1013:1 1037:1 1892:1 2085:1 2168:1 2306:1 2365:1 2572:1 2711:1 2801:1 2879:1 2943:1 3214:1 3259:1 3400:1 
-158.9092471092256 99.09012380851325 319:1 578:1 803:1 964:1 1097:1 1263:1 1314:1 1627:1 2168:1 2365:1 2467:1 2592:1 2732:1 2777:1 2905:1 3256:1 3259:1 3496:1 
-176.2195175173541 0 35:1 201:1 420:1 932:1 1233:1 1597:1 2300:1 3502:1 
-376.1547787746867 38.36180864071073 35:1 279:1 934:1 1122:1 1207:1 1723:1 1937:1 3321:1 
-341.5248181778247 54.5452417331913 130:1 292:1 380:1 521:1 703:1 835:1 1301:1 1310:1 1629:1 1688:1 2292:1 2524:1 2688:1 2951:1 
-376.1547787746867 218.4712571311902 1255:1 1837:1 2445:1 3433:1 
-144.4609217909417 0 319:1 355:1 1338:1 1711:1 1834:1 2228:1 2322:1 2325:1 2412:1 2430:1 2445:1 2467:1 2603:1 2718:1 2880:1 3392:1 3403:1 3491:1 
-0 26.82022980824808 35:1 162:1 300:1 345:1 350:1 355:1 394:1 395:1 454:1 460:1 474:1 563:1 578:1 684:1 703:1 752:1 803:1 807:1 827:1 875:1 888:1 929:1 1047:1 1098:1 1122:1 1134:1 1202:1 1208:1 1233:1 1248:1 1263:1 1283:1 1291:1 1296:1 1300:1 1337:1 1378:1 1408:1 1542:1 1543:1 1593:1 1627:1 1646:1 1664:1 1711:1 1762:1 1802:1 1831:1 1847:1 2131:1 2149:1 2229:1 2322:1 2347:1 2377:1 2441:1 2503:1 2504:1 2581:1 2662:1 2688:1 2718:1 2732:1 2791:1 2832:1 2918:1 2948:1 2963:1 2974:1 2983:1 2990:1 3011:1 3014:1 3167:1 3259:1 3320:1 3321:1 3326:1 3332:1 3454:1 
-376.1547787746867 243.3008214401154 1362:1 2131:1 2502:1 3483:1 
-376.1547787746867 0 2:1 484:1 578:1 1475:1 2170:1 2322:1 2918:1 3000:1 3390:1 3392:1 3483:1 
-376.1547787746867 56.1500367338058 2:1 292:1 368:1 747:1 1208:1 1338:1 1886:1 2855:1 2877:1 2891:1 2918:1 3209:1 
-376.1547787746867 401.3772275562837 210:1 676:1 845:1 984:1 1432:1 1824:1 
-20.79087989912614 21.59460911729988 228:1 242:1 304:1 345:1 461:1 620:1 748:1 807:1 860:1 975:1 1122:1 1150:1 1158:1 1202:1 1208:1 1233:1 1263:1 1300:1 1319:1 1372:1 1432:1 1462:1 1495:1 1617:1 1723:1 1834:1 2010:1 2125:1 2137:1 2249:1 2480:1 2581:1 2589:1 2662:1 2776:1 2864:1 2918:1 2974:1 3040:1 3241:1 3321:1 3390:1 3392:1 3454:1 
-249.9461178816651 173.68710022221 35:1 244:1 934:1 1613:1 2778:1 2801:1 3045:1 
-84.70555760206345 47.67348787081204 292:1 541:1 642:1 728:1 807:1 1059:1 1086:1 1122:1 1202:1 1245:1 1276:1 1359:1 1416:1 1593:1 1600:1 1674:1 1731:1 1762:1 1937:1 2010:1 2038:1 2300:1 2311:1 2382:1 2512:1 2544:1 2556:1 2705:1 2766:1 2788:1 2791:1 2880:1 2918:1 3020:1 3117:1 3178:1 3186:1 3195:1 3321:1 
-376.1547787746867 469.7926915290263 563:1 
-226.0938684239549 42.71512466628406 13:1 287:1 304:1 1165:1 1224:1 1291:1 1296:1 1542:1 1711:1 1754:1 1765:1 1869:1 2105:1 2266:1 2422:1 2645:1 2726:1 2764:1 2826:1 3258:1 3286:1 3332:1 
-376.1547787746867 0 1046:1 2480:1 3392:1 
-376.1547787746867 0 439:1 973:1 2480:1 3392:1 
-376.1547787746867 202.422948281953 1202:1 1566:1 2325:1 3255:1 
-376.1547787746867 0 1046:1 1834:1 1977:1 2880:1 3392:1 
-332.9409020839832 0 578:1 1214:1 1291:1 2891:1 3465:1 
-376.1547787746867 227.0081564647784 199:1 1119:1 1659:1 1943:1 3244:1 
-0 71.77676741259151 35:1 260:1 345:1 613:1 807:1 956:1 1038:1 1122:1 1202:1 1233:1 1395:1 1432:1 1457:1 1690:1 1711:1 1866:1 2300:1 2418:1 2581:1 3244:1 3259:1 3321:1 3465:1 
-376.1547787746867 148.201798962924 132:1 445:1 493:1 503:1 578:1 2787:1 3242:1 3449:1 
-376.1547787746867 194.6770336390912 1065:1 1150:1 1495:1 1509:1 2137:1 2241:1 2773:1 3178:1 
-376.1547787746867 185.3586363048589 201:1 408:1 525:1 1214:1 3332:1 
-376.1547787746867 0 132:1 1074:1 1678:1 2679:1 
-376.1547787746867 38.37798898909136 337:1 1037:1 1072:1 1678:1 2896:1 
-126.2086608930216 83.07067975690508 21:1 201:1 300:1 304:1 375:1 576:1 760:1 899:1 912:1 1119:1 1134:1 1202:1 1246:1 1263:1 1268:1 1402:1 1522:1 1545:1 1633:1 1652:1 1717:1 1793:1 1803:1 1937:1 1943:1 2010:1 2085:1 2087:1 2131:1 2137:1 2203:1 2572:1 2651:1 2666:1 2888:1 2918:1 2974:1 3244:1 3259:1 3392:1 3483:1 
-308.7431056438709 138.3616044823089 539:1 578:1 1344:1 1433:1 1718:1 2288:1 2747:1 2907:1 2948:1 3051:1 3308:1 
-83.32031219188758 72.87572268294973 13:1 51:1 130:1 287:1 295:1 380:1 678:1 703:1 792:1 854:1 1104:1 1122:1 1152:1 1296:1 1300:1 1608:1 1737:1 1749:1 1875:1 1902:1 1953:1 1960:1 1961:1 2125:1 2151:1 2153:1 2214:1 2450:1 2499:1 2616:1 2649:1 2735:1 2763:1 2826:1 2917:1 3004:1 3291:1 3367:1 3395:1 
-376.1547787746867 159.5483449488282 304:1 445:1 592:1 807:1 1202:1 1450:1 1592:1 1651:1 2137:1 2369:1 2581:1 2974:1 3332:1 
-376.1547787746867 256.4286398054032 620:1 1122:1 1324:1 3460:1 
-376.1547787746867 0 708:1 3357:1 3392:1 3512:1 
-376.1547787746867 0 177:1 228:1 578:1 1348:1 1495:1 2019:1 2131:1 3392:1 
-20.46456414554996 59.75773849097865 201:1 213:1 226:1 237:1 304:1 430:1 516:1 517:1 643:1 710:1 945:1 964:1 994:1 1006:1 1391:1 1417:1 1464:1 1707:1 1791:1 1833:1 1913:1 1920:1 1976:1 2130:1 2175:1 2193:1 2350:1 2456:1 2471:1 2477:1 2500:1 2528:1 2532:1 2589:1 2612:1 2615:1 2687:1 2701:1 2732:1 2801:1 
-376.1547787746867 0 430:1 1263:1 1720:1 1834:1 2168:1 2792:1 2832:1 3332:1 3374:1 3392:1 3459:1 
-376.1547787746867 178.7727201495109 708:1 1678:1 3018:1 3419:1 
-376.1547787746867 106.6322899366636 1338:1 2880:1 3057:1 
-376.1547787746867 132.6034512109072 166:1 606:1 1138:1 1678:1 1700:1 2092:1 2878:1 
-311.6517767273132 83.78238263168278 396:1 578:1 1132:1 1467:1 2266:1 2473:1 3046:1 
-376.1547787746867 0 201:1 708:1 2480:1 
-376.1547787746867 0 21:1 327:1 803:1 1495:1 2131:1 2321:1 3392:1 
-376.1547787746867 132.7334131230743 430:1 879:1 1598:1 1711:1 1919:1 2098:1 2117:1 2306:1 2729:1 2782:1 3058:1 3200:1 
-222.3967984529161 58.70938225214645 68:1 292:1 329:1 345:1 445:1 446:1 543:1 552:1 652:1 670:1 784:1 795:1 927:1 932:1 1233:1 1527:1 1723:1 1727:1 2087:1 2136:1 2186:1 2722:1 2884:1 2912:1 2999:1 3195:1 3406:1 
-155.8177439844784 0 260:1 878:1 1263:1 1338:1 1482:1 1827:1 1884:1 1943:1 2322:1 2872:1 2918:1 2929:1 3491:1 
-376.1547787746867 143.1038403628997 335:1 620:1 2168:1 3321:1 
-70.01662597943582 0 93:1 319:1 430:1 439:1 1441:1 1482:1 1626:1 1827:1 1943:1 2480:1 2662:1 2884:1 2974:1 3017:1 3119:1 3259:1 3392:1 
-140.8088051230682 0 44:1 461:1 620:1 767:1 1208:1 1517:1 1731:1 2010:1 2421:1 2503:1 3125:1 3392:1 
-376.1547787746867 127.8615304910566 492:1 641:1 1716:1 2345:1 2732:1 3204:1 
-376.1547787746867 0 35:1 138:1 815:1 885:1 1093:1 1652:1 1723:1 2445:1 3125:1 
-216.686593905788 0 35:1 68:1 355:1 485:1 640:1 717:1 878:1 1158:1 1291:1 1300:1 1314:1 1693:1 1727:1 2131:1 2137:1 2178:1 2662:1 2787:1 3256:1 3459:1 3476:1 
-376.1547787746867 0 199:1 578:1 973:1 1884:1 2209:1 3465:1 
-376.1547787746867 70.0052282137092 676:1 684:1 815:1 1406:1 2131:1 2152:1 
-376.1547787746867 61.41638300908966 250:1 929:1 1457:1 1866:1 2801:1 
-376.1547787746867 469.7926915290263 708:1 3249:1 
-376.1547787746867 96.14957555772281 3249:1 
-376.1547787746867 0 1976:1 2306:1 2472:1 2480:1 
-376.1547787746867 469.7926915290263 3465:1 
-12.51316004786039 0 486:1 703:1 807:1 845:1 1282:1 1834:1 2010:1 2085:1 2492:1 2503:1 2787:1 3058:1 3281:1 3392:1 
-376.1547787746867 184.7309061264526 3:1 557:1 860:1 973:1 1134:1 1268:1 1627:1 2643:1 3141:1 
-321.1496702327963 0 448:1 578:1 679:1 795:1 1015:1 1560:1 2322:1 3111:1 
-376.1547787746867 0 3:1 1626:1 
-376.1547787746867 193.7199795265561 1626:1 1946:1 3491:1 
-177.0122057974061 25.84749948888321 93:1 292:1 684:1 709:1 860:1 927:1 961:1 1048:1 1208:1 1263:1 1338:1 1664:1 1735:1 1855:1 2010:1 2241:1 2306:1 2407:1 2445:1 2732:1 2776:1 2918:1 3017:1 3072:1 3392:1 3462:1 3491:1 
-60.81462669602457 19.42611957595548 35:1 147:1 161:1 199:1 652:1 956:1 1005:1 1047:1 1162:1 1230:1 1263:1 1266:1 1276:1 1333:1 1651:1 1937:1 1946:1 2131:1 2168:1 2241:1 2367:1 2503:1 2658:1 2662:1 2716:1 2774:1 2884:1 2930:1 2990:1 2999:1 3017:1 3193:1 3386:1 
-376.1547787746867 139.7607917559597 807:1 1701:1 2282:1 3491:1 
-227.4917078174628 113.7405059925664 2:1 74:1 158:1 243:1 304:1 460:1 553:1 620:1 684:1 708:1 752:1 807:1 870:1 887:1 929:1 1202:1 1208:1 1543:1 1614:1 1639:1 1652:1 1720:1 1801:1 1855:1 1932:1 2010:1 2085:1 2168:1 2217:1 2241:1 2322:1 2662:1 2918:1 2974:1 3012:1 3017:1 3069:1 3256:1 3259:1 3332:1 3500:1 3508:1 3515:1 
-70.33844475444251 192.5683864966084 578:1 1055:1 1372:1 1457:1 1598:1 1672:1 2801:1 2999:1 3178:1 3259:1 
-217.8934882702002 0 35:1 68:1 93:1 210:1 445:1 594:1 722:1 1216:1 1711:1 1956:1 2131:1 2256:1 2398:1 2495:1 2540:1 2801:1 3259:1 3321:1 3366:1 
-376.1547787746867 0 199:1 2282:1 2398:1 3491:1 
-347.3817389089211 0 147:1 676:1 1245:1 1808:1 2358:1 2440:1 2480:1 3392:1 
-338.3503521063055 0 229:1 242:1 304:1 319:1 460:1 474:1 620:1 669:1 853:1 1097:1 1134:1 1263:1 1708:1 1723:1 1735:1 1937:1 2131:1 2300:1 2581:1 2655:1 2658:1 2918:1 2929:1 2948:1 3106:1 3259:1 3292:1 3401:1 
-376.1547787746867 0 1281:1 1636:1 1976:1 2184:1 2787:1 3491:1 
-376.1547787746867 0 3240:1 
-376.1547787746867 0 37:1 1022:1 2858:1 
-376.1547787746867 127.9256614337778 31:1 646:1 1005:1 1799:1 2112:1 3450:1 
-376.1547787746867 257.1016679180853 871:1 
-376.1547787746867 214.057328829241 304:1 524:1 1333:1 1457:1 1610:1 1803:1 2451:1 2973:1 2990:1 3011:1 3050:1 
-106.459852801236 173.1186300037942 61:1 79:1 93:1 136:1 139:1 167:1 284:1 546:1 601:1 681:1 690:1 704:1 712:1 814:1 871:1 890:1 988:1 1041:1 1411:1 1439:1 1639:1 2286:1 2459:1 2576:1 2614:1 2652:1 2732:1 3182:1 3239:1 3242:1 3251:1 3307:1 3348:1 3378:1 3420:1 
-0 254.0773404352487 35:1 242:1 345:1 451:1 1122:1 1202:1 1808:1 1937:1 2413:1 2440:1 2572:1 3392:1 3425:1 3491:1 3517:1 
-0 21.85286330791553 35:1 308:1 556:1 578:1 620:1 681:1 961:1 1412:1 1752:1 1887:1 2306:1 2421:1 2612:1 2918:1 2929:1 3443:1 3462:1 
-224.5254380230848 0 578:1 921:1 1413:1 1887:1 2131:1 2145:1 2654:1 2880:1 3268:1 
-376.1547787746867 204.0767720067138 1054:1 
-376.1547787746867 0 3460:1 
-376.1547787746867 421.120438206532 486:1 
-376.1547787746867 0 842:1 1144:1 3223:1 
-376.1547787746867 0 3240:1 
-376.1547787746867 0 37:1 1022:1 2858:1 
-376.1547787746867 469.7926915290263 985:1 
-376.1547787746867 125.7090712648042 486:1 712:1 1121:1 1133:1 1741:1 2571:1 
-376.1547787746867 0 35:1 308:1 712:1 1263:1 1611:1 2131:1 2421:1 2610:1 2676:1 
-376.1547787746867 186.3484691454678 534:1 1207:1 1520:1 1723:1 1734:1 2788:1 2880:1 2948:1 3326:1 3515:1 
-376.1547787746867 50.64434580905395 304:1 660:1 863:1 901:1 2525:1 3050:1 
-376.1547787746867 135.144434178451 1074:1 1366:1 1528:1 3183:1 
-376.1547787746867 71.17341579590749 242:1 345:1 535:1 708:1 845:1 2249:1 2623:1 2662:1 2766:1 2788:1 
-376.1547787746867 284.5092362241652 356:1 438:1 2391:1 3016:1 3122:1 3426:1 
-376.1547787746867 231.1003005912459 1037:1 1074:1 1121:1 1133:1 1221:1 2732:1 3307:1 
-376.1547787746867 0 721:1 860:1 929:1 1005:1 2241:1 2322:1 2880:1 2929:1 3117:1 3392:1 
-376.1547787746867 0 308:1 708:1 842:1 863:1 1664:1 1720:1 1937:1 2168:1 2367:1 2421:1 2480:1 2948:1 3515:1 
-0 128.5080089864805 198:1 335:1 620:1 1263:1 1283:1 1457:1 1720:1 1723:1 2249:1 2766:1 2788:1 2801:1 3332:1 
-376.1547787746867 0 708:1 863:1 901:1 1195:1 1263:1 1723:1 1866:1 2168:1 2300:1 2336:1 2503:1 2525:1 2732:1 
-98.19363989879557 38.54785072071402 28:1 66:1 156:1 366:1 380:1 488:1 722:1 826:1 998:1 1174:1 1187:1 1301:1 1544:1 1869:1 1951:1 2217:1 2275:1 2463:1 2503:1 2567:1 2608:1 2658:1 2746:1 2826:1 2845:1 2913:1 3124:1 3341:1 3354:1 3393:1 3463:1 
-376.1547787746867 109.9340518694981 3240:1 
-376.1547787746867 259.657210974019 37:1 1022:1 2858:1 
-0 99.88959613844553 161:1 201:1 242:1 260:1 304:1 516:1 620:1 723:1 892:1 964:1 1263:1 1333:1 1482:1 1716:1 1720:1 2168:1 2507:1 2662:1 2801:1 2902:1 2909:1 2948:1 2987:1 2990:1 3030:1 3251:1 3332:1 
-259.7534737397706 210.1354805550073 49:1 93:1 132:1 490:1 848:1 1121:1 1273:1 2732:1 2774:1 2883:1 
-376.1547787746867 135.1569200345466 807:1 1477:1 1723:1 2011:1 2257:1 2503:1 3491:1 3515:1 
-140.1386441208697 0 14:1 35:1 242:1 275:1 304:1 660:1 887:1 1005:1 1122:1 1233:1 1263:1 1500:1 2223:1 2662:1 2705:1 2784:1 
-275.7888212868224 0 486:1 807:1 1202:1 1369:1 2241:1 2968:1 3325:1 3459:1 
-35.22842983684842 59.75100845309161 29:1 136:1 254:1 490:1 578:1 738:1 831:1 848:1 978:1 1042:1 1122:1 1167:1 1458:1 1512:1 1614:1 1632:1 1793:1 1934:1 1979:1 2366:1 2477:1 2571:1 2610:1 2688:1 2783:1 2829:1 2870:1 2927:1 2999:1 3171:1 3182:1 3197:1 3263:1 3389:1 3392:1 
-65.5400840941801 35.33137556147635 52:1 164:1 187:1 292:1 413:1 578:1 848:1 890:1 1060:1 1254:1 1463:1 1577:1 1634:1 1677:1 1678:1 1848:1 2852:1 3085:1 3182:1 3197:1 3239:1 
-84.16748112208303 0 99:1 304:1 1074:1 1077:1 1093:1 1180:1 1678:1 1711:1 2176:1 2249:1 2322:1 2367:1 2610:1 2854:1 3081:1 3182:1 
-265.9928563085533 0 578:1 635:1 848:1 890:1 1261:1 2125:1 2576:1 
-0 143.3664835001858 136:1 326:1 356:1 578:1 848:1 871:1 890:1 1133:1 1230:1 1577:1 2163:1 2461:1 2576:1 2933:1 3078:1 3164:1 3182:1 3251:1 
-275.0198128362454 69.70337694191707 578:1 871:1 1037:1 1977:1 2461:1 2576:1 
-123.7994696960241 102.8876661978191 184:1 187:1 442:1 578:1 1245:1 1586:1 2610:1 2732:1 3183:1 3426:1 
-376.1547787746867 68.41546397274259 194:1 731:1 1054:1 1418:1 1492:1 1569:1 1740:1 
-376.1547787746867 156.10725727627 845:1 917:1 1204:1 1993:1 2597:1 2714:1 3259:1 3321:1 
-175.0523031223889 167.367411311724 132:1 192:1 269:1 490:1 521:1 848:1 1121:1 1506:1 2126:1 2346:1 2571:1 2704:1 2732:1 2786:1 2874:1 
-93.47540845609662 165.7220615004565 2:1 201:1 292:1 703:1 964:1 1005:1 1457:1 1587:1 1645:1 1755:1 1793:1 2435:1 2572:1 2862:1 
-0 77.59978972938561 157:1 236:1 300:1 363:1 398:1 606:1 620:1 662:1 688:1 753:1 798:1 849:1 853:1 932:1 1096:1 1233:1 1303:1 1433:1 1457:1 1711:1 1762:1 1781:1 1793:1 1896:1 2168:1 2339:1 2440:1 2449:1 2592:1 2687:1 2719:1 2787:1 2868:1 2891:1 2925:1 3256:1 
-376.1547787746867 61.28543360137883 1263:1 1285:1 2666:1 2990:1 3392:1 3459:1 3491:1 
-86.11459194747721 -282.640472489788 966:1 1021:1 1256:1 1361:1 1711:1 2572:1 2918:1 3051:1 3339:1 
-86.11459194747721 -36.38361579864938 43:1 260:1 474:1 1122:1 1395:1 1445:1 1727:1 1998:1 2137:1 2367:1 2507:1 2519:1 2533:1 2801:1 2980:1 3016:1 3191:1 3375:1 
-86.11459194747721 -59.30529763575909 49:1 132:1 166:1 173:1 503:1 578:1 993:1 1005:1 1072:1 1133:1 1275:1 1581:1 2362:1 2576:1 2729:1 2732:1 2862:1 2874:1 2881:1 2889:1 3016:1 3182:1 3252:1 3317:1 3332:1 3421:1 
-86.11459194747721 -311.8984596125962 387:1 674:1 708:1 1121:1 1559:1 1639:1 1801:1 2093:1 2729:1 2852:1 3332:1 
-86.11459194747721 -129.1936989969555 55:1 308:1 681:1 929:1 936:1 959:1 1052:1 1748:1 2322:1 2421:1 2485:1 3178:1 3186:1 3244:1 3462:1 3496:1 
-86.11459194747721 -0 2:1 41:1 76:1 157:1 214:1 329:1 803:1 831:1 1122:1 1281:1 1336:1 1617:1 1855:1 2300:1 2322:1 2463:1 2662:1 2687:1 2840:1 2918:1 3209:1 3382:1 3493:1 
-86.11459194747721 -0 387:1 674:1 708:1 1121:1 1559:1 1639:1 1801:1 2093:1 2729:1 2852:1 3332:1 
-86.11459194747721 -0 157:1 162:1 1150:1 2137:1 2687:1 2918:1 2955:1 2974:1 
-86.11459194747721 -0 21:1 142:1 151:1 157:1 250:1 552:1 564:1 831:1 853:1 860:1 863:1 901:1 929:1 931:1 1126:1 1146:1 1253:1 1272:1 1296:1 1542:1 1627:1 1729:1 1735:1 1977:1 1984:1 2010:1 2085:1 2371:1 2525:1 2533:1 2595:1 2840:1 2918:1 2948:1 3137:1 3251:1 3259:1 3309:1 3363:1 3454:1 3455:1 3483:1 3506:1 3515:1 
-86.11459194747721 -469.7926915290263 162:1 498:1 860:1 2766:1 3016:1 
-86.11459194747721 -0 2:1 68:1 345:1 498:1 521:1 652:1 703:1 721:1 753:1 889:1 931:1 1094:1 1134:1 1254:1 1291:1 1378:1 1576:1 1793:1 1851:1 1896:1 1901:1 1957:1 1984:1 2011:1 2322:1 2367:1 2441:1 2502:1 2676:1 2918:1 2987:1 3016:1 3186:1 3209:1 3292:1 3297:1 3374:1 3493:1 
-86.11459194747721 -180.6596845056297 507:1 521:1 1283:1 3194:1 3242:1 
-86.11459194747721 -469.7926915290263 136:1 468:1 848:1 2788:1 3194:1 
-86.11459194747721 -26.39886821740405 345:1 512:1 860:1 888:1 1122:1 1432:1 1653:1 1866:1 2085:1 3117:1 
-86.11459194747721 -0 2:1 451:1 512:1 845:1 849:1 860:1 929:1 1653:1 1866:1 2320:1 2572:1 2662:1 2919:1 
-86.11459194747721 -469.7926915290263 219:1 468:1 708:1 2732:1 2736:1 
-86.11459194747721 -231.4517387277711 93:1 451:1 512:1 849:1 1653:1 2572:1 
-86.11459194747721 -8.747855030778393 67:1 237:1 328:1 345:1 430:1 552:1 620:1 708:1 889:1 895:1 900:1 961:1 1430:1 1446:1 1664:1 1725:1 1729:1 1795:1 1801:1 1803:1 1810:1 1896:1 2095:1 2118:1 2168:1 2217:1 2320:1 2383:1 2662:1 2732:1 2792:1 2919:1 2990:1 3038:1 3066:1 3208:1 3251:1 3256:1 3369:1 3459:1 
-86.11459194747721 -135.3637038391327 860:1 1134:1 1333:1 2948:1 3080:1 3110:1 3180:1 3194:1 
-86.11459194747721 -0 21:1 158:1 375:1 512:1 708:1 722:1 860:1 863:1 1233:1 2217:1 2322:1 2918:1 3194:1 3259:1 3332:1 
-86.11459194747721 -0 157:1 805:1 849:1 889:1 1043:1 1292:1 1857:1 1896:1 2300:1 2918:1 2939:1 2990:1 3178:1 3200:1 3259:1 3349:1 
-86.11459194747721 -244.2471735789102 44:1 451:1 512:1 1689:1 1896:1 1946:1 2168:1 2322:1 2572:1 2918:1 2948:1 3259:1 
-86.11459194747721 -363.292402608593 173:1 219:1 690:1 708:1 1284:1 1977:1 2571:1 3307:1 
-86.11459194747721 -86.20403010331445 90:1 157:1 345:1 620:1 756:1 772:1 807:1 828:1 1202:1 1482:1 1520:1 1521:1 1664:1 1720:1 1723:1 2367:1 2662:1 2732:1 3016:1 3066:1 3181:1 3326:1 3443:1 3491:1 
-27.18005438494966 -0 79:1 90:1 105:1 246:1 326:1 440:1 468:1 484:1 493:1 605:1 686:1 890:1 1084:1 1351:1 1931:1 2067:1 2263:1 2328:1 2410:1 2639:1 2686:1 2769:1 2836:1 2852:1 2875:1 2889:1 3148:1 3182:1 3194:1 3251:1 3342:1 3495:1 
-86.11459194747721 -15.32226564249147 2:1 215:1 242:1 430:1 506:1 650:1 708:1 807:1 831:1 1122:1 1283:1 1946:1 2011:1 2108:1 2186:1 2322:1 2918:1 2948:1 3224:1 3259:1 
-86.11459194747721 -64.75661863997308 15:1 136:1 357:1 671:1 703:1 810:1 848:1 1254:1 1273:1 1398:1 1410:1 2387:1 2610:1 2774:1 2976:1 3026:1 3182:1 3242:1 3277:1 3308:1 
-86.11459194747721 -149.814249953834 105:1 878:1 1216:1 1263:1 1592:1 1849:1 1855:1 2166:1 2168:1 2322:1 2462:1 2918:1 3017:1 3044:1 3251:1 3454:1 
-86.11459194747721 -155.7886412606799 345:1 385:1 791:1 851:1 860:1 1215:1 2601:1 3127:1 3178:1 3259:1 3454:1 
-86.11459194747721 -215.3060451622211 105:1 198:1 659:1 851:1 911:1 1474:1 1542:1 1803:1 2458:1 2956:1 3259:1 
-86.11459194747721 -212.5629744717071 158:1 292:1 547:1 620:1 670:1 831:1 1122:1 1202:1 1263:1 1432:1 1797:1 2010:1 2044:1 2113:1 2137:1 2611:1 2617:1 2628:1 2709:1 2974:1 2990:1 3050:1 3132:1 3191:1 3259:1 
-86.11459194747721 -166.3351094483719 219:1 1427:1 2093:1 2732:1 2875:1 3121:1 3321:1 3342:1 
-41.80611025969935 -6.749866942351491 10:1 134:1 158:1 304:1 330:1 395:1 412:1 460:1 480:1 500:1 584:1 620:1 759:1 807:1 1005:1 1047:1 1122:1 1248:1 1263:1 1346:1 1471:1 1560:1 1653:1 1731:1 1828:1 1849:1 1886:1 1995:1 2011:1 2078:1 2206:1 2322:1 2504:1 2533:1 2591:1 2662:1 2758:1 2776:1 2880:1 2884:1 2905:1 2911:1 2918:1 2990:1 3040:1 3050:1 3214:1 3255:1 3259:1 3316:1 3386:1 3436:1 3454:1 3512:1 
-86.11459194747721 -469.7926915290263 845:1 855:1 3194:1 
-86.11459194747721 -200.7446642414807 1133:1 1636:1 1639:1 2067:1 2610:1 3194:1 3332:1 
-86.11459194747721 -162.2096097608134 147:1 1096:1 1352:1 1378:1 1828:1 2641:1 2990:1 3194:1 3332:1 
-4.905508038220569 -0 165:1 292:1 345:1 386:1 411:1 451:1 512:1 631:1 803:1 841:1 878:1 897:1 943:1 1047:1 1122:1 1148:1 1208:1 1212:1 1283:1 1314:1 1376:1 1664:1 1692:1 1716:1 1717:1 1723:1 1731:1 1830:1 1919:1 1937:1 1946:1 2011:1 2068:1 2124:1 2137:1 2166:1 2170:1 2322:1 2367:1 2378:1 2695:1 2732:1 2750:1 2900:1 2918:1 2938:1 2966:1 3044:1 3052:1 3178:1 3240:1 3244:1 3251:1 3318:1 3366:1 
-86.11459194747721 -31.59770666795123 212:1 345:1 422:1 855:1 860:1 1122:1 1214:1 1626:1 1865:1 2322:1 2441:1 2533:1 2918:1 2929:1 3209:1 3251:1 3321:1 3483:1 
-8.898005288968452 -0 2:1 24:1 100:1 158:1 186:1 230:1 254:1 292:1 329:1 346:1 365:1 395:1 430:1 500:1 553:1 557:1 620:1 720:1 760:1 807:1 831:1 860:1 870:1 887:1 927:1 929:1 992:1 1122:1 1134:1 1155:1 1254:1 1263:1 1276:1 1283:1 1294:1 1296:1 1432:1 1562:1 1617:1 1711:1 1793:1 1819:1 1824:1 1937:1 1959:1 1984:1 2017:1 2020:1 2085:1 2087:1 2165:1 2241:1 2300:1 2359:1 2367:1 2421:1 2503:1 2589:1 2612:1 2638:1 2662:1 2687:1 2732:1 2776:1 2778:1 2840:1 2884:1 2918:1 2929:1 2948:1 2990:1 3017:1 3043:1 3224:1 3244:1 3290:1 3366:1 3390:1 
-86.11459194747721 -54.09276298928102 79:1 187:1 219:1 404:1 484:1 557:1 574:1 690:1 758:1 827:1 1121:1 1158:1 1284:1 1291:1 1581:1 1773:1 1781:1 2126:1 2636:1 2666:1 2809:1 3143:1 3312:1 
-86.11459194747721 -266.1148385535438 61:1 490:1 848:1 1035:1 1040:1 1121:1 1639:1 1800:1 2163:1 2303:1 2576:1 2732:1 2774:1 3182:1 3242:1 
-86.11459194747721 -0 363:1 451:1 708:1 946:1 1653:1 1861:1 2572:1 3512:1 
-86.11459194747721 -0 185:1 490:1 496:1 855:1 1041:1 1677:1 1860:1 2067:1 2127:1 2258:1 2572:1 2576:1 2604:1 2680:1 2686:1 2875:1 3121:1 3182:1 3239:1 3421:1 
-86.11459194747721 -198.941772778073 706:1 912:1 1404:1 1482:1 1653:1 2186:1 2440:1 2801:1 2918:1 2980:1 
-86.11459194747721 -68.99136531013902 2:1 35:1 158:1 198:1 381:1 708:1 840:1 860:1 900:1 927:1 952:1 1095:1 1134:1 1296:1 1617:1 2209:1 2471:1 2701:1 2948:1 2956:1 3259:1 3512:1 3517:1 
-86.11459194747721 -52.25171725791849 150:1 224:1 298:1 447:1 572:1 955:1 979:1 989:1 1051:1 1224:1 1227:1 1283:1 1793:1 1881:1 1902:1 1929:1 2033:1 2563:1 2845:1 2847:1 3046:1 3174:1 3244:1 
-86.11459194747721 -150.5666364596804 1861:1 1902:1 2051:1 2106:1 2107:1 2108:1 2585:1 2685:1 3096:1 3503:1 
-86.11459194747721 -319.0659523821775 404:1 1133:1 1275:1 1779:1 1813:1 2127:1 2328:1 3251:1 
-86.11459194747721 -238.3409528012552 116:1 451:1 1047:1 1214:1 1498:1 1553:1 2111:1 2572:1 2930:1 3014:1 
-86.11459194747721 -38.32185413429364 88:1 120:1 136:1 337:1 493:1 503:1 692:1 703:1 848:1 919:1 1023:1 1030:1 1133:1 1355:1 1396:1 1414:1 1636:1 1660:1 1705:1 1714:1 1796:1 2054:1 2119:1 2237:1 2278:1 2682:1 2852:1 2935:1 3299:1 3348:1 
-86.11459194747721 -226.156856917321 62:1 147:1 161:1 322:1 1567:1 2245:1 2417:1 2503:1 2558:1 2671:1 3016:1 
-86.11459194747721 -0 185:1 490:1 496:1 855:1 1041:1 1677:1 1860:1 2067:1 2127:1 2258:1 2572:1 2576:1 2604:1 2680:1 2686:1 2875:1 3121:1 3182:1 3239:1 3421:1 
-86.11459194747721 -469.7926915290263 578:1 619:1 831:1 1610:1 2884:1 2918:1 2973:1 3438:1 
-86.11459194747721 -0 4:1 16:1 292:1 831:1 1134:1 1175:1 1291:1 1292:1 1361:1 1471:1 1861:1 2367:1 2559:1 2918:1 2990:1 3080:1 3178:1 3209:1 3478:1 
-51.69168317322394 -0 88:1 141:1 219:1 234:1 493:1 605:1 1032:1 1042:1 1255:1 1306:1 1861:1 1971:1 2002:1 2459:1 2732:1 2769:1 2809:1 3080:1 3239:1 3307:1 
-86.11459194747721 -376.278443867388 155:1 681:1 887:1 1744:1 1994:1 2804:1 3169:1 
-86.11459194747721 -349.8775938246443 21:1 38:1 166:1 855:1 1383:1 1711:1 2732:1 3496:1 
-86.11459194747721 -167.2482177731079 496:1 516:1 545:1 639:1 686:1 806:1 2168:1 2176:1 2355:1 2362:1 2385:1 2459:1 2862:1 3143:1 3182:1 
-86.11459194747721 -69.0960557131319 2:1 68:1 242:1 304:1 346:1 347:1 350:1 574:1 807:1 831:1 964:1 991:1 1158:1 1202:1 1263:1 1288:1 1294:1 1521:1 1893:1 2131:1 2186:1 2241:1 2425:1 2884:1 2916:1 2948:1 2980:1 3051:1 3244:1 3251:1 3259:1 3392:1 3472:1 
-86.11459194747721 -41.46273024161846 79:1 88:1 516:1 578:1 601:1 866:1 1428:1 1577:1 1639:1 2093:1 2103:1 2572:1 2736:1 3121:1 3299:1 3312:1 3348:1 3459:1 
-86.11459194747721 -162.2146912243354 228:1 260:1 367:1 860:1 1395:1 2017:1 2641:1 2794:1 2929:1 3178:1 3191:1 3493:1 
-86.11459194747721 -238.1918354781039 277:1 304:1 367:1 369:1 1122:1 1292:1 1861:1 1937:1 2131:1 2581:1 2778:1 2974:1 3483:1 3493:1 
-86.11459194747721 -131.5428339985153 21:1 485:1 540:1 803:1 1292:1 1395:1 1495:1 1861:1 1945:1 2330:1 2732:1 2801:1 2905:1 3256:1 3504:1 
-86.11459194747721 -0 941:1 1119:1 1292:1 1826:1 1861:1 1908:1 2154:1 2330:1 2501:1 3194:1 3197:1 3504:1 
-12.56051174324755 -0 304:1 346:1 492:1 522:1 573:1 703:1 721:1 807:1 835:1 860:1 861:1 912:1 944:1 1155:1 1176:1 1208:1 1294:1 1349:1 1432:1 1448:1 1482:1 1521:1 1570:1 1593:1 1653:1 1664:1 1816:1 1821:1 1893:1 2281:1 2300:1 2491:1 2527:1 2662:1 2701:1 2740:1 2776:1 2800:1 2840:1 2908:1 3194:1 3251:1 3321:1 3366:1 3517:1 
-86.11459194747721 -0 242:1 620:1 831:1 1134:1 1262:1 1283:1 1722:1 2884:1 3093:1 3176:1 3244:1 3251:1 
-86.11459194747721 -0 105:1 136:1 141:1 187:1 313:1 484:1 521:1 686:1 690:1 788:1 983:1 1213:1 1232:1 1781:1 2006:1 2732:1 3143:1 3194:1 3481:1 
-86.11459194747721 -103.7834854533297 136:1 139:1 184:1 331:1 337:1 490:1 495:1 496:1 521:1 599:1 686:1 993:1 1005:1 1037:1 1055:1 1074:1 1080:1 1133:1 1505:1 1586:1 1678:1 1785:1 1897:1 2168:1 2410:1 2729:1 2732:1 2904:1 3016:1 3078:1 3197:1 3262:1 3420:1 3449:1 3495:1 
-86.11459194747721 -121.8959772231326 61:1 105:1 128:1 605:1 1410:1 1677:1 1897:1 2328:1 2410:1 2571:1 2769:1 2866:1 3148:1 
-69.65114638843153 -94.58940671518977 187:1 193:1 324:1 490:1 522:1 539:1 551:1 557:1 578:1 783:1 871:1 1098:1 1221:1 1407:1 1576:1 1644:1 1717:1 1781:1 2093:1 2163:1 2263:1 2635:1 2666:1 2732:1 2788:1 2809:1 3016:1 3225:1 3342:1 
-68.61071987230736 -0 136:1 539:1 656:1 686:1 690:1 1098:1 1161:1 1185:1 1444:1 1576:1 1596:1 1861:1 2093:1 2139:1 2631:1 2667:1 2704:1 2809:1 2889:1 3073:1 3143:1 3182:1 3239:1 3459:1 
-86.11459194747721 -187.3828873821732 173:1 187:1 703:1 1098:1 1861:1 2461:1 2786:1 3252:1 3330:1 
-6.807103004245093 -0 158:1 278:1 345:1 346:1 500:1 638:1 874:1 887:1 1057:1 1134:1 1155:1 1200:1 1292:1 1353:1 1362:1 1432:1 1545:1 1652:1 1748:1 1759:1 1861:1 1984:1 2039:1 2066:1 2125:1 2293:1 2371:1 2504:1 2533:1 2666:1 2732:1 2743:1 2778:1 2974:1 2990:1 3042:1 3080:1 3178:1 3281:1 3517:1 
-86.11459194747721 -65.0778708211556 278:1 369:1 706:1 835:1 1520:1 1545:1 1810:1 1944:1 2241:1 2245:1 2918:1 2974:1 3311:1 
-27.93617258108266 -0 53:1 69:1 86:1 105:1 310:1 403:1 455:1 561:1 578:1 591:1 610:1 633:1 785:1 789:1 834:1 847:1 901:1 908:1 974:1 1027:1 1039:1 1109:1 1125:1 1165:1 1217:1 1239:1 1301:1 1372:1 1557:1 1580:1 1628:1 1880:1 1918:1 1921:1 1924:1 1952:1 2048:1 2088:1 2094:1 2165:1 2219:1 2315:1 2397:1 2402:1 2435:1 2526:1 2575:1 2582:1 2596:1 2835:1 2856:1 2989:1 3039:1 3168:1 3244:1 3269:1 3284:1 3354:1 3399:1 3462:1 3490:1 3516:1 
-86.11459194747721 -125.7656819877082 53:1 245:1 432:1 1039:1 1875:1 1880:1 1929:1 2094:1 2165:1 2204:1 2623:1 2677:1 3244:1 3311:1 3516:1 
-36.52575101196413 -14.67842642317326 39:1 300:1 304:1 367:1 370:1 390:1 400:1 452:1 460:1 490:1 720:1 721:1 802:1 803:1 837:1 900:1 964:1 1047:1 1208:1 1260:1 1306:1 1545:1 1658:1 1796:1 1802:1 1949:1 1997:1 2124:1 2125:1 2320:1 2330:1 2431:1 2511:1 2514:1 2518:1 2743:1 2745:1 2854:1 2918:1 2953:1 2974:1 2991:1 3118:1 3167:1 3227:1 3244:1 3251:1 3288:1 3318:1 3354:1 3415:1 3468:1 3493:1 
-86.11459194747721 -32.34502008350736 242:1 292:1 417:1 498:1 838:1 1122:1 1292:1 1378:1 1457:1 1598:1 1861:1 1911:1 2007:1 2011:1 2128:1 2186:1 2948:1 3186:1 3271:1 3334:1 3399:1 
-11.33130607264131 -0 35:1 407:1 578:1 675:1 703:1 803:1 966:1 1021:1 1134:1 1263:1 1292:1 1402:1 1593:1 1691:1 1861:1 2108:1 2116:1 2147:1 2205:1 2252:1 2331:1 2467:1 2514:1 2576:1 2732:1 2740:1 2777:1 3244:1 3251:1 3259:1 3354:1 3435:1 3515:1 
-7.049777431195782 -74.21335629416431 35:1 168:1 260:1 311:1 578:1 807:1 1292:1 1395:1 1457:1 1570:1 1598:1 1861:1 1892:1 1917:1 1976:1 2213:1 2238:1 2300:1 2467:1 2740:1 2801:1 2840:1 2918:1 3068:1 3191:1 3251:1 3366:1 3457:1 3491:1 
-31.53959997266954 -0 105:1 258:1 484:1 613:1 693:1 803:1 837:1 874:1 880:1 964:1 1027:1 1047:1 1122:1 1150:1 1208:1 1263:1 1361:1 1407:1 1444:1 1598:1 1735:1 1949:1 2039:1 2067:1 2125:1 2165:1 2365:1 2474:1 2514:1 2612:1 2846:1 2904:1 2928:1 2929:1 3006:1 3050:1 3097:1 3178:1 3244:1 3259:1 3281:1 3318:1 3396:1 3493:1 
-86.11459194747721 -271.0702886309714 278:1 1126:1 1292:1 1861:1 1944:1 3434:1 
-86.11459194747721 -166.8966548057976 212:1 673:1 918:1 938:1 1202:1 1454:1 1824:1 2776:1 2867:1 2967:1 3027:1 3040:1 3259:1 3454:1 
-86.11459194747721 -88.99297337263718 19:1 223:1 323:1 395:1 1122:1 1200:1 1364:1 1379:1 1675:1 1967:1 2217:1 2359:1 2567:1 2589:1 2905:1 2990:1 3064:1 3178:1 3366:1 
-86.11459194747721 -311.1818234467469 408:1 522:1 2165:1 2389:1 2776:1 3244:1 3366:1 
-86.11459194747721 -240.895357998306 2:1 242:1 578:1 684:1 748:1 1122:1 1202:1 1233:1 1283:1 1782:1 2131:1 2186:1 2217:1 2241:1 2273:1 2662:1 2918:1 3244:1 3251:1 3390:1 
-86.11459194747721 -0 2:1 426:1 912:1 964:1 1521:1 1652:1 1653:1 1748:1 2365:1 2918:1 2990:1 3493:1 
-86.11459194747721 -247.9482248048197 278:1 690:1 1283:1 1977:1 2168:1 2359:1 2759:1 2983:1 3259:1 
-86.11459194747721 -98.49535532468192 18:1 237:1 578:1 725:1 1150:1 1233:1 1393:1 1422:1 1570:1 1693:1 2208:1 2503:1 2522:1 2632:1 2852:1 3094:1 3496:1 
-86.11459194747721 -0 237:1 912:1 927:1 1122:1 1202:1 1263:1 1542:1 1563:1 1611:1 1653:1 1723:1 1824:1 2867:1 2918:1 3060:1 3259:1 
-86.11459194747721 -0 430:1 451:1 912:1 1653:1 2367:1 2572:1 2688:1 2867:1 2907:1 3262:1 
-7.244686517360182 -0 79:1 136:1 144:1 219:1 292:1 328:1 521:1 557:1 601:1 805:1 983:1 993:1 1039:1 1071:1 1074:1 1098:1 1393:1 1427:1 1496:1 1669:1 1721:1 1886:1 2084:1 2087:1 2163:1 2410:1 2461:1 2484:1 2516:1 2522:1 2629:1 2636:1 2706:1 2732:1 2774:1 2852:1 2904:1 2992:1 2996:1 3144:1 3244:1 3252:1 3312:1 
-86.11459194747721 -155.3299924925086 13:1 133:1 237:1 287:1 834:1 940:1 996:1 1203:1 1330:1 1374:1 1751:1 2143:1 2309:1 2375:1 3098:1 
-77.24843434843044 -38.60485298183458 18:1 158:1 228:1 237:1 292:1 430:1 620:1 684:1 703:1 855:1 880:1 980:1 983:1 1150:1 1263:1 1338:1 1978:1 1989:1 2078:1 2131:1 2199:1 2316:1 2322:1 2367:1 2504:1 2628:1 2629:1 2646:1 2776:1 2832:1 2834:1 2884:1 3058:1 3178:1 3218:1 3240:1 3321:1 3366:1 3439:1 
-86.11459194747721 -219.9336890410961 108:1 288:1 467:1 711:1 739:1 834:1 1541:1 1749:1 2123:1 2424:1 2473:1 3162:1 
-86.11459194747721 -75.79949316814042 237:1 430:1 912:1 927:1 1122:1 1202:1 1263:1 1563:1 1611:1 1617:1 1653:1 1824:1 2918:1 3060:1 3259:1 
-16.23830064232405 -0 2:1 101:1 242:1 266:1 422:1 512:1 803:1 860:1 912:1 1432:1 1473:1 1653:1 2079:1 2124:1 2137:1 2395:1 2433:1 2814:1 2840:1 2918:1 2974:1 2990:1 3076:1 3131:1 3137:1 3178:1 3209:1 3517:1 
-48.76269227345374 -61.80958455252486 289:1 292:1 508:1 703:1 861:1 912:1 928:1 1000:1 1005:1 1128:1 1134:1 1214:1 1522:1 1598:1 1617:1 1653:1 1687:1 1723:1 1814:1 1914:1 2165:1 2170:1 2421:1 2439:1 2533:1 2589:1 2688:1 2694:1 2999:1 3131:1 3178:1 3335:1 
-61.03441359367537 -54.59278219234094 221:1 300:1 414:1 611:1 655:1 837:1 912:1 1027:1 1087:1 1134:1 1391:1 1510:1 1653:1 2008:1 2052:1 2150:1 2348:1 2432:1 2437:1 2505:1 2606:1 2688:1 2747:1 2918:1 3002:1 3131:1 3461:1 
-76.62521388347855 -39.09387186284871 2:1 759:1 912:1 1009:1 1367:1 1407:1 1510:1 1653:1 1664:1 1731:1 2732:1 2990:1 3015:1 3120:1 3244:1 3335:1 
-86.11459194747721 -86.8267420743597 158:1 266:1 807:1 912:1 1122:1 1243:1 1263:1 1447:1 1653:1 1905:1 2137:1 2356:1 2395:1 2905:1 2999:1 3080:1 3092:1 3407:1 
-26.83150080176188 -0 2:1 512:1 578:1 659:1 912:1 1292:1 1531:1 1653:1 1937:1 2124:1 2438:1 2626:1 3209:1 3259:1 3439:1 3472:1 3493:1 
-32.02944214002206 -0 147:1 158:1 242:1 255:1 260:1 300:1 304:1 388:1 422:1 451:1 522:1 578:1 605:1 618:1 620:1 703:1 803:1 823:1 831:1 840:1 927:1 952:1 1047:1 1055:1 1134:1 1176:1 1209:1 1263:1 1272:1 1300:1 1378:1 1501:1 1511:1 1529:1 1676:1 1720:1 1824:1 1885:1 1937:1 2007:1 2009:1 2131:1 2168:1 2170:1 2241:1 2367:1 2420:1 2572:1 2647:1 2662:1 2690:1 2718:1 2740:1 2776:1 2880:1 2918:1 2921:1 2929:1 2948:1 2990:1 2999:1 3002:1 3044:1 3080:1 3115:1 3128:1 3191:1 3259:1 3281:1 3366:1 3390:1 3464:1 
-86.11459194747721 -0 849:1 1095:1 1134:1 1962:1 2019:1 2471:1 2662:1 2776:1 2852:1 2884:1 2918:1 2990:1 3251:1 
-62.40798910650582 -0 11:1 136:1 158:1 187:1 192:1 557:1 840:1 952:1 1055:1 1095:1 1122:1 1520:1 1773:1 1937:1 2019:1 2338:1 2471:1 2634:1 2968:1 3178:1 3259:1 3281:1 
-86.11459194747721 -0 15:1 521:1 611:1 783:1 890:1 1095:1 1861:1 2721:1 2732:1 3239:1 
-86.11459194747721 -180.5934588433133 88:1 496:1 521:1 890:1 1427:1 2459:1 3059:1 3239:1 3251:1 3421:1 
-19.11046553015208 -0 139:1 167:1 344:1 493:1 521:1 599:1 611:1 618:1 794:1 973:1 1035:1 1072:1 1095:1 1221:1 1643:1 1843:1 1861:1 2256:1 2522:1 2876:1 2881:1 2890:1 2893:1 3016:1 3110:1 3182:1 3239:1 3262:1 3420:1 3421:1 
-86.11459194747721 -0 84:1 105:1 320:1 451:1 654:1 849:1 1617:1 1653:1 1866:1 2572:1 2701:1 2732:1 2948:1 
-86.11459194747721 -172.0549452922891 474:1 512:1 1233:1 1263:1 1441:1 1653:1 2408:1 2732:1 3017:1 3195:1 
-24.01178598458085 -0 105:1 108:1 345:1 359:1 383:1 460:1 620:1 910:1 932:1 1122:1 1134:1 1292:1 1441:1 1735:1 1802:1 1803:1 1985:1 2007:1 2028:1 2134:1 2367:1 2413:1 2628:1 2662:1 2732:1 2743:1 2750:1 2757:1 2778:1 2822:1 2918:1 3027:1 3115:1 3117:1 3251:1 3399:1 
-86.11459194747721 -469.7926915290263 500:1 620:1 984:1 2066:1 2721:1 
-86.11459194747721 -289.1330070233966 287:1 1095:1 1902:1 2073:1 2572:1 3196:1 3430:1 
-28.77726565103507 -0 13:1 46:1 119:1 142:1 245:1 287:1 299:1 304:1 341:1 380:1 410:1 522:1 569:1 586:1 667:1 808:1 834:1 855:1 909:1 979:1 1051:1 1122:1 1168:1 1192:1 1281:1 1283:1 1298:1 1301:1 1506:1 1547:1 1629:1 1703:1 1861:1 1865:1 1869:1 1951:1 2001:1 2123:1 2168:1 2194:1 2197:1 2204:1 2397:1 2404:1 2454:1 2487:1 2596:1 2666:1 2847:1 2917:1 2951:1 2954:1 3007:1 3021:1 3022:1 3096:1 3107:1 3138:1 3165:1 3177:1 3321:1 3331:1 3350:1 3352:1 3393:1 3399:1 3416:1 
-23.07501052352693 -0 320:1 346:1 634:1 652:1 807:1 964:1 1095:1 1292:1 1314:1 1861:1 1891:1 2019:1 2471:1 2589:1 2948:1 3100:1 3311:1 3491:1 
-83.43892441617088 -130.4067728150802 430:1 807:1 964:1 1018:1 1095:1 1202:1 1372:1 1393:1 1727:1 1937:1 2019:1 2440:1 2471:1 2948:1 3251:1 3398:1 
-43.59174350939531 -0 105:1 260:1 292:1 320:1 620:1 708:1 807:1 835:1 926:1 929:1 975:1 1095:1 1652:1 1676:1 1720:1 1802:1 1937:1 1977:1 2019:1 2168:1 2471:1 2732:1 2778:1 2948:1 3041:1 3251:1 3366:1 
-86.11459194747721 -0 63:1 451:1 952:1 1292:1 1432:1 1723:1 1731:1 1861:1 1937:1 2472:1 2572:1 3014:1 3129:1 3443:1 
-86.11459194747721 -429.6643290538342 807:1 1058:1 1437:1 2721:1 3231:1 
-86.11459194747721 -469.7926915290263 136:1 503:1 671:1 2774:1 
-73.77688856580767 -107.6281779549778 158:1 247:1 329:1 480:1 652:1 803:1 1095:1 1122:1 1134:1 1300:1 1327:1 1346:1 1676:1 1937:1 2019:1 2367:1 2471:1 2503:1 2576:1 2662:1 2912:1 2918:1 2974:1 3117:1 3285:1 
-86.11459194747721 -0 157:1 831:1 984:1 1005:1 1122:1 1664:1 1687:1 1723:1 1937:1 2173:1 2367:1 2503:1 2687:1 2990:1 
-86.11459194747721 -368.3622915655875 304:1 420:1 807:1 964:1 1104:1 1134:1 1150:1 1176:1 1432:1 1520:1 1645:1 1652:1 2435:1 2576:1 3208:1 3297:1 3512:1 3515:1 
-86.11459194747721 -371.5165666241304 157:1 620:1 966:1 1285:1 
-86.11459194747721 -111.3220226387076 35:1 157:1 537:1 620:1 725:1 927:1 975:1 1202:1 1268:1 1353:1 1614:1 1723:1 1828:1 1840:1 1844:1 2030:1 2137:1 2441:1 2470:1 2598:1 2662:1 2687:1 2732:1 2897:1 3214:1 
-61.40229391922958 -0 157:1 395:1 512:1 652:1 721:1 964:1 1134:1 1937:1 2438:1 2628:1 2687:1 2918:1 3132:1 3493:1 
-61.42466743536936 -0 2:1 20:1 90:1 292:1 304:1 451:1 574:1 612:1 620:1 677:1 807:1 913:1 1096:1 1150:1 1263:1 1482:1 1500:1 1676:1 1723:1 1748:1 1996:1 2085:1 2165:1 2241:1 2245:1 2265:1 2572:1 2662:1 2665:1 2671:1 2732:1 2840:1 2880:1 3244:1 3387:1 3517:1 
-7.122642889940299 -46.36222088457404 35:1 157:1 242:1 329:1 375:1 451:1 677:1 723:1 899:1 1005:1 1150:1 1176:1 1233:1 1263:1 1281:1 1300:1 1457:1 1598:1 1723:1 1819:1 1827:1 2089:1 2131:1 2168:1 2241:1 2333:1 2662:1 2687:1 2740:1 2778:1 2801:1 2840:1 2918:1 2948:1 2982:1 2990:1 3244:1 3259:1 3294:1 3332:1 3387:1 3475:1 3491:1 
-86.11459194747721 -64.16324586970975 27:1 651:1 878:1 1292:1 1793:1 1861:1 2162:1 2732:1 2918:1 2922:1 3192:1 3374:1 3517:1 
-86.11459194747721 -469.7926915290263 1083:1 1220:1 1803:1 2085:1 2801:1 3259:1 
-86.11459194747721 -158.3218890809072 202:1 807:1 1011:1 1083:1 1604:1 2801:1 2840:1 2918:1 3493:1 
-86.11459194747721 -229.3881885093348 20:1 243:1 913:1 1134:1 1613:1 1815:1 1842:1 2087:1 2369:1 2489:1 2719:1 2801:1 2804:1 2907:1 2918:1 3050:1 3517:1 
-0 -76.22590487085461 2:1 157:1 161:1 202:1 304:1 345:1 578:1 660:1 720:1 932:1 1150:1 1263:1 1333:1 1348:1 1432:1 1457:1 1494:1 1598:1 1723:1 1851:1 2011:1 2365:1 2581:1 2662:1 2732:1 2747:1 2787:1 2801:1 2980:1 2990:1 3002:1 3016:1 3050:1 3109:1 3145:1 3178:1 3245:1 3251:1 3294:1 3443:1 3465:1 3491:1 
-0 -23.54668440282279 2:1 12:1 35:1 165:1 202:1 292:1 304:1 345:1 390:1 451:1 460:1 570:1 578:1 763:1 849:1 916:1 964:1 1005:1 1101:1 1128:1 1134:1 1195:1 1202:1 1214:1 1234:1 1288:1 1395:1 1432:1 1457:1 1495:1 1523:1 1816:1 1920:1 2019:1 2108:1 2131:1 2165:1 2169:1 2241:1 2316:1 2322:1 2329:1 2365:1 2401:1 2606:1 2617:1 2672:1 2726:1 2732:1 2740:1 2801:1 2888:1 2907:1 2918:1 2939:1 2948:1 2990:1 3014:1 3051:1 3069:1 3117:1 3178:1 3183:1 3188:1 3191:1 3214:1 3244:1 3251:1 3310:1 3396:1 3415:1 3459:1 3472:1 3491:1 
-21.83244541412531 -55.50188848043942 35:1 211:1 320:1 484:1 516:1 584:1 675:1 851:1 857:1 876:1 929:1 1150:1 1333:1 1412:1 1457:1 1471:1 1482:1 1500:1 1543:1 1614:1 1637:1 1652:1 1786:1 1984:1 1985:1 1996:1 2010:1 2011:1 2245:1 2320:1 2322:1 2521:1 2589:1 2671:1 2743:1 2780:1 2787:1 2801:1 2884:1 2918:1 2919:1 3094:1 3178:1 3202:1 3209:1 3323:1 
-37.85008203771423 -78.66806640834035 165:1 260:1 328:1 345:1 355:1 395:1 430:1 451:1 578:1 620:1 840:1 851:1 870:1 964:1 1208:1 1333:1 1352:1 1450:1 1457:1 1474:1 1543:1 1664:1 1720:1 1723:1 1746:1 1777:1 1808:1 1824:1 1937:1 1984:1 2007:1 2045:1 2124:1 2137:1 2168:1 2172:1 2300:1 2322:1 2365:1 2367:1 2572:1 2672:1 2787:1 2840:1 2867:1 2888:1 2918:1 3251:1 3259:1 3321:1 3346:1 3415:1 3496:1 3517:1 
-86.11459194747721 -469.7926915290263 157:1 
-86.11459194747721 -469.7926915290263 157:1 2687:1 
-86.11459194747721 -188.6073467905761 157:1 1150:1 2687:1 
-86.11459194747721 -0 157:1 165:1 703:1 964:1 2687:1 3178:1 
